{
  "input_size": 44,
  "hidden_sizes": [
    24,
    24
  ],
  "output_size": 16,
  "layers": [
    {
      "weights": [
        [
          -0.15969016160562408,
          0.06891178896377102,
          0.0822732577067762,
          0.1793793146418399,
          0.06315508984092819,
          0.25552504602343556,
          0.13685871742925784,
          0.0758568669214617,
          -0.09650031838024004,
          0.2811920618371273,
          0.13620977730677006,
          0.14720180815624181,
          -0.02795121335719619,
          -0.15719711285879429,
          -0.1710797097382325,
          0.21363278673591224,
          0.12597122874199845,
          0.13837053395697382,
          0.09867835742483837,
          -0.07267657032466965,
          -0.2532227093932843,
          -0.16799737509791604,
          -0.08883313739981913,
          -0.29170292382947777,
          0.29071820041184276,
          -0.1693570983646297,
          -0.06903633677429899,
          -0.1722761823689324,
          -0.029488002907070973,
          -0.03755370420502703,
          0.2429904047303433,
          0.26446641650166103,
          -0.10140649939003588,
          -0.008533558980258862,
          -0.2319928299788675,
          -0.04532267781822772,
          -0.2870671031043253,
          0.23461856617103108,
          -0.25530079083747603,
          0.2850510084458566,
          0.243620431168791,
          -0.17522607869860893,
          -0.2375028018310654,
          0.06276625508411414
        ],
        [
          0.07241884428681601,
          -0.11266667438428725,
          0.05754364512710142,
          0.11864744167057564,
          0.3005539339209438,
          0.2462014094677011,
          0.11332662166741257,
          -0.20866307701901227,
          0.16845876632901782,
          -0.17239981039684793,
          -0.13868259936392074,
          0.07833357995203724,
          -0.16514373980386354,
          0.06720923287724644,
          -0.1762693206366785,
          0.037019511972897136,
          -0.20716290635469894,
          0.027135185460142208,
          0.18188635276417914,
          0.15888364153389545,
          -0.25765470655961453,
          -0.01212112977015619,
          -0.0454786964963551,
          0.2056352533696716,
          0.1596199061145895,
          0.18686294785618618,
          0.2625906576023395,
          0.08538482287857038,
          -0.20896975310336877,
          0.15071346926389606,
          0.16176446253967958,
          -0.10237204496834384,
          0.28157143260564027,
          0.16811232926603428,
          -0.021472524251190596,
          0.01842123169103766,
          -0.1607144091197085,
          0.13179297535099826,
          0.3383510459102143,
          0.17696314729773627,
          0.08852896353908188,
          0.3125954267943636,
          -0.25107801705781835,
          0.2940199156079742
        ],
        [
          0.21996399935080355,
          -0.014770830734516292,
          0.24598474075642693,
          -0.1976261503764663,
          0.049686988902338865,
          -0.07800904959726561,
          0.16770905304398095,
          0.2740181228016982,
          0.2518316290965578,
          0.1813917905427433,
          0.17540664228291775,
          0.1540071515893078,
          0.039705734124709825,
          0.35346088871296627,
          0.4118557368344569,
          -0.26966272916184375,
          0.20443059042382927,
          0.019132901448014647,
          0.10570663573383177,
          -0.2858009843433646,
          0.0665781361173154,
          -0.06553556681663783,
          -0.11519957708910199,
          0.22924484421433228,
          0.015875061604906395,
          0.06850076339769387,
          0.18682977656389776,
          0.26631446354945276,
          -0.143260824906843,
          -0.16453677018418766,
          -0.15312972971969602,
          -0.12172225372381554,
          0.22841019124167006,
          0.11565697301113838,
          -0.18188816294560559,
          -0.18340395516854427,
          0.16249166614644717,
          0.1324622103976798,
          -0.06569241499728323,
          0.1572690361000314,
          -0.15213091778167187,
          -0.072820663450723,
          -0.005798370426552336,
          0.04883165518168632
        ],
        [
          0.10126678269818856,
          -0.0025143378214268967,
          0.18092606050572246,
          -0.003016472912874333,
          -0.18696541543474854,
          -0.21036547670274994,
          -0.1895566123585493,
          0.14761593727419928,
          -0.2119658709250209,
          0.2532516529334007,
          0.002128148631060309,
          -0.28431357784362704,
          -0.004129363600511273,
          0.012177362108971107,
          0.13314915889642942,
          -0.27001142957208946,
          0.15667220321866482,
          -0.15329822310352487,
          0.18947814359694012,
          0.10330949751471655,
          -0.15758270117067436,
          0.15269471387137196,
          0.02669282142586575,
          -0.054493447622237325,
          0.16319131978884627,
          0.20413977545041714,
          -0.1994974678855989,
          0.18231513518675546,
          0.08807765962353166,
          -0.27891577673644485,
          -0.29343155590449393,
          0.018022843922136933,
          0.2288233035373922,
          -0.12663650145015887,
          -0.03963663174501089,
          -0.09463041283245813,
          -0.019096681267563913,
          -0.21691210767220753,
          0.24097932004961234,
          -0.06038391609373419,
          -0.05679535979846429,
          -0.18490371096460395,
          -0.06015333795607872,
          -0.0634565041102293
        ],
        [
          0.11510834017667888,
          0.11487210237257087,
          0.1901524885068674,
          0.22959950257070172,
          -0.23934037298905445,
          -0.01216112837537783,
          -0.13096201427000148,
          0.18495256167246002,
          -0.2353433371330706,
          -0.06246017945773866,
          0.0799563102011151,
          0.04657120167206048,
          0.018896257883861102,
          -0.28557855726472936,
          -0.22476839485189537,
          0.24722036063376682,
          -0.14048074180670755,
          0.24119717088025114,
          0.04032571208650514,
          0.09423577011833288,
          0.061801486032803596,
          -0.024386622714276527,
          -0.11599761744064307,
          -0.09150362078261304,
          -0.18586748211933754,
          0.16893830143234334,
          -0.28504291590828224,
          0.21262004459666742,
          -0.09764766081434195,
          -0.054804473340429635,
          0.0019260386117225553,
          -0.13669132408547766,
          0.008937633444769253,
          -0.019266386660465314,
          0.022965176461054775,
          0.051469998701724966,
          0.17290984324330175,
          -0.030738100187665453,
          -0.08686509263990484,
          0.24135918573480786,
          -0.24259469079896098,
          -0.05664132635171259,
          -0.21803377700921436,
          -0.2639236397602109
        ],
        [
          -0.20896326193119394,
          -0.019509489169839137,
          -0.19719302113080497,
          -0.08660529299302837,
          -0.015642779889686494,
          0.26057510022210445,
          -0.13183281136167777,
          -0.053193864098208345,
          -0.12945882365433037,
          0.041921648862729435,
          0.14136628070559853,
          -0.27627813959552217,
          0.14856318082604628,
          -0.008542558943107991,
          -0.0003870530102375373,
          -0.21004234709770578,
          -0.16931076580056476,
          0.07140251712330141,
          -0.16520984266614963,
          0.09269967704328173,
          -0.010180216873938571,
          -0.25111793950533406,
          -0.11471619922692113,
          0.03877664330042262,
          -0.2018995529613361,
          0.13748118119953795,
          -0.05537185629730797,
          -0.055202125714604366,
          0.04265919965297338,
          0.1527178459224691,
          0.28702740362423473,
          -0.04647653559879601,
          0.21131737319023208,
          -0.20559100674107192,
          0.15104353358024467,
          -0.16915896008674525,
          0.16457045933761183,
          0.20818942233825852,
          0.043788721323948,
          0.20408843729183318,
          -0.2788391282578917,
          -0.08089590536998845,
          -0.27060650832037453,
          -0.06685873285737161
        ],
        [
          0.3105443130339462,
          0.33532984621361367,
          0.06140377182152177,
          -0.1808204609818895,
          0.16508526005590338,
          0.16065428968113357,
          -0.14340173135742262,
          0.08515978107850423,
          -0.14120764097011684,
          -0.04193297419878676,
          -0.10985513073227444,
          -0.26619781039194845,
          -0.272350458025944,
          -0.22892110811824712,
          -0.21393252670440666,
          0.15913306371251865,
          0.21086210570433797,
          -0.22336812006572057,
          -0.2516732311757293,
          -0.062313120304099384,
          0.1637817702483033,
          -0.07974177499793515,
          0.12932971708738683,
          0.15867723413460083,
          0.11414525596006875,
          -0.1499632657940499,
          0.08533721700382034,
          -0.19414348111568122,
          -0.2713815106045407,
          -0.07298144827151624,
          0.3340631650496471,
          0.11307377247324897,
          0.05905090393553836,
          -0.2041811973460114,
          0.14449934161569317,
          -0.0785900209867936,
          -0.05681562395609137,
          0.1783833870815833,
          0.2921555901484536,
          -0.05686354783826152,
          0.015493433553174953,
          0.08319717614493984,
          0.29669384856135406,
          -0.07100134315984032
        ],
        [
          0.037777403195037675,
          0.24701918585553606,
          0.0717835821933535,
          0.2526531788584885,
          0.1195827154437495,
          0.038937288355511,
          -0.13812316826140575,
          -0.06991785499397647,
          -0.2510253228840531,
          0.09780921417809696,
          -0.17441602566532297,
          -0.20632504749551164,
          0.18230366666247916,
          -0.16975571831627886,
          0.2004790290418431,
          0.24507806257607911,
          0.27230935593036243,
          -0.13234775697553794,
          -0.26917836665049055,
          0.2525908855349118,
          0.12150027481799076,
          -0.15291085916562122,
          -0.16498221310247768,
          0.20747511814645944,
          -0.20814627929752194,
          0.1533977247031901,
          -0.2902657835500803,
          0.01416514662008992,
          0.07342568029449695,
          -0.10543288350202883,
          0.1821957157270418,
          0.10378761845353825,
          -0.03664901919988174,
          -0.010916257574892965,
          0.04528840575855194,
          -0.059748364503763245,
          0.28195133635538133,
          0.11499179032435773,
          -0.1771519528145823,
          -0.14264459663419338,
          -0.04147839485631724,
          -0.11745361149930089,
          0.2634739400038359,
          -0.19958765080093357
        ],
        [
          0.29365354498838897,
          -0.17264455523480984,
          -0.18802965745815872,
          -0.10158246312248068,
          -0.0924238459256222,
          0.26442905646113685,
          -0.13924421342037693,
          -0.09963006972028653,
          0.14877197219714433,
          -0.03271512056084183,
          0.22720667966142355,
          0.06996360948512925,
          0.16310504049873398,
          0.19649347652908375,
          -0.15097186395949308,
          -0.006590148457285308,
          0.126780459507433,
          -0.08666938875645762,
          -0.2238225829772419,
          -0.2637664206269746,
          -0.016314857051532045,
          0.060932596972185,
          -0.2964635482072622,
          0.061770708496200415,
          0.1622888965278199,
          0.16628297439885156,
          0.24954734686295224,
          -0.1013825873354284,
          0.08555974829181458,
          0.28046164698231696,
          -0.20257379126283406,
          0.14498682930984785,
          -0.21890430888550422,
          -0.04070013046067216,
          -0.26704620172278115,
          0.13978837288606988,
          -0.23790042222374513,
          -0.13062492984395768,
          0.18540707066349765,
          0.11562090305334201,
          0.2647422293046985,
          -0.04613055829916623,
          -0.27990629515877613,
          -0.21234767125415016
        ],
        [
          0.21987628041321022,
          -0.008352001957281231,
          -0.26193951299518964,
          0.1793950123043658,
          -0.07966001293224234,
          0.2651909829562633,
          -0.06265671706593026,
          -0.27691119401623254,
          -0.2992947991051773,
          -0.024362404806466925,
          -0.05270469118308218,
          0.08186772006268511,
          -0.02272393951595216,
          -0.30094415661102036,
          0.2575059675399393,
          -0.20120041641087116,
          0.12112366646117768,
          -0.03646981944352724,
          -0.12354580551229284,
          -0.23059596198474416,
          0.058719577359426664,
          -0.011077101658179581,
          -0.0563909840606973,
          0.15731383763662904,
          -0.05648940667751981,
          -0.1034809397530308,
          0.12401216214211618,
          -0.261903016627757,
          -0.1712877103437591,
          0.13824184280624277,
          -0.14119408944567144,
          0.13644164404664635,
          -0.11893557249512214,
          0.07262813844321983,
          -0.08583588541803829,
          0.2120332598346526,
          0.2306609797059881,
          -0.15910732520692497,
          -0.25418241563407085,
          -0.11107104067888897,
          0.22719008372056793,
          0.19603625526489155,
          0.13473878586821664,
          0.01825342761123196
        ],
        [
          0.12553880510954563,
          0.18926307021342365,
          0.1321410163797258,
          -0.29752234174366243,
          0.027743319937400757,
          0.15026972369749092,
          -0.09540660287027249,
          0.28770028180638985,
          -0.04035180624687665,
          0.04664486498020642,
          -0.11470100048802633,
          0.27403197798065615,
          0.28617785832804,
          0.28079293492186425,
          0.2796237421906374,
          -0.19866020636286488,
          -0.16103500855569805,
          -0.028060303812332706,
          0.22787673113380333,
          -0.19651002212020016,
          0.22370574705038238,
          -0.24621272149226858,
          0.06263798299401352,
          0.13273740870547407,
          -0.22090860398980988,
          -0.013345581942857763,
          0.27995848533710527,
          0.2056178690571706,
          -0.04249173483830079,
          0.19040283075228412,
          -0.17881650015623454,
          0.10085037613874373,
          -0.2639726668248815,
          0.20970736913278443,
          0.05252097352444584,
          -0.012186650372413163,
          -0.1721543035633528,
          0.26022224186998905,
          0.2660453575186112,
          0.20785057658047953,
          -0.16036018321622938,
          -0.10544034837537052,
          -0.15653187358721132,
          -0.15231598171011876
        ],
        [
          -0.1786257365624723,
          -0.29157537518949583,
          -0.07493596673385029,
          -0.2539333450422563,
          -0.015147164483930485,
          0.15321677370650671,
          -0.20032329629143045,
          -0.08765548936273232,
          -0.25781959186384507,
          0.24659720700509824,
          0.27568130459444307,
          0.14154870783004714,
          -0.1392615253392959,
          0.10839041538063125,
          0.26518712502869957,
          0.11800838473395796,
          0.07663340227863853,
          0.0652428025430567,
          0.24554297620068763,
          0.13982202191675835,
          0.07501570784598831,
          -0.21932927538195876,
          -0.23564523856785013,
          -0.23413601097882597,
          0.16452875915504883,
          -0.17355996888973574,
          0.010257379339722435,
          0.13254460591924513,
          0.024076690230875216,
          0.12518741889128154,
          -0.011594395629786832,
          -0.2519410501338984,
          0.0757522229474474,
          -0.06280850955571972,
          0.09599957594065232,
          -0.03562830727512733,
          -0.23508805908586716,
          -0.19654734611362468,
          -0.06410298033449303,
          0.2524507954217618,
          -0.13352669191227923,
          -0.20552932950547154,
          -0.04016789689724295,
          -0.11775407403916013
        ],
        [
          0.19065380114583344,
          0.21139047380892265,
          0.06267559457641035,
          -0.17985633856537747,
          0.030337032622040207,
          0.11639773660434205,
          0.2778025395413784,
          0.21069596800896287,
          0.009664474898582414,
          -0.1256166125232946,
          0.1497354602024132,
          -0.2923951962797315,
          0.16607818173081695,
          0.27472598844288215,
          0.2578577809122819,
          -0.19149879869665043,
          -0.2774470303115974,
          0.022626018657951066,
          -0.19446483235260384,
          0.2048142736568592,
          -0.04925812135689689,
          0.13705970035778212,
          0.19689845434787595,
          -0.06753488298040645,
          -0.11364106176123911,
          -0.1071094483001663,
          -0.12320949659468801,
          0.16810342750938434,
          0.13982602711350653,
          -0.002858228588160728,
          -0.16470065086130495,
          0.0875833880864308,
          0.25783797228878524,
          -0.03905639022142515,
          0.14245499789302327,
          -0.0024552558563989873,
          0.2758803134191908,
          0.27618808873582157,
          0.1319186062160612,
          0.034349072728406455,
          0.05161837715138877,
          0.10580600978308756,
          0.3039176290001718,
          -0.059513338111063796
        ],
        [
          -0.2907154513794441,
          0.1757127103202736,
          -0.13317778805775404,
          -0.29494843363458445,
          -0.2806753909230722,
          0.1743477371115621,
          -0.23434013765653708,
          -0.016770809551421535,
          -0.03932880569445951,
          0.2814380070877546,
          0.034727172737316236,
          -0.05974245534112415,
          0.18828901719486307,
          -0.28981513640313433,
          -0.06442110726964012,
          0.15846674283528212,
          0.03180768304877333,
          -0.22084626012750552,
          0.27695198326548875,
          0.21910666489595954,
          -0.10559379815691929,
          0.26667338724615297,
          0.14983535392631347,
          -0.05201620959746898,
          -0.12266897585135272,
          0.234471752381506,
          -0.11010031952776712,
          -0.10703369021403501,
          -0.18460029612280127,
          0.18333196166457014,
          0.1562838715382705,
          0.04615184318106005,
          -0.2657715018133158,
          -0.2682614772164863,
          0.11376913237578012,
          0.1021750746038225,
          0.26190738643035305,
          -0.20471479804892323,
          -0.24358941042391935,
          0.16635022939896305,
          -0.03656087429837925,
          0.26999328562374086,
          -0.2933801523792618,
          -0.005793109247119823
        ],
        [
          0.13534417799168055,
          0.25542191723104296,
          0.024186958462794683,
          0.2017965489976702,
          0.07897888336209612,
          -0.14430177696397437,
          0.2840679318618691,
          0.17533749902911386,
          -0.1416896007385213,
          -0.22176948912621178,
          -0.19616341759966244,
          -0.24201433519915827,
          0.29296567617977864,
          -0.2655489261630742,
          -0.007205305639176305,
          0.0660671704470708,
          0.06617891287082782,
          -0.015392776113473533,
          0.02138569977117734,
          0.14650713282189837,
          -0.06607856353351388,
          0.007474960068583186,
          -0.11216543158829395,
          0.13385436958783417,
          -0.2665993997785055,
          -0.19025380535726627,
          -0.28810905594763536,
          0.0727587697130773,
          0.19092381022562932,
          0.11403585419905674,
          0.2781118559538223,
          0.22497332702814385,
          0.2692343924906239,
          0.11964938513834829,
          0.1543287219606606,
          -0.2619932215984677,
          -0.04014186349351862,
          0.28702798082836584,
          0.19578698251932122,
          -0.1717989442714359,
          -0.026423099957674355,
          0.11900072503460425,
          0.08424333500169343,
          -0.0686164829957105
        ],
        [
          0.11140501784650725,
          0.18808824161117169,
          0.2579053437167902,
          0.1388821369010955,
          -0.1693284742912153,
          0.22832681698477664,
          0.303959509351874,
          -0.2715090532607078,
          0.07713403512838783,
          0.18198892498077568,
          -0.14405516346557815,
          0.078780803088404,
          0.29793462804555754,
          0.09919226476744238,
          0.06469968734101723,
          -0.1341378895616743,
          -0.1526566016173982,
          0.11274304960941119,
          0.23018048267287955,
          0.22274953938890246,
          -0.03153926766933341,
          0.2388795385092508,
          -0.17245968198239686,
          -0.167934550731842,
          0.32248919652907165,
          -0.12848539613317772,
          0.01831730964992597,
          0.23369085671994166,
          -0.28373846419130067,
          -0.19270281972130043,
          0.02097171774167424,
          0.3047690932862424,
          -0.16400469945728655,
          -0.21535392437571718,
          -0.2816181431683111,
          0.23273204007028278,
          -0.29556932075050596,
          0.07926426765644431,
          0.1902692088503389,
          0.04595604735606918,
          0.08710375737088845,
          0.12919167143890276,
          0.1483450645715058,
          -0.17253066930233402
        ],
        [
          -0.08560726936844876,
          -0.19878025951620287,
          0.04453501268248234,
          0.11156449927666762,
          -0.18626348990135158,
          0.2728834297625914,
          0.05644364029839788,
          -0.048990538149018846,
          0.009281394687719807,
          -0.274995298565204,
          0.2761138174993428,
          0.20259558741114747,
          0.1565622720070335,
          -0.11976160216425275,
          0.040171403335142034,
          -0.22696377811322943,
          -0.00792750696171576,
          0.28526536091194926,
          0.13474458732841402,
          0.23177218397966637,
          0.27390603392922536,
          0.19683580000237152,
          0.18004215748400654,
          0.1220559999481035,
          -0.27620552143583893,
          -0.2563109618721455,
          -0.07364085580410225,
          0.1949733779119637,
          0.21867649702043523,
          0.056486179538114564,
          0.2124541327996683,
          -0.1511651674228411,
          -0.12153269967867407,
          -0.28571237546750006,
          -0.000762850090945542,
          -0.06279108323034677,
          -0.26717790172032624,
          -0.05491093765206922,
          0.2433675387598619,
          -0.18069815483442603,
          0.22054142070735397,
          -0.02984874755926099,
          -0.047250933276148765,
          -0.06267290005701402
        ],
        [
          0.34883590015336424,
          -0.0010276693668274702,
          0.18994925634256787,
          0.09574730802756065,
          -0.1455599560870407,
          0.04096121043840155,
          -0.1887522994745573,
          0.08529176303101774,
          -0.07881361477326965,
          0.2051252701126735,
          0.20235690066087228,
          -0.05959842411107395,
          0.23640783578939897,
          -0.21355373017475837,
          0.028169579201284333,
          0.012070342410919345,
          -0.2286176171773879,
          0.16161705245087077,
          0.2193169146713942,
          0.08283365900069274,
          -0.27542445069962707,
          0.18999266457640934,
          0.1837388267834531,
          0.11714033742316077,
          0.09004444888009398,
          0.10184620579833062,
          -0.0589728039704701,
          -0.06914071238336933,
          -0.02499993499663835,
          -0.011763433492900047,
          0.23285924302718303,
          -0.1772141259212073,
          -0.10568522734888144,
          -0.19750313949096665,
          -0.23841766097934394,
          0.27443177250266343,
          0.1850530403916605,
          0.07709614062586885,
          0.011205413668334566,
          0.2995276887106442,
          -0.23680467600365016,
          0.03272582707593003,
          -0.1976279044666851,
          -0.06794392555460324
        ],
        [
          0.3037599480706067,
          0.31587505489618445,
          0.299806962563821,
          -0.0627297950398576,
          0.22885616368917283,
          0.0714967771955203,
          -0.0907466073323862,
          -0.1631148293339514,
          -0.16883628577980409,
          -0.23741810182340425,
          -0.1712886183006367,
          -0.0770243161538105,
          0.14424783026160654,
          -0.04229449169182475,
          0.0029062002947197,
          0.09727844637486287,
          0.021510614603952632,
          0.17524715573995697,
          0.21127171466401382,
          -0.18338567747755574,
          -0.2584964591009942,
          -0.22700653485779668,
          -0.011601378555982055,
          0.06668340771973447,
          -0.23541430828539378,
          0.16099531596616812,
          -0.2023244309883457,
          -0.22980770306179008,
          0.2183276336314046,
          -0.18241359095799403,
          0.19998905711075532,
          -0.2211398982505403,
          0.12087011290822428,
          -0.18812592505021808,
          -0.018830613604327962,
          0.1245130539360784,
          -0.19507479070980846,
          0.05777464613671996,
          -0.12234681307461485,
          -0.1761739061929096,
          0.17510076578211342,
          0.24970204611865782,
          -0.2389272717598641,
          -0.12707383024472305
        ],
        [
          0.16717577723144636,
          0.0005849375920008885,
          -0.05543276257777189,
          -0.1136436746191142,
          0.027135979857358338,
          0.08316701657064063,
          -0.051444637353894845,
          0.2623656275999206,
          0.0833376417046077,
          0.0762448824809759,
          -0.0788983051612783,
          0.25880824197531205,
          -0.11488419406380035,
          0.130707763140842,
          -0.06175110278276962,
          -0.11367395371812941,
          0.2575606168952544,
          -0.14769222222173994,
          -0.059816868993171735,
          -0.22317234220187557,
          0.009138058170063518,
          -0.08308710560752719,
          -0.02784093788888587,
          -0.2061435714253011,
          0.23533554438717882,
          -0.2378440172166693,
          -0.050034703265549665,
          0.19895802897032358,
          -0.06175136804079118,
          -0.09198516381148868,
          -0.15577562841022288,
          0.20918824689490892,
          0.14657161018278528,
          0.2734752522520087,
          -0.29591945493860744,
          0.11073544531448491,
          -0.2638036485147986,
          0.20393210689813587,
          -0.08878865550673302,
          0.059057527191893666,
          -0.2509793054608067,
          0.09135013204414472,
          0.26677389590108885,
          -0.1010643674417896
        ],
        [
          -0.22780576366465394,
          0.2918858741747563,
          0.08957644309868784,
          -0.07525194385259647,
          0.18205025646529394,
          0.01416768071205756,
          0.21298821213336933,
          -0.22442722291299974,
          -0.06408022417121131,
          0.003938579858982933,
          0.2774816409609154,
          0.09396795978747094,
          0.2244815977879216,
          0.08748551701278001,
          0.006571830843614274,
          0.2427783757269146,
          0.23867162943304743,
          0.1957293460798853,
          0.1661017461204811,
          0.13477461904328325,
          0.22702037076913562,
          0.03584920145792955,
          -0.1718399007762659,
          -0.07919006197747466,
          -0.11195273744385309,
          0.03901834191478644,
          0.23620178410426415,
          0.26035562735009893,
          0.006065904098796283,
          -0.10999309501009828,
          0.3081109169240008,
          0.061407826437079024,
          0.26397748094137946,
          0.2480204421243791,
          0.04670109111637678,
          -0.1847786096297328,
          0.2104973946135772,
          0.11448987050928212,
          0.10045352159279945,
          0.14943868105415525,
          0.14129342427936145,
          0.2789388843962503,
          0.004643435787753205,
          0.033583630209617396
        ],
        [
          0.0952561418660139,
          -0.20320255533990988,
          0.09914322889982732,
          -0.14779156195576307,
          -0.171729376900398,
          -0.07301394575125235,
          -0.17174158624135694,
          0.21935291096576118,
          0.17542244309613286,
          -0.10091042384334013,
          -0.10596809179391914,
          -0.08480726200171386,
          0.022771248353897707,
          -0.17233897860012865,
          0.052161224057582604,
          0.2425480754638086,
          0.20536074532381718,
          -0.19586749268974768,
          -0.013964752264217669,
          -0.058750288686191275,
          0.04180311611194072,
          -0.16288740939043977,
          0.1712594995010598,
          0.227021267575866,
          -0.048831653964306686,
          -0.021562821562088504,
          -0.06490553981120296,
          0.06721830137123051,
          0.14314845913260812,
          0.25558501708000353,
          0.19794112374293601,
          0.10432330663077945,
          -0.2645346355703389,
          0.024532672779629082,
          0.09700637102277268,
          0.18089002129537296,
          -0.02279666048991534,
          0.024241430915617947,
          -0.1398060190540266,
          -0.24885594965640506,
          -0.05216759416508998,
          -0.15291340561917707,
          0.21005311016796385,
          0.19887069103729407
        ],
        [
          0.1538214791676999,
          0.1423450946490094,
          0.08819597905473996,
          -0.10400572082832901,
          -0.23350388377801473,
          0.007533718222550206,
          0.09592906578937965,
          0.13397380966964445,
          0.2748065134089268,
          0.027673761803644732,
          0.26755245426379637,
          -0.12225095058003711,
          -0.240212570700946,
          -0.06183187632536235,
          0.010933161515172797,
          0.1754734230585798,
          0.10249518241964811,
          -0.13648024624299068,
          -0.2110315516088184,
          0.16299446591297315,
          -0.02846675923040873,
          -0.14097920760311752,
          -0.15979839751489186,
          -0.20011518784270835,
          0.06659185017386382,
          0.08399618996495603,
          0.29359188399064645,
          -0.2295229486428931,
          -0.11782717225643592,
          0.21878068862458083,
          0.16546662142487972,
          0.07858764825119224,
          0.007652369638802532,
          -0.11345615582311881,
          -0.09230728289196052,
          0.19380591087271373,
          -0.1574746058433204,
          0.0070086602186424755,
          -0.29973313426727444,
          -0.07565858749187872,
          -0.12545994737758104,
          -0.23867129368227805,
          0.09751266112397307,
          0.27026927516520366
        ],
        [
          -0.19802914481387046,
          -0.021243447356727962,
          -0.031041012145269182,
          -0.21049178489281714,
          0.008860965556909661,
          0.25849505525950733,
          -0.20940863292757525,
          -0.09309966499451185,
          0.07624057028762053,
          -0.07614321724403043,
          -0.2554450754463063,
          0.029577511237583093,
          0.026324652375637855,
          0.11547826443459207,
          0.14963407762744327,
          -0.10625865493721891,
          -0.05675136913153687,
          0.15609127304550977,
          -0.2164541384625007,
          0.1561984752633851,
          -0.18320233492063798,
          0.09819113830119196,
          0.00883265104383945,
          -0.03478774944352593,
          -0.19579331859849305,
          -0.22287951843818163,
          -0.06064461872236455,
          0.2644500078151821,
          -0.05406763533059959,
          0.07710900981852387,
          0.08508283128791985,
          -0.24559528234567435,
          0.20417237222198553,
          0.020913477495225083,
          0.1532481931689953,
          -0.21394859261646723,
          0.2244893088736509,
          -0.042612328582713174,
          -0.1338357307946155,
          0.10089196447363236,
          0.11340581392346881,
          0.1698081921580377,
          0.21925775171969553,
          -0.2662204695078647
        ]
      ],
      "biases": [
        -0.015391764484928093,
        0.07880613604845842,
        0.1650389643633821,
        -0.07755599024562783,
        -0.004721479011124706,
        -0.0081370700823384,
        0.07092321363687255,
        0.02259809838162435,
        0.007930230002786273,
        -0.028571611020967506,
        -0.00420260001965701,
        -0.02223160618112942,
        0.13342701363095016,
        0.00022271692836685567,
        0.09103776281192558,
        0.08428880011175349,
        -0.02016461159633145,
        0.07146289495276839,
        0.03175948431567884,
        0.07184591995094512,
        0.026265803371030925,
        -0.0036999426600293943,
        0.0052903320464260245,
        -0.004161197970123524
      ]
    },
    {
      "weights": [
        [
          -0.24898169391967,
          -0.24437774260875736,
          -0.17158758898887716,
          0.27735238209625723,
          -0.016694905875807697,
          0.0958852770325548,
          0.0599213186953307,
          0.011894737232902174,
          0.23930867163575842,
          -0.2817417711293924,
          0.18278278729405031,
          -0.049288658899919596,
          0.3276480661269007,
          0.23379885732514427,
          -0.11036711436744015,
          -0.16540148356587686,
          -0.10995470022530075,
          -0.260886346527743,
          -0.06576775600177936,
          0.09012306898250147,
          0.16793476153137843,
          -0.35389147154829664,
          -0.26273348081714304,
          -0.00035256306695042325
        ],
        [
          -0.2950377909467874,
          -0.09798865731114173,
          -0.0734579810826062,
          0.032514972336146336,
          -0.3200310165342131,
          -0.24208566730033873,
          0.16477618329689853,
          -0.13291858749396682,
          0.14621855125452296,
          -0.033523481393194665,
          -0.16764063051429354,
          0.11632201680429909,
          -0.2353045979249677,
          -0.21344715993746793,
          0.0800477349154705,
          -0.20682063620063842,
          0.09196689803074819,
          0.06951744013280983,
          -0.16773062762693566,
          0.07398514899109492,
          0.19426673956673926,
          -0.010742530404255426,
          0.3466451941764134,
          -0.07586113633904346
        ],
        [
          -0.21466932016960732,
          0.2798364620368153,
          0.005478615492277444,
          0.17410125990626563,
          -0.11101920539274106,
          -0.16139382263633537,
          -0.057733806961855344,
          -0.27773951661363333,
          0.18658504221263889,
          -0.3444649319351291,
          -0.05918564981266957,
          0.28417750394956004,
          -0.32234764213138223,
          -0.10254912644393283,
          0.27340424131519653,
          -0.02424627971481458,
          -0.03995191724058777,
          -0.07910601162893686,
          -0.3084822228264111,
          0.25824560971489136,
          -0.047677966219719765,
          -0.004726550491835749,
          -0.009452077439856503,
          -0.15622607959086945
        ],
        [
          0.3224020146593485,
          -0.2577640443558794,
          -0.21651576510996168,
          -0.10654416465910199,
          0.054175935226558246,
          0.028655857981139975,
          0.006012523878181291,
          -0.0015628155341449752,
          -0.18193117798494468,
          -0.2469906041519919,
          -0.2742617543249801,
          -0.14783727334520338,
          0.32304375934112456,
          0.2128165911974526,
          -0.16050402589253368,
          -0.33404945573453304,
          0.012431415953886223,
          -0.22605462020984174,
          0.3469801081507432,
          -0.2006477293338214,
          0.06733450068316889,
          -0.24333087217423433,
          -0.029395623269517012,
          -0.09210961511617104
        ],
        [
          -0.10201598337565103,
          0.026517451162347494,
          0.36732290869898493,
          -0.2733748133095239,
          0.17626179732076971,
          -0.08764302075958867,
          0.30574733210332355,
          -0.250598648260113,
          -0.16508775097358402,
          0.02640901114220763,
          -0.22019992430698918,
          -0.22588312256122453,
          0.24264226094936156,
          -0.05512615483129668,
          0.27663519945388776,
          -0.02986374638466081,
          -0.21198783897216106,
          0.10991305037161081,
          -0.3566053773723169,
          -0.08261325872584191,
          0.13224398351116054,
          0.26352418869483696,
          -0.2963718555950566,
          -0.04137581971400249
        ],
        [
          -0.2386617057199233,
          -0.3288654586823349,
          0.19437932239684458,
          0.2772513516799919,
          -0.03331646404115502,
          -0.03817099229017222,
          -0.11537241063355726,
          -0.019683179123807928,
          0.04216406321927282,
          0.1206048178418111,
          0.062228878134714824,
          -0.18967988314238687,
          -0.14251278682941634,
          -0.22180700588026583,
          -0.2718948260303932,
          -0.22648485849808098,
          0.1879789820408624,
          0.15448475620428542,
          -0.2761666039097862,
          -0.029125969022669836,
          0.14927922069904512,
          0.011142628049051128,
          -0.24151015318381538,
          0.15057808843878398
        ],
        [
          -0.07311489893374777,
          0.2754468578652682,
          -0.1512679380981801,
          -0.19849982867931928,
          -0.29784455901754303,
          -0.21468874379955696,
          -0.14708976633627985,
          0.02803382085276328,
          -0.029735875717068497,
          -0.32546558346818416,
          0.18803368384274408,
          0.19541841343694497,
          -0.0034545180351931073,
          -0.12802108925138897,
          -0.3435205363126662,
          -0.3122430404167674,
          0.06940892526173156,
          -0.17534264209756312,
          -0.09653479414683265,
          -0.11137533054733018,
          0.07744846839698945,
          -0.033532719435585584,
          0.25440293242927975,
          0.01762654170841043
        ],
        [
          0.15562647154655015,
          0.2259897528561994,
          -0.13783039603023783,
          0.23388607243011214,
          0.09053698770037903,
          0.2971756733440265,
          0.035022664755072076,
          0.03499300467137032,
          0.11509067299423478,
          -0.15601031828563652,
          -0.23011649021064587,
          -0.23888163728353315,
          0.02199469434733669,
          0.07854822479707584,
          -0.03368018123029298,
          0.013979243259528668,
          -0.23210373009241841,
          0.07118419033345103,
          0.26198926957911084,
          -0.03401073223523595,
          -0.12435061347163093,
          0.2422679791521808,
          -0.0042778884674852715,
          -0.11237158451215204
        ],
        [
          -0.036555074688535284,
          -0.1853846712819357,
          -0.24329083454784825,
          -0.3293994943919807,
          0.021451151997086238,
          -0.05547293321103106,
          -0.08720188129891937,
          -0.2175456037943962,
          0.21967172805446664,
          -0.20668762730666432,
          0.07937999300961927,
          -0.2217346941916492,
          0.2080018470137103,
          -0.2371863887293646,
          -0.225405065162891,
          -0.12389133141953851,
          -0.21694551861662903,
          -0.18439641609173887,
          -0.2908677409637665,
          -0.15979851191223085,
          0.18458093018862284,
          -0.18315796349073665,
          0.04187394790594629,
          -0.3473027596137437
        ],
        [
          0.2484932999852082,
          0.34469891643279177,
          0.26628148623206427,
          0.11104502117388916,
          0.2120987056943054,
          -0.3215284509527458,
          -0.14210602525343072,
          0.026478460712607645,
          -0.07965690864256542,
          0.08760640545213537,
          0.12099661699596209,
          -0.27023488689734687,
          0.40338815769888126,
          0.20401157298686448,
          0.29107865772390595,
          -0.1690933698056685,
          0.04697210940785107,
          0.3398453521054585,
          0.3457163540468727,
          0.1206870085430227,
          0.18436805677548448,
          0.20376883940599705,
          -0.24245374811728074,
          0.24020224007091068
        ],
        [
          0.04986498311616425,
          -0.27907796477825003,
          -0.17060163152002042,
          -0.22095724056042262,
          0.1976958210046869,
          -0.12403278045278483,
          -0.12528909096206534,
          0.12641185531895938,
          0.07683250338277871,
          0.3159124914418632,
          0.30466569441206776,
          -0.11196004880927737,
          -0.32734511318488146,
          0.283248311623666,
          -0.34979517488035167,
          0.028145270211159014,
          -0.07051147518133528,
          0.25512214633254715,
          -0.04219905541151107,
          0.05329627950808548,
          0.1556917513696979,
          0.027529652947245065,
          -0.1872453413308426,
          -0.29697203839030867
        ],
        [
          0.13898853932833738,
          -0.12093334893835064,
          0.05798574098165825,
          0.06201480692180517,
          -0.15373170262297992,
          -0.3005942170491288,
          0.1410199186562833,
          0.10808724193257485,
          0.10817751098100795,
          0.014145659888982798,
          -0.17701239769448066,
          -0.04137711566598072,
          -0.2737921727817249,
          -0.16467578572594216,
          0.30804754784405997,
          -0.32809623296274437,
          0.3347420323452006,
          -0.07123139339775397,
          -0.3462617763708801,
          -0.06610127474506408,
          -0.009794609503675597,
          0.015595566182277403,
          -0.17625703881883123,
          -0.2275174504597486
        ],
        [
          -0.09311343632073925,
          -0.14722606853537867,
          -0.10373169694716927,
          0.2590670598450118,
          -0.27010951130515043,
          0.28322497510038686,
          -0.038744404317526585,
          0.1967955121280532,
          -0.25981132610434815,
          -0.021856919840607034,
          0.11407545543851877,
          0.24817039569150337,
          0.12465134960479901,
          0.3209810051506938,
          -0.035481027643332164,
          0.23591884843200966,
          0.14315828841390615,
          -0.09751578951090208,
          0.2438871031943141,
          0.31188892828802495,
          0.39893584420778516,
          0.019581715087962432,
          -0.26749646222870893,
          -0.04127672602926744
        ],
        [
          0.05569812060568816,
          -0.29580157071325347,
          0.1597210952075927,
          -0.14791138562277686,
          -0.223525257345535,
          0.05168968527401295,
          -0.1957745288112998,
          0.3136109697496346,
          -0.194535366236987,
          -0.2789912399712886,
          -0.16999134766621538,
          -0.17459488337355933,
          0.00018170567897989815,
          -0.028898787651762355,
          -0.046139777452023384,
          -0.15367835160220222,
          -0.24156314515757465,
          0.00818761623273109,
          0.16144313409121241,
          0.30294784057892793,
          0.3361667001758521,
          0.3207971371261375,
          -0.03676516334316478,
          0.024781810457703224
        ],
        [
          -0.33765443042763515,
          0.26847658212259184,
          -0.3651247181413011,
          0.2152423605677401,
          0.05516023907756158,
          0.08850954531094649,
          -0.201861766974924,
          -0.0933407743548728,
          -0.02546762375856119,
          0.21535909091582217,
          -0.2575551101711068,
          -0.08792619109799783,
          0.02847056898153121,
          -0.011660377866142529,
          0.05706232834726659,
          0.11720147650241913,
          0.11442011228085817,
          0.31282106582124936,
          -0.10744220590734974,
          0.3075837541161586,
          0.1559925250420793,
          -0.04877145656347677,
          0.29907739329518723,
          -0.19403366961509178
        ],
        [
          -0.28265740122776783,
          0.36615113971987223,
          0.3639491890496695,
          -0.25531969669216165,
          -0.10756434608097698,
          -0.017611429418502272,
          0.4321159288064059,
          0.10569348819197946,
          0.28789186308595277,
          -0.10869443490377853,
          0.0074967294524934955,
          -0.275058825997425,
          0.3003837116540416,
          -0.007358330771458455,
          0.16246995739521067,
          0.5098709591165765,
          -0.31976465489458983,
          0.17843172455259385,
          0.0897686606570992,
          0.32559055931535125,
          -0.06334843374086656,
          -0.13132060438773466,
          0.4062355735450741,
          -0.003846626395073982
        ],
        [
          0.07492180291365666,
          -0.08623908475804608,
          0.24449467917755396,
          0.2065183245904735,
          -0.21312704477202235,
          -0.05740857968952011,
          -0.3006535144272203,
          -0.25345922932120585,
          0.1965445871011378,
          0.07193655918494458,
          0.32795030850980644,
          -0.2515984462790527,
          0.2601812439633057,
          -0.06674024592862007,
          -0.3055299414491,
          0.1754937454287499,
          -0.029510330160964902,
          0.2637138507076522,
          -0.11557255585558987,
          0.2844091577380566,
          -0.1762740649994835,
          -0.05535209385797105,
          0.0809814161458553,
          -0.06279769956238693
        ],
        [
          -0.3286267549393118,
          0.1221842834229875,
          -0.06030718277809708,
          0.21985165411677965,
          0.012860352061712096,
          -0.0952862700323282,
          0.04933122302365163,
          -0.1866605431730388,
          -0.15764363236126494,
          -0.006409981855357043,
          -0.2360576446444263,
          -0.19710788333315457,
          0.03720922534513416,
          0.33230955013948876,
          -0.18849079221378567,
          0.0793493593753428,
          0.07577143101649299,
          -0.24928265119097223,
          0.07232069999268492,
          0.28542348618519875,
          -0.011431011830024687,
          0.12271548955267655,
          -0.2645776684112256,
          0.14022007818121843
        ],
        [
          0.02597522319168901,
          -0.26235798509966,
          -0.025016210595318257,
          0.08327834548651987,
          0.18773375298671682,
          -0.044457708897874544,
          -0.12569546810799684,
          -0.14054869086253294,
          0.07818981352040794,
          -0.31345745786013346,
          0.23932384235579535,
          -0.16020308236061617,
          -0.07098610152552015,
          -0.28955144561843665,
          0.04143976897044381,
          0.002904124051347464,
          0.2417744415066515,
          0.23469979513236616,
          -0.23756397404550833,
          0.13775451319292323,
          -0.2590592118174542,
          0.008120194670945479,
          -0.3144170686562637,
          -0.09337977308894183
        ],
        [
          -0.21515783030734048,
          0.08265359538257393,
          -0.11824014474324103,
          -0.12360204155788783,
          0.05967859261885283,
          -0.013006238180269516,
          0.014223219653607096,
          -0.28905786392633,
          0.32508528090412825,
          -0.3503188845985654,
          -0.32043575052342443,
          -0.24655990746264983,
          0.2973353958142633,
          0.28919803546703066,
          -0.036785830318547326,
          -0.19668286019626882,
          0.2704852574506694,
          -0.1714883243299916,
          0.15752931022995875,
          -0.33249465788511856,
          -0.08208988618726969,
          -0.23752581882074167,
          -0.15076819326325627,
          -0.11646166538788802
        ],
        [
          -0.038466295226921104,
          0.2917300659366757,
          0.34498231002147933,
          0.23400151503214955,
          0.11280804267348996,
          -0.18587551024072868,
          0.33438206369158,
          0.06585687117408782,
          0.1665283875547495,
          -0.28084271004036426,
          -0.20896392047703463,
          0.3107045171155706,
          -0.11170815029041814,
          0.2837332189304321,
          0.18709569167240078,
          0.30314207165290497,
          0.07108447761266604,
          0.03895155338397802,
          0.07315120264171206,
          -0.34362587103959485,
          0.01383433576594586,
          0.13873753824405796,
          -0.3063760888950166,
          -0.1062758139223781
        ],
        [
          0.15076646769823632,
          0.03351765718971447,
          0.022219803719410076,
          -0.18608826472783066,
          0.18796460143219695,
          0.09610171285727778,
          0.13809830214286153,
          0.3654638152806876,
          0.14044045094096697,
          -0.1212752533571626,
          -0.2399942970934472,
          0.27163359674999044,
          0.3003133556686134,
          0.1642616798568898,
          0.3643613595637314,
          -0.14074897402206799,
          0.15706372705672436,
          0.293752211759114,
          0.21853918646143736,
          0.27325911385645546,
          0.23588679449606034,
          0.2728979978383881,
          -0.08211104656552096,
          -0.2702462655168508
        ],
        [
          -0.0837087964979294,
          -0.07106600729946479,
          0.32956622293280063,
          -0.33969401629523993,
          -0.2872067390081633,
          -0.19151545955647525,
          -0.22770240266680813,
          -0.14804171779636716,
          -0.17174234871518182,
          0.2868243295551105,
          0.0043276419800638575,
          -0.3355465722825057,
          0.18926801681695643,
          0.041667523876172924,
          0.11570183349986231,
          0.10373131316263079,
          -0.3053780701530993,
          -0.00558896820423314,
          -0.25239309146696787,
          0.029424328844815915,
          -0.004142319034726137,
          -0.22727259932748559,
          -0.10562440060557501,
          -0.09407216602577632
        ],
        [
          0.03620571092216756,
          -0.30650788794822387,
          0.22731841611474976,
          -0.211300851243173,
          0.17283395830359616,
          -0.1975046584803587,
          0.17163205435111795,
          0.004036973522795599,
          0.14247354641318424,
          -0.18450357938107295,
          0.31873372402253036,
          -0.23968901018792235,
          -0.16492059957825322,
          0.07295385349365377,
          -0.3267493899522036,
          -0.0036952662658245733,
          0.16417521188249815,
          -0.25954456633793954,
          -0.14017356133075243,
          0.08795665190629047,
          -0.09377304452930338,
          -0.3144830573598917,
          -0.325443634148779,
          0.1135184060864502
        ]
      ],
      "biases": [
        -0.015812468682841658,
        -0.004502323935532239,
        0.003810388722290373,
        0.003389614602609216,
        0.06165549126576251,
        0.009483184072533232,
        -0.0036678491529695814,
        -0.07938871128397741,
        2.01729002728279e-06,
        0.13368098378006937,
        -0.007080925106141758,
        -0.0001342158586482941,
        0.05783035652812123,
        0.007502521213269455,
        -0.03207024870802069,
        0.2429115214506538,
        0.04023339607728009,
        -0.008649287272723955,
        -0.007341639864160355,
        0.0015257023565185802,
        0.04921796344773191,
        0.06241892579484114,
        0.04036970347438522,
        -0.015943486379712733
      ]
    },
    {
      "weights": [
        [
          0.1397113657493697,
          -0.2851207465208656,
          -0.33951595347886654,
          -0.2954305149066969,
          -0.37436155628017914,
          -0.000668991565563438,
          0.24008802722369785,
          0.22387227452779035,
          -0.08032393351441303,
          -0.5551210689872641,
          0.3857873570139695,
          0.30683738051650716,
          -0.25744471277608333,
          0.2938684710235101,
          -0.15808467324296152,
          -0.2162302586402936,
          -0.2597357498749048,
          0.022710079663256083,
          0.04962229660069505,
          -0.009183169130128573,
          -0.21345664391653735,
          -0.011165027511544188,
          -0.2293920445280065,
          0.02516000438433498
        ],
        [
          0.17526110974950762,
          -0.27039087439574255,
          0.07977202487033816,
          -0.30858182046505966,
          0.27107622749055277,
          0.1373005275889083,
          0.3173568427027872,
          0.09698907090856532,
          0.3227473072403214,
          -0.280008487742658,
          -0.16292104617703235,
          -0.14288175936095382,
          0.34800209069631916,
          -0.023841804981783368,
          0.26395155691962313,
          -0.37540495501138077,
          -0.10880962797149034,
          -0.15129303311249387,
          0.19705635087062762,
          -0.12913837009770848,
          0.10971378557664556,
          -0.10518016958451547,
          -0.11278297143546627,
          0.08822896267391948
        ],
        [
          0.1456965204801006,
          -0.3318549217473981,
          0.05876988950115864,
          -0.3187883749157431,
          0.07653778743165723,
          0.13904085006326206,
          -0.2628980681127995,
          -0.11197756789363651,
          0.10692411355412575,
          -0.1707714617245543,
          -0.046097385103122265,
          -0.08996259245713986,
          0.25736424805578006,
          -0.30205358491061296,
          -0.3336587844961298,
          0.48657726374550697,
          0.22653067423313175,
          -0.2316505041661362,
          0.07898195490682094,
          0.019254720832043437,
          -0.23713308312140316,
          0.28301547631006513,
          -0.03991178846193082,
          0.06882667301391622
        ],
        [
          -0.16773526659431864,
          0.27713297366238443,
          -0.28874124201913937,
          -0.3366534141911076,
          0.35378457270497665,
          0.0757083299403758,
          -0.23789997818374004,
          0.3380561636406357,
          0.01824700781514407,
          -0.32738885205758345,
          -0.00864576131020712,
          -0.2100537897542903,
          0.058229659746091296,
          -0.10394274088387594,
          -0.35260659971816516,
          -0.1574096608601831,
          -0.22456090581533858,
          -0.3774433353557319,
          -0.23723572313045307,
          0.13273504613246864,
          -0.08517088449250526,
          -0.3271128119477295,
          0.01777610379216038,
          0.3491839717008095
        ],
        [
          -0.08923043812176558,
          0.07131600052641097,
          -0.3136118309167711,
          0.08337882776271242,
          0.3911473284183689,
          0.2027471787351625,
          -0.30000884303115943,
          0.0033381066089082315,
          0.13841951318426501,
          0.3400867312927735,
          -0.21137388184068562,
          0.3828969990022337,
          -0.1295674515146327,
          0.29255530719189216,
          -0.33510187761376203,
          0.3388415466354885,
          -0.23757868129983178,
          -0.22289614050021964,
          0.2683651326799846,
          -0.2655970893952701,
          0.3825803447239407,
          -0.22853892539199802,
          0.3785159072946938,
          0.35894071129192
        ],
        [
          0.12106377514923332,
          -0.21448491136694645,
          -0.09717642134041425,
          0.10536031585458039,
          0.2944861539252275,
          0.06368172747651826,
          -0.17872923930489018,
          -0.1674692550122476,
          -0.33232384190228004,
          0.23055970716951646,
          0.38028974195762344,
          -0.34757602602577214,
          0.04425102819940363,
          -0.31518192271817896,
          -0.07595281055616997,
          0.4140297663118051,
          0.13503016467459772,
          -0.21965797044002897,
          -0.06520454729474502,
          0.1776584990888617,
          -0.337509456007013,
          0.3812044617454383,
          -0.22870380738093907,
          -0.07673162004264747
        ],
        [
          -0.21031358650329113,
          0.3798762634219068,
          -0.00011825139886032163,
          -0.3216564036712287,
          0.22368621002337383,
          0.3391340133481847,
          0.340077890058244,
          0.13084906213614683,
          0.3435081950963563,
          -0.1881900129598615,
          -0.12218909034489334,
          -0.13156283906531982,
          -0.14217567567925019,
          0.09629939859906925,
          -0.2895569885978992,
          0.10919461666401115,
          -0.16747134806394282,
          0.11996951142907586,
          -0.3094104820953601,
          0.11369531775794844,
          -0.0512644250369187,
          -0.23985622052832678,
          0.13730076563686616,
          0.30642786654005716
        ],
        [
          0.24575778329290734,
          0.11241247964655698,
          -0.07602241056482693,
          0.04554402724169848,
          0.36230811688708886,
          0.3695920823283269,
          0.00476163918589291,
          -0.1633513074603929,
          -0.056834400908880756,
          -0.09892585408406589,
          -0.2185655726148741,
          -0.07869177022780247,
          -0.03084926175964176,
          0.3301582662979796,
          0.24496210899529314,
          -0.08136246636609001,
          -0.006249463901098896,
          0.14034382968944475,
          -0.29634819911990784,
          0.2067783911380009,
          -0.26815309757218825,
          0.38387970220496814,
          -0.10154362547653913,
          -0.2975161866386199
        ],
        [
          -0.11640489464952719,
          -0.13717111014455896,
          0.2567250006073453,
          -0.11876564850223917,
          -0.09913609474531555,
          0.12329626304436514,
          -0.3292114680306847,
          0.016544754280231548,
          -0.06673051605065469,
          0.3769696276593317,
          0.3474958351117489,
          -0.15638376711053212,
          -0.2717517944231467,
          -0.14215766101503904,
          0.1270651418630803,
          0.3634436629227427,
          -0.18581417949288256,
          0.2915660024361942,
          -0.30604404637488175,
          0.0964182164389114,
          -0.14476161736144078,
          -0.22453078351781847,
          -0.0064806461660766555,
          -0.32263705806250026
        ],
        [
          0.12060125322350297,
          -0.24036021185317896,
          -0.1759289493904509,
          -0.1465528648329684,
          -0.0660883037926063,
          -0.27375297845608987,
          0.035978546103780845,
          -0.13991747780640007,
          -0.1538236928090168,
          -0.09406999318775011,
          -0.2613316728389066,
          0.12519629739314247,
          0.015416094711760498,
          0.3996161130127164,
          -0.33614481764083287,
          0.2495367630952028,
          -0.11477926389795551,
          0.2955763532922143,
          -0.17504659910273648,
          0.01605595823211481,
          0.0927182934919573,
          -0.2062370487337864,
          -0.039821770355451994,
          0.33226010920812565
        ],
        [
          -0.04695750811137109,
          -0.20242416030499444,
          0.3817312812049165,
          0.10396595325201356,
          0.025121259794016346,
          0.04745960790414801,
          -0.008709652709485123,
          0.24846448531865067,
          0.30266080594946865,
          0.4082071022036626,
          0.31139524387209067,
          0.08835889327075186,
          0.3635460074546225,
          0.3607483113126145,
          0.3002771451170859,
          0.196327337585132,
          -0.016034284832348644,
          -0.2912513487448949,
          -0.2767071565536221,
          0.06498805416454934,
          -0.18879010765452392,
          0.2799778144185335,
          -0.133470744018077,
          0.087902996488155
        ],
        [
          -0.007329274968143274,
          0.3508214885652244,
          -0.3764432624223528,
          0.19073276556152355,
          -0.01701594557612641,
          -0.18708438829608365,
          0.0139155150726601,
          0.08059114111294186,
          0.22652806509101794,
          0.008235692636265883,
          0.34518164326641265,
          0.3866387270742842,
          -0.21235941086870316,
          -0.3250082544479565,
          0.1904682079486085,
          -0.44634210686709447,
          0.06508974500175377,
          -0.023193595958727328,
          -0.29611236521579254,
          -0.16546956878719216,
          -0.416606955615226,
          0.004303113753525682,
          0.014684873199418002,
          0.38015225808138936
        ],
        [
          0.18113415891046966,
          -0.21237174020783048,
          -0.12076694062952403,
          0.2415683497294454,
          0.12409727349249038,
          0.12749106343436603,
          0.23178045058139662,
          -0.248574867736236,
          0.3363753198870204,
          0.09204953802229611,
          0.1252422553079754,
          0.3749735380671426,
          -0.16213723482618328,
          -0.38657408983551445,
          0.03614426849517724,
          0.3865635023258227,
          0.002170499841344155,
          -0.23711394991925766,
          0.03374486294607045,
          0.3706699277505773,
          0.275815157658045,
          0.3692358209516861,
          -0.26163479319066707,
          0.1993816134042421
        ],
        [
          0.15234014952089778,
          0.1201339360387274,
          -0.26106663360222604,
          -0.37007107874122885,
          0.028151131309630397,
          -0.08500980388405463,
          0.09719531538789473,
          0.13019017459095236,
          -0.16902728233624378,
          -0.26523606732541666,
          -0.08586128996471325,
          0.11445779041732418,
          0.04495680012406705,
          -0.06935884787325218,
          0.16446837609780404,
          0.3101834113229687,
          -0.3463805559301474,
          -0.2107611278532955,
          0.045327369234393344,
          0.06633308216591215,
          0.34298118925622406,
          0.26695336801165376,
          0.2662210001338294,
          -0.3521140935172207
        ],
        [
          0.30482572188233237,
          0.009570837583698732,
          0.05791046296718014,
          0.0019684653258591374,
          0.15250361845621818,
          -0.19768486722823975,
          0.3138997221760331,
          0.18728828670963496,
          0.3865931527180998,
          0.04360965438528961,
          0.17212978332096412,
          0.20595110313873688,
          0.3742169537791495,
          0.02419168861178146,
          0.1488940392684591,
          -0.2650969119788651,
          -0.36449233259496194,
          0.16266685965101635,
          0.04030692300329913,
          0.07106550614451307,
          0.31692078433025367,
          0.1954059037206114,
          0.32719815784359124,
          0.30739989361533326
        ],
        [
          0.25294014288307914,
          0.3497636423424454,
          -4.901766830001584e-05,
          -0.14015755850492898,
          -0.1629975275341783,
          -0.3069631477382545,
          0.23760072483037542,
          0.35187735326945896,
          -0.34211861372136126,
          0.11068549496525618,
          -0.34463584606559705,
          -0.15602592846724433,
          0.20449993273617223,
          0.0041288288349667955,
          -0.06870140884463713,
          -0.08930255255470183,
          0.0018501629336468274,
          -0.02383650353116086,
          -0.2133756244322752,
          0.24348749472201064,
          -0.17917007771967006,
          0.06793779697542027,
          0.22225389174394153,
          -0.1954468733789398
        ]
      ],
      "biases": [
        -0.2186358990673813,
        -0.10116399742088406,
        0.10910503013697971,
        -0.09119814410258106,
        0.053860853922662606,
        0.07353995520408435,
        0.05295349779861282,
        0.050950984330067256,
        0.04856065693945437,
        0.06548928567109782,
        0.041654216489240975,
        -0.1930968360231536,
        0.03127498088942245,
        0.038854914476664164,
        0.020493527886256344,
        0.017356972869457633
      ]
    }
  ]
}