{
  "input_size": 61,
  "hidden_sizes": [
    24,
    24
  ],
  "output_size": 21,
  "layers": [
    {
      "weights": [
        [
          -0.131394612933055,
          0.03597575365016215,
          -0.025433526090725363,
          -0.109692138578293,
          -0.11273061390547832,
          0.2244223516296055,
          -0.07444585045500711,
          -0.08223846283474943,
          -0.26520961739577,
          -0.15605675645966866,
          -3.2521120394955204e-05,
          -0.1063938961189563,
          -0.050267265995039695,
          0.037225665217896754,
          0.24063126168627821,
          -0.048487258025541546,
          -0.12900850162988037,
          0.058882190906089975,
          -0.23676081843756883,
          0.06278856528093402,
          0.21377829852441046,
          -0.14417331831856095,
          -0.23427859679680638,
          -0.2316905460815762,
          -0.15857936357981559,
          -0.2514827435590056,
          0.23432759507815124,
          0.21065058133787648,
          0.13830532329231301,
          -0.11627247505802704,
          0.022808511550079156,
          0.13288615057208775,
          0.2576493176653558,
          0.003235054923485161,
          0.00935944111576012,
          0.1619247020911824,
          0.07855674947381222,
          -0.17725999528383302,
          -0.2287395924073847,
          0.15676461938476954,
          0.15475120173945395,
          0.2618172235693637,
          -0.005610696607017791,
          0.19675174532490938,
          0.031383522772241844,
          -0.04654559331368499,
          -0.006247449957627695,
          0.0352304843398452,
          0.20300459771618196,
          -0.1967660681469213,
          0.22799584725619826,
          0.03655090184565146,
          0.220227353681502,
          0.2360584368946713,
          -0.1249019022693878,
          -0.03314767661668388,
          -0.07262637125147703,
          -0.20047953656695203,
          -0.06300264714468387,
          -0.14745057181158638,
          -0.23349208441623812
        ],
        [
          0.13778221642399532,
          0.2011223764787969,
          0.17188841122556311,
          0.018332834057142373,
          0.2676254276478466,
          -0.2281747369428081,
          -0.24111977920323968,
          0.0362181488349184,
          0.05653784532877734,
          0.23176309747045232,
          0.10096859422894006,
          0.22270233456505506,
          -0.1992320042093498,
          -0.07187629791827875,
          -0.11046381916833457,
          0.023416912430286676,
          -0.22914313419919996,
          0.1251525247688376,
          0.008419620496076901,
          -0.16556402430167735,
          0.03872218139221196,
          -0.00997678121009625,
          -0.03229132656521123,
          0.21800146758943248,
          0.06780046840767727,
          -0.19538074057297086,
          0.010198361516628634,
          0.10289813246312356,
          0.23906301791088305,
          0.1394323414941705,
          0.14247067929949886,
          -0.14534694898449746,
          -0.16317042624297595,
          0.13146137082575363,
          0.2231593257642769,
          -0.09550261191812152,
          -0.16699172443244395,
          0.033592863636816975,
          0.12262378174764264,
          0.11752822568941254,
          -0.20855259212233612,
          -0.17800897443715927,
          -0.20783768089597218,
          0.09745386318505929,
          -0.06441626918037688,
          0.23987969116754398,
          0.17117150476774448,
          0.25818479683290296,
          -0.11575576603382844,
          -0.23991898903248024,
          -0.24872381961139084,
          -0.024625792341255212,
          0.14122780288221823,
          -0.16177401185581824,
          0.12582589229807925,
          -0.1565533901433533,
          -0.07588712943572305,
          0.12084381592570988,
          -0.014099491978284969,
          -0.11904411156112756,
          0.18793954143560448
        ],
        [
          0.013775940815893355,
          -0.00017403158798432432,
          -0.07938250285597462,
          -0.27167143987534953,
          -0.2131922009800082,
          -0.21289073596558056,
          -0.20395830493111125,
          -0.23477856314243148,
          0.09837399204562361,
          -0.16564903939071474,
          0.22922529378638165,
          -0.22706924923964653,
          0.25400817979798884,
          -0.2490411320974748,
          -0.06756524580722044,
          -0.07715767153975,
          -0.10454429880951553,
          -0.12266664952326244,
          0.15043695781279537,
          0.05464345777493586,
          -0.1404202753510954,
          -0.017897737495529736,
          0.13076393893610672,
          -0.20746433385211316,
          -0.0559077491741521,
          -0.2531858072838717,
          -0.26414728132885573,
          -0.10179432483243603,
          -0.15205738358386967,
          -0.09183528688487917,
          0.14470840298344315,
          0.046225748022764926,
          -0.21517010494718813,
          -0.06855060788007958,
          -0.12749544297860763,
          -0.008894653128479965,
          0.0951237346996281,
          0.010474588873061418,
          0.13935229758957057,
          -0.08074755499731213,
          -0.18936870239244813,
          -0.18833401110609876,
          0.21159352552822244,
          0.2193621095551976,
          -0.13821756116473424,
          0.0557566414299945,
          -0.07349025465276383,
          0.14888020676053143,
          -0.11239928022227537,
          0.19683501560602643,
          0.02074862297311517,
          -0.2014344163757806,
          -0.2472981057997356,
          -0.01834461022792826,
          0.23460718593337007,
          0.044738229395026335,
          -0.07948756075174812,
          0.0946796187196541,
          0.20016853846923055,
          0.007697201269160295,
          0.042409122045311824
        ],
        [
          0.2547332113320987,
          -0.13713355851725423,
          -0.2542711788647188,
          -0.2547517232945371,
          0.21155699887770318,
          -0.09359405126529342,
          -0.2007535930040317,
          0.19392640779500256,
          -0.19711180609053056,
          0.00980085068972268,
          -0.24378075226832263,
          -0.034088202820520226,
          0.17460239103473074,
          0.20369238075988086,
          -0.177736131073134,
          0.22561919751987852,
          0.18489379618414653,
          -0.1737017853716486,
          -0.014120808840367356,
          -0.18127599541000441,
          0.020388436979450197,
          -0.12216033756879496,
          -0.23000085686795932,
          0.027157111062572365,
          0.11146355320000571,
          0.13787993813373908,
          0.010328803064965536,
          0.12592127282352233,
          0.24265917074800958,
          -0.047085709920729066,
          -0.2518805959609926,
          0.14767742876972892,
          0.037598971119644095,
          -0.17022128414114096,
          0.19116495445223478,
          -0.22849156314250565,
          -0.2638969684751403,
          -0.0710603938297815,
          0.10162593102272652,
          -0.19725250337798758,
          -0.22881003571028732,
          -0.22266657666283277,
          -0.1616824952118182,
          0.009479086917419804,
          -0.20507992052109444,
          -0.18639116779733983,
          0.06673047834086338,
          0.1381535503376091,
          -0.19631540512032375,
          0.05524213718739875,
          -0.008968306337987498,
          0.09427037710300676,
          -0.14659856023300977,
          0.030013883747854755,
          0.11497561471173366,
          0.041417295677787534,
          -0.04579179875046319,
          0.09756941737049911,
          -0.028208243713643538,
          -0.2253756067661783,
          -0.2102943517032633
        ],
        [
          0.15497322938625488,
          -0.04703239005669941,
          0.46652240703767794,
          0.24733087965394576,
          0.0910369274705724,
          0.3895699604385404,
          0.007715853925223719,
          -0.0409571344440854,
          -0.13197343831221783,
          0.25874587176880964,
          -0.13826489359814564,
          -0.0951794259407318,
          -0.07491792748063937,
          0.3163527275185415,
          0.22847851778711997,
          -0.08471586401567993,
          -0.1664761876353571,
          -0.043441172206494245,
          -0.16579800726300611,
          -0.19147488157865197,
          0.11460761735797716,
          0.11223199267345267,
          0.034596573557026486,
          0.3817006099216657,
          0.35563413371230584,
          0.25353954671392204,
          -0.054689283605800956,
          0.2620362191701836,
          -0.06853276396882821,
          -0.22906475638291063,
          0.4420687169775569,
          0.2878539598789112,
          0.382092847686505,
          0.21956552590182232,
          -0.19623969339884303,
          0.03722600650111601,
          -0.023086824234495932,
          -0.021722109877741168,
          0.2762758582975839,
          -0.14198475665934066,
          0.10009532689600929,
          -0.15755561980733251,
          0.027770572839082835,
          0.13355628568713127,
          0.24234252650942908,
          0.221380813899297,
          0.1449318215058336,
          -0.058838138571726706,
          -0.007558666770883148,
          0.17810476823703408,
          -0.16483630819508321,
          0.035282294579581444,
          0.2215764232200899,
          0.15814763968786844,
          0.02159621576780845,
          0.38508682814698314,
          0.25448927905062435,
          0.24238997177161112,
          -0.08387336234707007,
          0.2849413123015821,
          0.37667545658291696
        ],
        [
          -0.11121435483389905,
          -0.023132149966101554,
          -0.17416287530974264,
          0.10673451402081963,
          0.21784951123348942,
          0.032244729585042646,
          -0.002816870547092546,
          -0.23582563011156937,
          -0.21927096346243835,
          0.18279992038674486,
          0.19345059266393377,
          0.2098175205305182,
          0.07618769943629802,
          -0.030169879048738604,
          0.20549012343030396,
          -0.14769712418059336,
          0.26259532064879487,
          0.18278115624059643,
          -0.00800168253395984,
          -0.14456782043770772,
          -0.038954654467315386,
          -0.008887445698137753,
          -0.20501162439410237,
          -0.23065060036095544,
          -0.08225676490149902,
          0.2192814133763028,
          0.12175282524392765,
          0.22836174547369517,
          -0.004445681179783079,
          0.009658304860514954,
          0.11796175153014453,
          -0.15788915484661617,
          -0.2147816441626086,
          -0.09115515377949543,
          -0.2580560044874226,
          0.10628010382908637,
          -0.027457952607334822,
          0.24538861981933988,
          -0.04932661549539143,
          0.029297052271780918,
          -0.0307760385807712,
          0.15506192886313563,
          0.04343953015260541,
          0.11898926394090305,
          -0.003387960869078031,
          0.22634141681123973,
          -0.24164938387452492,
          0.12718519806743994,
          -0.1269589178765542,
          0.06655984219462888,
          0.16690591911286226,
          -0.10617094810123269,
          0.1577785478686429,
          0.07142279922302228,
          -0.005052251728532047,
          0.22978108724161925,
          0.10287818355902463,
          0.12983333271511854,
          -0.2590884451003479,
          0.15327840176860674,
          -0.24397919798344272
        ],
        [
          0.1781527389866503,
          0.18079679352382638,
          -0.09105363188687268,
          0.23266484597540135,
          0.02082547531501085,
          0.19672857197614482,
          0.13454976289541126,
          -0.11677170762937589,
          0.25211420832151943,
          0.039444082918705915,
          -0.020103775349728303,
          -0.08449085354441457,
          0.10559229471323266,
          -0.16962284193849692,
          0.1875704700609545,
          0.04739268751549143,
          0.1278250789188747,
          -0.1657221984731295,
          0.20951238965224797,
          -0.14327823639758364,
          -0.04027257386762562,
          0.254174039096347,
          -0.12638337629149013,
          -0.0478680061996007,
          -0.12958810963479828,
          -0.14660501382659724,
          -0.0320410028190075,
          0.17443146532775414,
          -0.022208024760049433,
          0.12057524461327823,
          0.1681651743051662,
          -0.1972324354939832,
          -0.26942775894735255,
          0.052171260510514794,
          0.06615413380823836,
          -0.03706158440251785,
          -0.12301466206975094,
          -0.04037269761249876,
          -0.031091336048932466,
          0.1917011983753903,
          0.1212699919054383,
          -0.06607768802411638,
          0.22453836976286465,
          0.12525778608319824,
          0.02949529146587075,
          -0.18732023376651727,
          -0.22409042905827273,
          -0.0392469111147583,
          -0.2441804147108623,
          -0.04810183501705822,
          -0.011383536693796568,
          0.20666452567536175,
          -0.21115471248797402,
          -0.06895105494472216,
          0.24860215220197657,
          -0.20826927038822035,
          0.05383339506471127,
          -0.037059806321878705,
          -0.04536040813247197,
          0.25841305407944815,
          0.20303742604899114
        ],
        [
          -0.016095148448414698,
          -0.11989152765156898,
          -0.189381530648601,
          0.08780655209524305,
          -0.20804102406329963,
          0.06089007803437652,
          0.17268884626381853,
          0.2503111945830594,
          0.13360129678514673,
          0.035256109938158295,
          -0.01071958312212681,
          -0.21684528402073439,
          -0.18478902564476643,
          0.23624975812022225,
          -0.2865899590162843,
          -0.08401121178681269,
          0.062324836149927926,
          0.20992248861148813,
          0.05371778598262327,
          0.04215293428343008,
          -0.10012372644427267,
          -0.08587932465980372,
          0.18153153293694754,
          0.03309548418640856,
          0.1483723475770238,
          -0.19772767481500284,
          0.259161188133695,
          -0.2318672553636777,
          -0.016660447509459917,
          -0.019447490431369095,
          0.12027119297973725,
          -0.20467697741668772,
          0.03467195542742634,
          -0.25340276179287863,
          0.18112962891097822,
          0.21474490378753305,
          0.2568859014122181,
          -0.23195549242629912,
          0.004639071199253931,
          -0.22966410169307355,
          0.14215996039607723,
          0.014927809617167026,
          0.10277267179636035,
          -0.20269383597319304,
          0.0958068711194801,
          -0.23999245541693548,
          -0.10772082080281563,
          -0.1239915203865723,
          -0.20288171932436352,
          -0.12312849722651666,
          0.024586011696726903,
          -0.2441870998998339,
          -0.0813194553573529,
          -0.2157498533714662,
          -0.052370762980117516,
          0.1868594042888518,
          0.04341764244966781,
          0.09393535418821898,
          0.12746021820081435,
          0.22266802770649072,
          -0.07943916926152972
        ],
        [
          -0.02625833256436407,
          0.18711539655882137,
          0.2734936110678825,
          -0.07244378781303139,
          -0.0589777807674465,
          -0.1828871004696808,
          0.2675165883280336,
          0.005032542687539926,
          -0.1557935818614493,
          0.01748653609294211,
          -0.1404252633089041,
          0.06715359778176719,
          0.21238954396613635,
          0.029840300715273972,
          -0.17755070321628755,
          0.023914326469623895,
          0.2184848024815191,
          -0.22336135997600076,
          -0.02494548382563246,
          -0.2028415482804201,
          -0.08046266114804643,
          0.18627569083467505,
          0.28979270507169486,
          0.2084806745358455,
          0.3127302215794577,
          0.08921365339622149,
          0.06119913566320365,
          -0.16960440889614156,
          -0.01253912859264982,
          -0.09179282067293028,
          0.1270829338734045,
          0.005159763269775445,
          -0.06995578849449917,
          -0.0313082143177269,
          0.18198597485746193,
          0.11764108941145444,
          0.07373270314415434,
          -0.06938110477299632,
          -0.10935698964294463,
          -0.021554806379535295,
          -0.23025318238030373,
          0.1027320268888042,
          0.021904549373344656,
          0.05529857225030558,
          -0.008973422231361418,
          0.11993652285964043,
          -0.2374283703115742,
          0.2425946967049092,
          -0.15562789191840526,
          0.11746577550940275,
          -0.17312073344138318,
          -0.1784599809919663,
          -0.0919337646376387,
          0.018227082367090326,
          0.07030030449030748,
          0.06017293648457248,
          -0.09505781024770356,
          0.16626780758412296,
          -0.06418563882282835,
          0.05980432533648752,
          0.020548016741812496
        ],
        [
          -0.2036740160805227,
          -0.12466047637485268,
          -0.10277194501719412,
          -0.23785744025778457,
          -0.191248433381127,
          0.12629829775717014,
          -0.24848691616072208,
          0.2561065685637549,
          0.16044268767662487,
          0.19253057469362492,
          0.2162813032822382,
          -0.04464172138674072,
          0.18365569447389285,
          0.03532894691314208,
          0.09581305312990665,
          0.08146691263096452,
          0.13803122885897634,
          -0.09232780084392274,
          -0.21032075185071916,
          0.152082643720451,
          0.14020840691043943,
          0.22678914689388138,
          -0.2597200954563049,
          -0.23301890429760377,
          0.028453499422663894,
          -0.20790579428873493,
          -0.23618673164662543,
          -0.1259322600954717,
          0.24580535989188196,
          -0.06717584518748897,
          0.10870011670935041,
          0.059698752615783224,
          -0.1906937250920058,
          0.24947069530753008,
          -0.0976176833893862,
          0.24679555150853022,
          -0.23610176602969182,
          0.17078270344580515,
          -0.19063770807919136,
          0.12461935962146153,
          0.16839205169568494,
          -0.1155295917215381,
          0.04770869666324889,
          0.11961958433137934,
          -0.22989879767454682,
          0.11692262610390526,
          0.2036467062977238,
          -0.012860052217024577,
          -0.1073309957153612,
          0.24831824190646137,
          0.17420633153139,
          -0.09498771864258757,
          0.2362830233402755,
          -0.21000858868065822,
          -0.0722623777746524,
          0.10150654673162544,
          -0.02986495589337274,
          0.03460056556918726,
          0.07781041848087582,
          -0.20397243275371443,
          0.09506409072827533
        ],
        [
          0.017995160378999966,
          0.056830254562335716,
          -0.11805214479439556,
          0.2008481802829105,
          -0.04131352285862168,
          0.19546351354286895,
          0.12420172809307446,
          -0.20270920475445173,
          0.20357036527201416,
          0.07045384740858902,
          -0.007782982948746211,
          0.12148150753236878,
          -0.0796014684673577,
          -0.15569237415657952,
          0.17664943644047992,
          0.06490805806545652,
          -0.1962331100729842,
          0.275309195269685,
          0.0756066345652072,
          0.21512857842582403,
          -0.20947020282910414,
          -0.1667290503166265,
          0.01571106474443579,
          0.21937735328700092,
          0.06317125931038238,
          0.027400513908174187,
          -0.18829267579500444,
          0.1835338142830196,
          0.25813173316142024,
          -0.21693661595428446,
          -0.205289242453267,
          0.2728189282691369,
          0.26330534617011747,
          -0.21569868813413637,
          -0.1682205433021293,
          0.15556357324825593,
          0.19675843316148517,
          0.13186701558763653,
          -0.07914975883924755,
          0.020271737740809537,
          0.23532624590830709,
          0.05963445218146191,
          -0.0052417291621752755,
          -0.08170262011256584,
          -0.14138272199810054,
          -0.12415458472513946,
          0.08756192858184896,
          -0.053952789490641244,
          0.11428297318589688,
          -0.1770961922057201,
          -0.19822505669133844,
          0.06941110536939323,
          0.09603901774217925,
          -0.13122002034397962,
          0.06608140751533324,
          -0.024920259699955923,
          -0.09098843078191454,
          0.004311736952994634,
          0.1496061942744244,
          -0.12488794398310253,
          0.18673751030705563
        ],
        [
          0.22487875074155558,
          0.05926679348418737,
          0.24591055922934799,
          -0.1586711487211603,
          -0.0658954408176919,
          0.2585922017296614,
          0.06981244285229364,
          0.20407786935224842,
          0.04711938044187809,
          -0.22950299117864992,
          -0.020955442246655055,
          0.2386030722452699,
          -0.21475942377578905,
          -0.044290463691324285,
          0.005170318403772568,
          0.27733968341770415,
          0.08808621903535574,
          -0.01622335859628134,
          0.23238769344225668,
          0.17728541812574772,
          -0.1823748206196482,
          0.2788278016379891,
          -0.19019846775618324,
          -0.15192942083325756,
          -0.1464979500226653,
          0.19695404518637497,
          0.08315756171987637,
          -0.01564166990819193,
          0.03802799284271933,
          0.045324588921436065,
          0.1286636315663573,
          0.24153455225785667,
          0.18671147983307096,
          0.176174245637402,
          -0.09543306475099934,
          0.1325147583478031,
          0.11025547771289985,
          0.06483928742416699,
          0.3365375186324926,
          -0.018812315532365155,
          0.029700379171694283,
          0.18646931885985432,
          0.10332893642425159,
          0.12334154868075317,
          0.20266380702089995,
          -0.010441951523225775,
          0.24726316557953898,
          0.21080491349718586,
          0.07423937103721347,
          0.17891615650032922,
          0.17232045041602903,
          0.02648822602101736,
          0.13868398606272697,
          0.1297522745253944,
          0.08648584556656644,
          0.23799543204164783,
          0.20483787067064127,
          0.2685936970620711,
          0.23958385018210196,
          -0.09247459625337773,
          0.28481698656448357
        ],
        [
          0.1185560749061015,
          0.1892126491946402,
          -0.0882848858827314,
          0.0897354626682206,
          0.13606584406029223,
          0.13935280906211717,
          0.2419110783266552,
          0.0335654068214772,
          -0.07640109245425789,
          -0.10428562705611258,
          -0.20409148603729146,
          0.22462902096750278,
          0.04788585955663332,
          -0.007829311555227935,
          -0.18721903698829218,
          0.011047759738219112,
          0.0632849789245034,
          0.1301720173935568,
          -0.1341015128533944,
          0.18548793839512212,
          0.09245098206658815,
          -0.0212272426947097,
          0.053456999690658244,
          -0.05566048997425761,
          -0.13004133849786909,
          0.21523044405362546,
          0.0563038955211843,
          0.23602849129966408,
          -0.10831922783240407,
          -0.24535844887592498,
          -0.02817674537043313,
          -0.15074259918040123,
          0.04246312297784845,
          0.025987943085638402,
          0.12416577069772335,
          -0.04142774983815578,
          -0.1451481365940779,
          -0.010427183866437708,
          -0.08818399792893811,
          0.09677546872922747,
          -0.26475623381243174,
          -0.10527767686775602,
          0.10690326591650283,
          -0.21174368695436366,
          0.17390841001054538,
          0.2657268841403503,
          0.18551666634102487,
          -0.21582711910840416,
          -0.25009738154232636,
          -0.04926969846441865,
          0.17656868182434812,
          -0.16520465984131935,
          0.04345029942875644,
          0.24939731562861214,
          0.21133522924780926,
          0.1782550415801774,
          -0.08696483616373905,
          0.244164554461491,
          -0.07488185411677332,
          -0.04360886548659982,
          0.06736119040214289
        ],
        [
          -0.2382765700414794,
          -0.20670053503644142,
          0.022486795619420418,
          -0.08655882510937855,
          -0.014180555151636937,
          0.12118670174159456,
          0.16081529961465935,
          -0.08576652891802697,
          -0.16838634913536196,
          0.2636701731072599,
          0.023055762693449035,
          -0.0378693207735927,
          -0.14655452259360296,
          -0.17569089518279832,
          -0.19460466771048562,
          -0.04830751596494381,
          -0.20262673968028722,
          -0.18983049754998343,
          0.0756903560000171,
          0.21313596138878121,
          0.03432186013840934,
          0.1358418306227623,
          -0.049764609342912054,
          -0.0411426555350432,
          -0.2525128602081333,
          -0.045190707487075966,
          0.19138312958329665,
          -0.06918178180057862,
          -0.14058268372886623,
          -0.0989257347968041,
          0.24842161912641683,
          -0.21912164625962374,
          -0.23237814653988806,
          0.10101214287276768,
          0.2111932207969737,
          0.06211542230090291,
          -0.013166609148662882,
          0.10953030682307895,
          0.11859404226705333,
          0.1485555390294861,
          -0.13206480123643752,
          -0.17769943860812246,
          0.021681762739018465,
          0.07941277711253854,
          -0.020985400137316604,
          -0.11446475510606395,
          -0.15694859702801248,
          0.1252823646154872,
          0.09932953347366452,
          0.10994232323000061,
          0.05356306423994606,
          -0.04897940544423634,
          0.08337103902359347,
          0.24569209260775363,
          -0.15780129094132359,
          -0.040975777309789733,
          -0.24571414583211118,
          -0.06765907415797802,
          0.23430550536426123,
          0.2635446072548575,
          -0.19185503584957464
        ],
        [
          -0.07146329860867835,
          0.22364856841563724,
          0.03209128089121112,
          -0.16881606696786106,
          0.11074802614431466,
          -0.2175903543278041,
          0.1546156750745234,
          0.016275905255837712,
          -0.22077031354397642,
          -0.17247915760493718,
          -0.2070989829415521,
          -0.2354764351762665,
          -0.21893875363848125,
          -0.19368343443242522,
          -0.11496546845422458,
          0.2546278423106917,
          -0.03058622647054198,
          0.2258515363992827,
          0.12080370632551125,
          -0.14022520804846758,
          0.039187178966247314,
          -0.011943594887190765,
          -0.01230469317478675,
          -0.23290241456083816,
          0.23307301795551488,
          -0.2195672783237591,
          -0.08788130739626117,
          -0.0007391429292215922,
          0.12254706330335922,
          -0.13702993404122626,
          -0.17658645007036408,
          -0.018793667487498,
          -0.2507740223124349,
          0.19173804203667646,
          0.09305574249146889,
          0.14430312147322524,
          0.2507987671087921,
          0.17142930670081805,
          0.07823085302028106,
          -0.03041569475778224,
          -0.13877663891173303,
          -0.1487918327701288,
          0.05128753254178956,
          -0.13635858908509563,
          0.20483917563875068,
          -0.02658585371224023,
          0.03884376735107581,
          0.16625772734813712,
          0.24394332790574685,
          -0.07926929937190569,
          0.25950147311792565,
          -0.13310807845879669,
          0.25414667797717405,
          -0.24983026275768874,
          -0.053832415251212025,
          0.1820030972335142,
          -0.12892732400118634,
          0.2113670507683855,
          0.11948206878567326,
          -0.18112462108520702,
          -0.25139342049816604
        ],
        [
          0.26258906125651094,
          0.04403980429957804,
          0.1795427805706352,
          0.3098892753975203,
          0.022616400163954643,
          0.0968754109133009,
          -0.10231402817314297,
          0.07829557769657723,
          -0.21342895558058098,
          -0.01736062428102092,
          0.07302727438130412,
          -0.0594435440485378,
          0.2000616020022707,
          0.09961632076770838,
          0.4802976275282477,
          -0.18628838453351823,
          -0.06890074041485501,
          -0.19113891771246078,
          0.2833642716042286,
          0.09093458700901615,
          0.14160433157537172,
          0.02433323305703433,
          -0.003215023953652028,
          0.32433659191164266,
          -0.024770855540668567,
          0.20368036981373486,
          -0.2417719873962867,
          -0.11656139549517877,
          -0.09984411894232523,
          0.2042253481503542,
          -0.09115713876776829,
          0.16979985306085318,
          0.12876148540513616,
          -0.15951625989548424,
          -0.1972273533015195,
          0.15543340860278254,
          0.1009826508353791,
          -0.17884729423462595,
          0.3198816592570826,
          -0.03529597759177422,
          0.053331981690608675,
          -0.1616567096833373,
          -0.20774178379929037,
          -0.09729116626800176,
          -0.13238461106088673,
          0.009955326235058055,
          0.16878371581846385,
          0.20810411828545258,
          0.015202438296441086,
          -0.1993420256454935,
          -0.036247446219816966,
          0.18946797637227974,
          0.0891234467441212,
          -0.24505488352753713,
          0.13238728557969753,
          -0.1022965471881603,
          0.27109709924261705,
          0.030353893175279912,
          -0.0890959766596152,
          -0.023962860749641386,
          0.19290507397514448
        ],
        [
          -0.11447782739451402,
          -0.25848881086305503,
          0.184054187669033,
          -0.2541580058269602,
          -0.12324712783073946,
          -0.21472208513785582,
          -0.12981688311453068,
          -0.0532801050468286,
          -0.04645227974286871,
          0.03012489027135337,
          -0.19270347248727873,
          -0.22266641475490045,
          -0.05030972215385681,
          -0.20782090061266215,
          0.08400824366432069,
          -0.26436258254300377,
          0.13441622338784065,
          -0.22022376394557922,
          -0.09077906265597478,
          0.013680513854475067,
          -0.2059485484566194,
          0.13835049759690293,
          -0.04259881336941235,
          0.027759745574625547,
          -0.11248076456683277,
          0.14464220234159858,
          -0.25987079350023246,
          0.24148987644764086,
          0.16987999609994514,
          -0.08967608540913415,
          0.178929759616811,
          -0.09342505510470744,
          -0.24978864222655534,
          0.22329991424809487,
          0.2624229529494781,
          -0.15538926691113028,
          -0.08682908064888091,
          -0.21421036951845054,
          0.07241180923722508,
          -0.16435665125320206,
          -0.1103440586592256,
          -0.07609109594578524,
          0.20023062918392276,
          0.20877264623001915,
          0.1500492268374306,
          -0.13538620497303014,
          -0.058756325108262564,
          0.0326460320050684,
          -0.014186699743482445,
          -0.043264079607637757,
          -0.02216848249293038,
          -1.8732155809248132e-05,
          0.019926691940405705,
          0.2342699714081342,
          -0.017239432499131936,
          0.13863657161392723,
          -0.15214875068061123,
          -0.20544008011964288,
          -0.22273782698550598,
          -0.012590018156345261,
          0.19627509312109132
        ],
        [
          -0.09917731200946597,
          0.3074560742061708,
          0.12632233296747206,
          -0.18344120016820997,
          0.1060646524372878,
          -0.028886930015655808,
          0.09147342010127592,
          -0.07001786913699201,
          0.17862166773770174,
          0.23383955486775132,
          0.2783263258038089,
          0.08605417044770548,
          -0.2715886578507754,
          0.08892977464601388,
          0.2459173982740049,
          0.13061129767514393,
          -0.06250665747375127,
          0.19152122760813675,
          -0.042638449701772295,
          0.2292641211635126,
          0.060840057039708045,
          0.20294209057531504,
          0.14678053212319983,
          0.3104428152174807,
          0.23469903309424525,
          -0.0034753216083470533,
          -0.1293788523858551,
          0.18651456830835536,
          0.014232262320969684,
          0.11937776097069969,
          0.20268561159243312,
          0.2105727576346862,
          0.18992252345359523,
          -0.1609631474664075,
          0.25623834887615604,
          0.24632122958350602,
          -0.09137071232502453,
          0.18046338248161398,
          -0.16862759181765155,
          0.17022008867055352,
          -0.0028414272110731937,
          -0.08730814404923892,
          -0.15668361928667066,
          0.07632522955761153,
          -0.17995395949268578,
          0.07860990309462826,
          -0.053042693386698564,
          0.04165518883923379,
          0.22378825633511426,
          -0.02830743359899143,
          0.2730573478507972,
          -0.02995958005616262,
          0.15913905541006831,
          0.21383136321792443,
          -0.043416410601273284,
          0.08279120366903919,
          0.3551737181611062,
          0.14702126749279198,
          -0.15041070282140434,
          0.03394526833955396,
          0.3082450277021756
        ],
        [
          0.17325685578503303,
          -0.08118956691899415,
          -0.130752719744585,
          -0.2229786852722756,
          0.13414341851009304,
          0.2535457276680463,
          -0.0009655788439003202,
          0.23387408671257526,
          -0.1389946160415641,
          -0.06439876165446756,
          0.08427821391100773,
          -0.1295565602490228,
          0.06058360550167703,
          0.08010360942170512,
          -0.05070478655422097,
          0.16097437651141228,
          0.13454131025652913,
          -0.23025213319323729,
          -0.18714586265351532,
          0.24693008522342838,
          -0.0610521467116558,
          0.24475592305511537,
          -0.00042790516325392504,
          -0.07489595716705642,
          0.1676699303105088,
          -0.11993621981113932,
          0.1402977315794689,
          0.19337391588006492,
          -0.12896703895885187,
          0.2396480143042271,
          -0.028499527961486585,
          -0.20206626184430374,
          -0.258952636212023,
          0.0057000013843966114,
          -0.20246134771356522,
          0.15927813286574408,
          -0.09280922484070865,
          0.17417331818292786,
          -0.14986088007153328,
          0.0070526778719370966,
          0.0002739073599441566,
          0.18146631590414025,
          0.08823255233555582,
          0.04631323184669864,
          0.0889816714880778,
          0.069792510996342,
          0.1698309556148246,
          0.21080019186843996,
          -0.25010938316344944,
          0.21003439499034524,
          0.109585753680264,
          -0.21775650729655482,
          -0.042981850249104836,
          0.12449717113559784,
          -0.1839436006226033,
          0.12219277004371544,
          0.06483218308155726,
          0.1121097242051313,
          -0.24877728524915044,
          -0.021992009128919878,
          -0.1935859720116898
        ],
        [
          0.21464971730765497,
          -0.018218492737384497,
          0.22048449700834014,
          0.11321191204329063,
          0.15419655919243072,
          0.04307874140962156,
          -0.23043962470693086,
          0.01948142397008115,
          -0.21365594454659104,
          0.2588331131661299,
          -0.16917652032387903,
          -0.20473201489838025,
          0.26819536441907393,
          -0.150670208108239,
          -0.19308545332530558,
          -0.13550504280716422,
          -0.09605490121445388,
          0.08848757106022975,
          -0.23874984382190587,
          -0.2104540730057797,
          0.10088016562983414,
          0.006497707210745685,
          -0.1482844084089752,
          0.10886202676041984,
          -0.009682505200198359,
          -0.12260068889657139,
          0.04794715066930411,
          0.15393061514521478,
          0.233771100282318,
          0.13973490445156336,
          -0.016489345202157283,
          -0.06567291137628951,
          0.2569885253616237,
          -0.23897391431082202,
          -0.22248819332378944,
          0.0829942223169775,
          -0.012628211249437584,
          0.21738815923633048,
          0.05615871446983836,
          -0.1884575465184552,
          -0.05005607406239585,
          0.041958430972738346,
          0.2607477579364804,
          0.15967510702866233,
          0.05459093705985942,
          -0.08058074020723875,
          0.00480263287421263,
          0.03124387367891197,
          -0.009206452825532188,
          -0.06295674301940542,
          0.07461081348863975,
          -0.17197601828138276,
          0.11244648377131226,
          0.18800446299518847,
          -0.16819109376891647,
          0.05994395165349797,
          -0.1259966895293877,
          -0.09024441243678118,
          -0.08147815706002413,
          -0.2468294821584793,
          0.20809373279890592
        ],
        [
          0.1622471565926115,
          0.21647701998137117,
          0.059884472235084564,
          0.027955286664996606,
          0.06709927232796521,
          0.2277639090182336,
          0.1983740570260361,
          0.035077266552609204,
          -0.15210374869234963,
          -0.15140026738826326,
          -2.6002836389254367e-05,
          -0.014841358569715628,
          -0.25853612246339697,
          0.015298982706946535,
          -0.18740005552694924,
          0.13925959488414932,
          0.16691261721727396,
          0.26544533406380544,
          -0.12568360787905833,
          -0.24888580490131637,
          0.04508110155840085,
          0.2252442218137977,
          0.03543186077995371,
          0.001696834965168237,
          -0.22221968366313774,
          -0.14999012302480844,
          0.22028457484540317,
          -0.21560165901175504,
          0.1405068727470791,
          -0.17655643059524048,
          0.0356304974762337,
          -0.02270779714039893,
          0.16670957862932642,
          0.08099090133155083,
          -0.16161014665436338,
          0.23999592259797614,
          -0.08111633495636468,
          -0.15964905142948477,
          -0.06787271958822264,
          0.24149990045704128,
          0.23234792553423061,
          0.10891171486113711,
          0.14676102460896837,
          -0.25563508154461545,
          -0.015125076006199141,
          0.15379061252878823,
          0.15828621096813,
          -0.0616977960630607,
          -0.13092177044411926,
          -0.15541906973451403,
          0.17866425589032064,
          0.17130668367401447,
          -0.1039226145413584,
          -0.21939137524417912,
          0.10408034217417421,
          0.018229248822569478,
          -0.17763849100003343,
          0.025971210487669285,
          0.18138753593678217,
          0.10081296940249013,
          -0.001601735101606199
        ],
        [
          -0.03417497614748867,
          -0.07002055951781468,
          0.20694934406443885,
          0.029719318261638518,
          -0.07453773010804071,
          -0.21556921534065807,
          0.13406847250942727,
          -0.1145888163108827,
          -0.2183681275747183,
          -0.1294608593601186,
          0.005559688969145701,
          0.17916503187433375,
          -0.10915776128460108,
          0.2490465560391708,
          -0.18305635213715452,
          0.10617967586048466,
          -0.022680323408105555,
          0.08185756429220406,
          -0.13539258416513647,
          -0.18515534060230343,
          -0.08448099687201988,
          -0.12854813650328595,
          0.049199246126794015,
          0.002608227164943517,
          -0.16080113316496963,
          -0.06821638388338774,
          0.22536509083214648,
          0.08961165804361301,
          -0.051200182411322216,
          0.07410361036321175,
          0.08861857064231392,
          0.19008679494421715,
          -0.12363147213069249,
          -0.1274989095921722,
          0.12269161906578813,
          -0.06921500381735432,
          0.043988051528643254,
          -0.08154343158795788,
          0.2684313916128451,
          0.1347668306082485,
          0.1737176214843595,
          0.15166022585157304,
          0.23280391110483986,
          0.023385154224675624,
          -0.26016624797445287,
          0.25577925147498426,
          0.24027543165533033,
          -0.04546633336564668,
          -0.17481066503471937,
          -0.15921715068249873,
          -0.10039645202874518,
          -0.029980185228195604,
          -0.24448907975423476,
          0.037599271966831084,
          -0.14708493384914031,
          0.035287035120909395,
          -0.16906780121174056,
          0.036057046252770196,
          0.1608622948212518,
          -0.19664518222564925,
          0.023090285487583396
        ],
        [
          -0.004673949444941408,
          -0.2376752423352179,
          0.11562253424125572,
          0.20401520581485813,
          -0.22831715966325164,
          0.03289865625770874,
          0.054011675222101346,
          0.2544239046583472,
          0.2466696780456037,
          0.2613289617838783,
          0.26271795723290914,
          0.23758755220021816,
          -0.266865265915608,
          0.12693178473438185,
          -0.18014332645349734,
          -0.22360134954018981,
          0.25748907903108303,
          -0.2629423131108934,
          0.1351165475511747,
          -0.02865214667571453,
          0.283449240362264,
          -0.13662645061311596,
          0.1738939709263454,
          -0.14858500865089513,
          0.13165478498135105,
          -0.1611389560324021,
          -0.1324934832663011,
          -0.20456394608104644,
          -0.04662539962020073,
          -0.07193323607963883,
          -0.14960832966057186,
          -0.07492640341867947,
          -0.2117015606532243,
          0.10563601332524306,
          -0.23365191461805257,
          -0.19827713119719928,
          0.08010512561512384,
          -0.026942617202896528,
          0.1185548408499534,
          0.18334606725024816,
          0.04295024212001898,
          -0.21513493407154125,
          -0.1751914594516697,
          0.2260411277165806,
          -0.06341577394764021,
          0.21211675718675935,
          0.2136214076240132,
          0.06402058195780125,
          -0.017757482771164748,
          0.15123092976406238,
          0.1870886995653575,
          0.25953312389127803,
          0.13791776297409186,
          0.08476016540992308,
          -0.09558642048655748,
          -0.016754260694195756,
          0.01752102334091576,
          0.19782220757398705,
          0.28519662999526546,
          0.09329197748497656,
          0.20862121598627487
        ],
        [
          0.1767609854462454,
          0.036642444908648264,
          -0.19712631338642403,
          0.23197146651908604,
          -0.11206676139959665,
          -0.11826560285658197,
          0.1232606607750723,
          0.006382556518557334,
          -0.057337649852733284,
          -0.003743620557876766,
          0.19225395199321674,
          -0.1664657169390212,
          0.09753933372928258,
          -0.16735812787084892,
          -0.1904004787352275,
          -0.08543162711138724,
          0.16509957919774484,
          -0.10365570590854657,
          -0.16634166287025307,
          -0.17663970379250293,
          -0.050510992030402824,
          0.1630750217301856,
          -0.14754707613712517,
          0.05986491789644243,
          -0.08106692237192126,
          0.11911269277483987,
          -0.11087320430293213,
          0.0007999632602337011,
          -0.00896720350436966,
          -0.1901188130467947,
          0.23656795589322427,
          0.045791875442141,
          -0.014239194411078092,
          0.16263912623062676,
          -0.08789513445136962,
          0.19009393441805877,
          -0.20256491620596961,
          -0.11559657187539098,
          0.23541953842700206,
          0.13899317972414654,
          0.11427824906023436,
          -0.14103851751132024,
          -0.02788731939411612,
          0.19724250639534624,
          -0.16910013693779385,
          -0.125443462968683,
          0.2656623460135616,
          -0.2037438008702089,
          0.22992765505139387,
          -0.025230671647844694,
          0.030091993046602213,
          0.15723353366682993,
          0.22675513915062015,
          -0.030810263692626547,
          0.13176629545446153,
          -0.17047684723043055,
          -0.00322918300496018,
          -0.03367754783101092,
          -0.029137218894593198,
          0.06084844734095583,
          -0.2069891534989862
        ]
      ],
      "biases": [
        -0.011221901635656421,
        0.01912459445305595,
        -0.015906877017157078,
        -2.008478077694445e-05,
        0.36210767823870277,
        0.024787318035241843,
        -0.005097757138410621,
        -0.01607532330586029,
        0.054942585536124806,
        -0.060281378957022104,
        0.07165247582147365,
        0.20325753700908578,
        -0.005128640594525354,
        0.01006086742773557,
        -0.0025346063905836557,
        0.24965683347954634,
        -0.02038457963969932,
        0.2463797313824783,
        -0.017477716613355575,
        0.010818419566064982,
        -0.048267826739036714,
        0.008133945628289672,
        0.012969007521197775,
        0.0036471747919922548
      ]
    },
    {
      "weights": [
        [
          -0.18237738612856058,
          -0.29772929764935163,
          -0.2875267961411897,
          -0.06254174009728773,
          0.3010415943725525,
          0.2500472288675193,
          0.2576668259407584,
          -0.14384232110297981,
          0.16973347752004433,
          0.2604803549719467,
          -0.06813205361032441,
          0.13118007235015908,
          0.09791835643035302,
          0.03898775814433747,
          -0.06502238369263064,
          0.015267576187758265,
          -0.27729772410701964,
          0.2518915722764642,
          -0.28162156697324603,
          0.1536107507232482,
          0.1462955775281468,
          -0.16511609406354702,
          -0.05822680084148508,
          -0.08233568071557715
        ],
        [
          -0.11815063289369473,
          -0.13161852713635475,
          -0.3075228284344895,
          0.13951814580865568,
          0.49034101973324346,
          -0.010670580403217063,
          -0.20365869983701135,
          -0.26423708066177404,
          0.35598363120548066,
          -0.2279503527894566,
          -0.28469104518729577,
          0.09533960652470763,
          -0.04790269100457842,
          0.056189586850434216,
          0.05374615044895601,
          0.2601400915580221,
          -0.3068556447250918,
          0.4896997199966483,
          -0.20976485158855837,
          -0.14036495686500097,
          -0.09773120170924988,
          -0.13262303167029696,
          0.23495955211729372,
          0.2262693073577941
        ],
        [
          0.025403470560324642,
          -0.03657027914071975,
          0.07271167203265916,
          -0.10358156218982432,
          -0.32397794078034675,
          0.26614739646260377,
          -0.13509964543883812,
          -0.131355170068345,
          -0.16864137207413654,
          0.06053294803274805,
          0.16360713804881744,
          0.0912300884284546,
          -0.03144636610208112,
          0.2812730257996054,
          -0.07034913523511727,
          0.045495664447333675,
          -0.26058580749431753,
          -0.30076345484099953,
          -0.24597628521567116,
          -0.20877782184487445,
          -0.24987015654515538,
          0.008236019704372653,
          0.004594079479849557,
          0.33388255664344973
        ],
        [
          0.0020443801311482717,
          0.03538945750202435,
          0.28653337363561776,
          0.020849968945079504,
          -0.24994264809558014,
          -0.09483341173456791,
          0.1251931074222783,
          -0.12466759301000917,
          -0.34952945593204815,
          -0.34267852307601787,
          -0.1709285826423132,
          -0.12579530079989892,
          -0.10202312767367937,
          -0.09753861559337243,
          -0.13849487977732639,
          -0.2983306419754714,
          -0.007683016908790918,
          0.05370082384463318,
          0.03808063457806031,
          0.3525071353282741,
          -0.17158869078455047,
          0.30162004215115273,
          -0.010127336034810175,
          0.2555367256289043
        ],
        [
          -0.2894793291916843,
          0.14272236963067889,
          -0.06264359876350387,
          -0.20416363363502352,
          0.32418319431706943,
          -0.17153375627282472,
          0.07901038862342216,
          -0.1279173418053433,
          -0.32901959869142544,
          0.061418697995965714,
          -0.33578520701305054,
          -0.30901450679230635,
          -0.016407456527391687,
          -0.0786624392274261,
          -0.12083407103644261,
          -0.2976566455401172,
          0.18271420828830667,
          -0.22254250184015648,
          0.23553274569393748,
          -0.32349054749968276,
          0.2786241704947912,
          0.33658258128053237,
          -0.08645116869403818,
          0.12908397022238888
        ],
        [
          0.22088411755222767,
          0.33003127012522293,
          -0.31807308581849414,
          -0.22439833205682683,
          0.663356208839969,
          -0.03593081947243694,
          0.17602542253047707,
          -0.26997555781525967,
          -0.22376032554587222,
          0.07142719663243592,
          0.4250554691660561,
          0.49918030216130893,
          0.1487158388535063,
          0.1732295660221428,
          -0.0024617601900499856,
          0.25459217831002323,
          -0.34537466481370116,
          0.4494600377033148,
          0.3387736085962234,
          0.2916149723092582,
          -0.16738174051299168,
          0.07071175531029968,
          -0.026498018172860145,
          -0.08925228875940573
        ],
        [
          -0.0967647711201897,
          -0.007696263807671283,
          0.11062695602795586,
          -0.10300877833357742,
          -0.14373768941418735,
          -0.14125313559742855,
          -0.08170498022452943,
          0.02720307872853355,
          -0.2972585856991812,
          0.3491528415382798,
          -0.02361269827721111,
          -0.25964447108585575,
          0.14033429634379088,
          -0.13802113478014583,
          0.32635902475285467,
          -0.041741686672247855,
          0.012893233405563378,
          0.025733635001902774,
          -0.12749370782917632,
          -0.29931981353163106,
          -0.1483131657740857,
          -0.18594449298115492,
          0.16944156253805254,
          0.35157083015729673
        ],
        [
          0.1131063376034579,
          -0.24623859110219257,
          0.11429842586861097,
          -0.2156849845507883,
          0.30158446662332167,
          0.17954109004357643,
          0.11986601116675895,
          0.3068752837178281,
          0.18647582005051533,
          0.22178534629334956,
          0.24801442664820353,
          -0.3013580192331851,
          0.12056163207535259,
          0.3474335407027543,
          -0.009223865484629374,
          0.21092753043014198,
          0.06964724507514225,
          0.09624782491541918,
          0.28154870187747444,
          0.0144752113346208,
          -0.005492567128802037,
          0.2168789851744366,
          -0.04712411728155414,
          -0.11020180706170582
        ],
        [
          0.015363319125189654,
          -0.15130708523351147,
          -0.1457382142651249,
          -0.0214501000889977,
          -0.27003529287083583,
          -0.0753519147823167,
          -0.23547297000998305,
          -0.07010437714027723,
          0.2975084623991686,
          -0.253796617383631,
          -0.22758424865936105,
          0.2842744733681455,
          -0.3099124509573706,
          -0.28182349669737905,
          -0.2175407415520246,
          -0.044707862079843744,
          -0.28492004676325394,
          0.05712624067737444,
          0.3458819785896478,
          -0.2416427122338622,
          0.10419077657339247,
          0.16470939727108463,
          -0.06070478907416811,
          0.09390551088087981
        ],
        [
          -0.3516297348002947,
          0.14463777540661216,
          0.345164677266391,
          -0.016819119456127525,
          -0.31700205067143544,
          -0.035850947273565324,
          -0.07222562932904526,
          -0.28876922239202507,
          -0.16476299284459467,
          0.1238349788849135,
          -0.17109942352765928,
          -0.3381461979575518,
          -0.0005407319171304795,
          -0.21163038863769978,
          -0.3076815604749887,
          0.10843660897140563,
          -0.04604023161767887,
          0.07653878730135337,
          -0.2970539911098395,
          -0.14395727010321066,
          -0.040660562599047795,
          0.11814962164792597,
          -0.1530401270233854,
          -0.06483263826709473
        ],
        [
          -0.0023905466076794913,
          0.24316578624735732,
          -0.19829804418128305,
          -0.2859033329767682,
          -0.22368527971619287,
          -0.220751011184676,
          0.23858391434510245,
          -0.1690255151583903,
          -0.19789420786319534,
          0.26465550749533684,
          0.21388579314819228,
          0.013281878875781448,
          -0.015116015097692208,
          -0.25891394949975194,
          -0.044653215133665256,
          -0.25128825958806894,
          0.14716954976514351,
          -0.0484495749675561,
          0.1402663528419646,
          0.2579273566940271,
          -0.0004157192496814784,
          -0.1322241120758529,
          -0.23964151756132915,
          0.2871673682944802
        ],
        [
          0.3316568605000227,
          -0.3004819027974339,
          -0.12830999511406005,
          0.2140156054812023,
          -0.009228660023001193,
          -0.2603898082586166,
          0.13614243131161743,
          0.20487342081247656,
          -0.3040695368500281,
          0.01724874428028213,
          0.23249966354972013,
          -0.2998897258380652,
          0.1049575671956256,
          -0.1350380840656707,
          0.3408594253509567,
          0.06771340628202957,
          -0.3232384318742316,
          0.27879909613035536,
          0.17395645210596838,
          -0.027595692578772268,
          0.11189818421737269,
          -0.2395732417409523,
          -0.29209795487968226,
          -0.2765005554426215
        ],
        [
          0.016615413428177198,
          0.16229164595509957,
          0.21327916653498666,
          0.2994585659243647,
          -0.022766646544267577,
          -0.26406062941235736,
          -0.13758326728070205,
          -0.2959082648947701,
          0.013728596192014872,
          -0.24083076988387594,
          0.06879630909653406,
          -0.1926090166093966,
          -0.18464825968433368,
          0.30094734647249766,
          -0.13548913383054267,
          0.023703506961029366,
          0.153792881059161,
          0.16167497739399597,
          -0.07055303325214138,
          0.32660656975897145,
          0.34358441370358467,
          -0.041197613575953015,
          -0.0015935155056868101,
          0.12746638805924607
        ],
        [
          -0.3381384916148907,
          0.06403195940160328,
          0.3530217432308454,
          0.1348718468749242,
          -0.005492696668062105,
          0.18712453430579626,
          -0.04949576036617465,
          -0.2872786124229571,
          0.025625761397261027,
          0.022367243057955743,
          -0.3017495019155427,
          -0.18059220023277484,
          0.18808978543066388,
          0.106347690368631,
          0.2631602585584994,
          -0.2094505868046109,
          -0.2084220655010595,
          0.18079146616922517,
          -0.2597757094350227,
          0.21756025839562637,
          0.16868810138802892,
          0.09230296552501412,
          -0.23029015794510752,
          -0.10407865859364225
        ],
        [
          0.3467765841818342,
          0.2958539043622465,
          -0.33327891320971814,
          0.192919966557128,
          -0.047054529655431165,
          -0.07500243661155753,
          0.07371975807208074,
          -0.16081660235647632,
          0.0853556351490509,
          0.04180898704768061,
          0.30074754849681307,
          -0.026319019809367603,
          0.1391405237412768,
          -0.18364609377949082,
          0.329715184793142,
          -0.23626979938331885,
          -0.1816420806154274,
          0.09704957455677728,
          0.06083685197311717,
          0.12083091222002362,
          0.20699393451106568,
          -0.0816438202823388,
          -0.33204274984495086,
          -0.17571811592479997
        ],
        [
          -0.31499480677780073,
          -0.08435014034184166,
          -0.32336053529514824,
          0.3362829795415973,
          -0.18330884715105702,
          -0.25573723212449534,
          0.04921167574894234,
          0.33706233874174674,
          -0.03004956085432456,
          0.3261958222526724,
          -0.08905032979949234,
          0.02433147888422243,
          0.13182350229014528,
          0.03143192792786881,
          -0.06285449227603403,
          -0.1240443748715338,
          0.12800293196142407,
          -0.23283150490627164,
          -0.07453996996948925,
          0.013821117678081623,
          0.10886487992110172,
          -0.012035225427904092,
          0.07104459939135614,
          0.07518457277712859
        ],
        [
          0.21576508276794187,
          0.19472841570613755,
          0.25491669053684834,
          -0.07623072822292688,
          -0.29945357307342013,
          0.12112316322818711,
          0.046966546037726174,
          -0.06519990670086774,
          -0.13308523390197843,
          0.26705385032486295,
          0.013375659291133313,
          -0.34183684137342124,
          0.35073981528710824,
          0.17621971400178343,
          -0.10358305184444305,
          0.06530248271111778,
          -0.025612338668915338,
          0.1372579730796997,
          -0.04996334138448926,
          -0.09165790099125597,
          0.3284045832521302,
          0.12852396167284177,
          0.17510673642371966,
          0.3305814261732842
        ],
        [
          0.2636200264199385,
          -0.05351738951161498,
          -0.1935287977595419,
          -0.023032235159118338,
          -0.16562428236490662,
          0.2844927588741815,
          0.3358936856172986,
          0.16324581769840843,
          0.11271732695926816,
          -0.20505446945709252,
          0.31798372142726544,
          0.0029593359818195775,
          -0.16604315807109696,
          -0.28086476893302015,
          -0.0009137638319165116,
          0.17321801055126962,
          -0.29035094712110243,
          0.2045662337223549,
          0.054786478292549345,
          0.3382591675509296,
          0.11117071499967819,
          -0.29523364584241524,
          0.2834027162903607,
          0.32447573116538597
        ],
        [
          -0.12889808359037067,
          -0.2424926377457713,
          -0.24418974322684836,
          0.169584686676077,
          -0.17415028330024554,
          -0.32719170123800606,
          0.2978470438910931,
          -0.3004495388044878,
          -0.035253889681866823,
          0.027965976412246206,
          0.32782044936570376,
          -0.029653967527213918,
          -0.10546763917905794,
          0.17342732632157665,
          0.22497007401009944,
          -0.27812791834322986,
          0.0036322466081448253,
          -0.23280434603591538,
          0.060653436347573815,
          0.18120862163790233,
          0.016856783067868288,
          0.15390557138528452,
          0.11063580916911993,
          0.14246623522880844
        ],
        [
          0.10669308619274108,
          0.25337804033896366,
          -0.10905712441294343,
          0.2631290190417276,
          0.6965466990960444,
          0.21839817507717627,
          -0.08618552416268015,
          0.14539928116568573,
          0.06029809719444399,
          0.3175883610438291,
          -0.021328170505181834,
          0.37656583771517704,
          0.2444398599836637,
          0.023817258377471943,
          -0.1667754529545677,
          0.4709103866939948,
          0.1907310310915206,
          0.31599222333367666,
          -0.05303907502071777,
          0.17621050205579822,
          -0.15155999784291188,
          0.18803524452347323,
          -0.13593969970017708,
          0.18682544344759702
        ],
        [
          -0.2753739958654036,
          -0.26861928874281565,
          -0.24595495381390658,
          0.19545643863616058,
          0.30945893844984856,
          0.04671099452242313,
          0.11650286856270073,
          -0.1709360116327785,
          -0.1524180775566452,
          -0.09417676436299434,
          0.3493339851097401,
          -0.1283294623033607,
          -0.12437860659666873,
          -0.13180627446012086,
          0.2056877564314512,
          0.16341980330136438,
          -0.284046100908562,
          0.43776201724842284,
          -0.07961841288714619,
          -0.312460266296601,
          -0.06718648355298065,
          -0.305006368412698,
          -0.04043155443486191,
          -0.12589127812823664
        ],
        [
          0.13932620759246536,
          0.28609365421810845,
          -0.24956344936166905,
          -0.3163792060907416,
          -0.3376530672226901,
          -0.018638559669827845,
          0.053974086549089965,
          0.25100420212406926,
          -0.22492445898446936,
          0.28872796353668256,
          -0.1372423289624768,
          0.32381907958495265,
          0.2628978509264668,
          -0.020180199844634275,
          0.18853919539394065,
          -0.3051149895786371,
          0.33709817424257316,
          -0.1119336114842054,
          0.07259245333857664,
          -0.35238307878296254,
          -0.21586127472028807,
          0.2700519555520096,
          -0.34956904503729963,
          0.3139264413720025
        ],
        [
          -0.16742217228279543,
          0.16034029939103686,
          -0.2543287899372943,
          -0.10403199896103478,
          0.5955917737664893,
          0.3573304035299027,
          0.2796470865632036,
          0.08607466659608644,
          0.36840134615058917,
          -0.25992820127011135,
          0.2922804297735665,
          0.41581023957662316,
          -0.2159611259174288,
          0.2316662886869512,
          -0.03307864843204575,
          0.299147107495549,
          0.33791294562608015,
          0.34758828428393007,
          -0.1632515863674351,
          -0.044728092552061255,
          0.21788810532592992,
          0.16271947362227382,
          0.3691204280025998,
          -0.18175345484019204
        ],
        [
          0.1860250138782505,
          -0.2515119740373031,
          0.1189286550334172,
          -0.30254598292812,
          -0.06791153644589681,
          -0.2986538228692284,
          0.19048422974267032,
          -0.013909171699232495,
          -0.06303730885030016,
          -0.000982734716745012,
          0.2510342241456658,
          -0.29380403630351654,
          0.28001448279482505,
          -0.14132540860094367,
          -0.17764691187732515,
          -0.19667949612610003,
          0.15286640492388892,
          0.2798983623767329,
          -0.3139462641637253,
          -0.2548988428327477,
          0.12171076965612448,
          0.30031591601589597,
          0.32344356684724807,
          0.16012821795968266
        ]
      ],
      "biases": [
        -0.02053161258954716,
        0.16412273217252696,
        0.0005208155173796423,
        0.0005102377994027917,
        -0.019389799474436843,
        0.23452104233145094,
        0.000839326577542793,
        0.01673027614451385,
        0.01285675450890823,
        -1.3412710641452808e-05,
        -0.009476342215575681,
        0.01810140516594126,
        0.04704916773365708,
        -0.03668050994341285,
        -0.058279751004908925,
        -0.003422525433801368,
        -0.008969906860529418,
        0.0002322166901773116,
        -0.0017028148541728975,
        0.2703250764,
        0.13744564060710052,
        -0.0037118054533303237,
        0.21303733656609602,
        -0.08523513940815257
      ]
    },
    {
      "weights": [
        [
          -0.14449450247525525,
          -0.1038831075769521,
          0.0924781753724175,
          -0.33534628346299494,
          -0.1541894156112075,
          -0.3623475644842084,
          0.1796256160910609,
          0.20810118556817545,
          0.17477774053589157,
          -0.2499279163080945,
          -0.1300909395765727,
          0.2516991247763526,
          -0.005911163069801006,
          -0.2808850097977204,
          -0.23531103283209953,
          0.05789161939147566,
          -0.032778973038044286,
          -0.40036181225929224,
          -0.16043635272902307,
          0.10652887606015429,
          -0.31380108033037346,
          0.13079928648432393,
          -0.36169152971698226,
          0.020323608487132334
        ],
        [
          -0.20109451226148078,
          0.3435456702531236,
          -0.2535468217590988,
          0.0890313029709047,
          0.3277059458307839,
          0.07049333425876046,
          0.23075692436421913,
          0.24329164981835483,
          -0.15161330001847137,
          -0.029116093368771957,
          -0.26043509425004163,
          -0.26883187460990465,
          -0.2159960182917632,
          -0.053358022356372575,
          -0.10173328874472663,
          0.017891876083099625,
          -0.22032487784621932,
          0.01767702896696497,
          -0.20235214282722488,
          -0.028484494913856438,
          0.21606094910535334,
          -0.10326031092133367,
          -0.06558925224585765,
          -0.2987415330423139
        ],
        [
          -0.35769301359118955,
          -0.12828212549770826,
          -0.005730305207356496,
          0.06519438278044368,
          -0.06314065588348429,
          0.03650113320389558,
          -0.042228455438065464,
          -0.013943362860987709,
          -0.06789176921389699,
          0.29469532657459657,
          0.32065290279622816,
          -0.26221480235664174,
          -0.2097513999640369,
          0.08020346585557536,
          0.05722622850775455,
          0.30044897546074845,
          0.052486315770327495,
          -0.2747464740115927,
          -0.12267817112280617,
          0.3357367565968293,
          -0.17655036034475965,
          -0.19677886273018844,
          -0.125728461716114,
          -0.0027103709498783007
        ],
        [
          -0.29666091380915977,
          0.26780510006163044,
          -0.050591873142920775,
          0.22943889115588825,
          -0.08347090102011674,
          -0.10378772219202151,
          0.002686715242387724,
          -0.10110420060810159,
          -0.2682747994615902,
          0.22544283547278937,
          -0.26247682405337,
          -0.25507277421199576,
          -0.11422460905384893,
          -0.3086651111593069,
          -0.02578147618471247,
          -0.006032715279066434,
          0.25131840325737204,
          -0.18945279024495038,
          0.23923100344785034,
          0.15832844624279255,
          0.27233517391991946,
          0.21455379606246613,
          0.25706044226550173,
          -0.09939769006690959
        ],
        [
          0.04556947377100501,
          0.2577660144757815,
          -0.12006986548017358,
          0.24538915034551242,
          0.12786158312742815,
          0.011992597191059096,
          0.02649262886654444,
          -0.3873264103527051,
          -0.09704042863828781,
          0.11597616447306788,
          0.1778551643749001,
          0.2801501889600071,
          0.038953623558464906,
          0.18442927565707903,
          0.19467477321863266,
          0.35410729197937046,
          0.1729713081987339,
          0.16562964167787844,
          -0.06893840652964398,
          -0.10135458966370048,
          0.3081028510838272,
          0.06560540814430035,
          -0.32918920102294263,
          -0.02023425739718624
        ],
        [
          -0.24414900689248875,
          -0.140029497091312,
          0.32356898782329974,
          0.29621658833477893,
          -0.23899272793170637,
          0.23541089657071915,
          0.14486539479019422,
          0.36087060842919627,
          0.056421721545945006,
          -0.16510732002277784,
          0.24963325463276814,
          0.23804394709552695,
          0.260135002808684,
          -0.08214369582954907,
          0.18151318884968237,
          -0.31239455735803545,
          0.28410279909678215,
          -0.18837452206240496,
          -0.250618816101879,
          0.4186961642853811,
          -0.2813645746074407,
          -0.09134351533227535,
          0.24079197532148144,
          -0.09963344820815942
        ],
        [
          0.04505280627125823,
          -0.2824902525644456,
          -0.21433848068296754,
          -0.21374316967582974,
          0.06736308318100198,
          0.27782277454418774,
          0.19372931014834302,
          0.38146221335525443,
          0.35239919436279127,
          -0.16157975866326624,
          -0.15529209436407107,
          -0.016771610148409288,
          -0.1308529578339539,
          -0.3617529885873468,
          -0.2830840195715087,
          -0.2938228708151395,
          -0.1794244882473088,
          -0.17943803771502972,
          -0.1365679825522877,
          0.10042426224123274,
          0.3788233181109708,
          0.12566380854596626,
          0.20413175552552987,
          0.20659808803854537
        ],
        [
          0.154297316013967,
          0.2958143168166292,
          0.19648594359762972,
          0.09148250818017463,
          -0.228715625314919,
          -0.1374578858871685,
          0.004702672904010793,
          -0.017643954267547203,
          -0.2093414042527316,
          -0.30155062293300117,
          0.11722054899010843,
          0.1130166066280206,
          0.19439992992267593,
          -0.21724905486908022,
          -0.12449687962502082,
          0.10394531417745355,
          -0.23991030767479649,
          0.27705028478876426,
          0.23305658538791119,
          0.27260790641948146,
          0.16442339295042613,
          -0.3187613312102317,
          0.3740119501102622,
          -0.2097795035719494
        ],
        [
          -0.08523874882597096,
          0.29349443717020474,
          0.08987620785457533,
          -0.3524206998435246,
          0.00505487233387882,
          0.056563186900632625,
          0.11243126172614229,
          -0.11014589403471117,
          -0.33041282954541773,
          0.14938734871859302,
          0.32953276120006847,
          0.1546924836231782,
          0.18508047687004267,
          0.03429669521020665,
          -0.3217572705155207,
          0.03874538494021512,
          0.04145276126300867,
          0.07224129150688931,
          -0.04105095027777634,
          0.47667980669271587,
          -0.12771724086523567,
          0.12490749276581119,
          0.17561288652472706,
          0.17813268103056698
        ],
        [
          -0.2244398759660336,
          0.4499033081015677,
          0.27351638150835683,
          -0.01567325580340826,
          -0.3105988103634226,
          0.5778389083614955,
          0.14883318623074557,
          0.3696049720486056,
          0.1620325269340783,
          0.27427025689100737,
          0.016360774717179675,
          -0.0484315423487239,
          0.11398682007752706,
          0.19915513192336826,
          -0.004188349576858706,
          -0.22289948557685252,
          -0.16068736631595096,
          0.23321372202905533,
          0.052963488037918796,
          0.526813680490656,
          0.3576345255698505,
          0.145869297714651,
          0.1623604199664106,
          -0.21461807743105774
        ],
        [
          0.30098662643426993,
          0.2464030830817744,
          0.14247045274812978,
          -0.07407888512043627,
          0.2652897625853119,
          -0.09573787098523179,
          0.29272808776247433,
          -0.15924930072894955,
          -7.160026742015258e-05,
          0.06183932610674153,
          -0.2509034925022359,
          0.2716265983220377,
          0.3143242139374557,
          -0.1468033258712169,
          -0.26897892270960766,
          -0.25160040521933746,
          0.15081075800155722,
          -0.24610226350715714,
          0.06407187899582889,
          0.43478806205245013,
          0.2290840343084841,
          -0.010189069121990349,
          0.16542394090860532,
          -0.2929060647260736
        ],
        [
          -0.21054646225185117,
          -0.3150244805136639,
          0.2694233219878405,
          0.054710573634981045,
          -0.13491118366270027,
          -0.2904469535042539,
          -0.23255442881518854,
          -0.3122868520143661,
          -0.2773675979221882,
          0.08161255910458975,
          0.2327459755683885,
          0.10739637688012245,
          -0.3656980752735785,
          0.16411135897877488,
          -0.3420689089735062,
          -0.3130763496946052,
          0.2907307776105702,
          0.10518454392356966,
          0.07483325656392936,
          -0.2655659318994012,
          -0.35321562646423743,
          0.34359817629693806,
          -0.4666592000930721,
          0.2146621300428495
        ],
        [
          0.09311881485623448,
          0.1695336150091665,
          0.2627746693143337,
          -0.22501243890129285,
          0.3010071181575849,
          0.43687814605477443,
          0.06735004801049517,
          -0.1956671079304029,
          0.22363506813869521,
          -0.19148081513091939,
          0.29633729719515056,
          -0.09037020603540633,
          -0.022101619963047534,
          -0.28889228317423793,
          0.13370955938106366,
          0.16951700649131185,
          -0.12253864414932353,
          -0.09003728972685766,
          0.0023668543796192642,
          0.23936361607643095,
          0.30246901101433044,
          -0.0827239724907538,
          0.12700931381402522,
          0.24404768696927526
        ],
        [
          0.3035556688895474,
          0.2758301755018109,
          0.3170939308287225,
          -0.14588744000666548,
          0.2461773761387756,
          0.49666141407878095,
          -0.1564620042389352,
          -0.149716540651595,
          0.1333940332210877,
          -0.30870338179327944,
          0.13292676955795907,
          0.058741137622001026,
          0.26925080119578143,
          0.33466147854615264,
          -0.30801155717705087,
          0.2696520845631115,
          0.2173943011572549,
          0.2262465481264419,
          0.05095727864396701,
          -0.1005066999369172,
          -0.27185966860629635,
          -0.0626995315831507,
          0.4477508200181003,
          0.2617326131100229
        ],
        [
          0.3702400208037755,
          -0.13282649115223408,
          0.06909331861554463,
          -0.02600115288668564,
          0.19234025099037205,
          -0.1554971085746036,
          0.05093302444657361,
          0.25953541358784615,
          0.042926883412389205,
          0.3268227825426905,
          0.014533942980598919,
          -0.2574367147732291,
          0.013334844096288117,
          0.2529391085359955,
          0.31969680377849696,
          -0.25109576425115926,
          -0.04190293157817451,
          0.313030780423024,
          0.03327276716319846,
          0.44687715982802806,
          0.39751453061508085,
          -0.32503854880033733,
          0.4155516087710605,
          -0.2870537967193733
        ],
        [
          0.24263885209746408,
          0.37998915678573114,
          0.1930162001431498,
          0.2904853560094628,
          -0.25941966736498906,
          0.07983481365934432,
          0.3176807302616902,
          0.07014700692279563,
          0.17853643904269403,
          -0.012051905674657637,
          -0.2797339302080145,
          0.09329403656586492,
          -0.3178870461127754,
          -0.09164861127210895,
          -0.30764693577410906,
          0.2723434352057085,
          0.10862008178739424,
          0.07237977218883342,
          -0.2084009785434112,
          0.0688427902041941,
          0.3020601891366277,
          0.10793686283816131,
          0.32977997309838986,
          -0.009585079718776503
        ],
        [
          0.17235792276907366,
          -0.09277652772952963,
          -0.2705801560918371,
          0.22659426282278955,
          0.2632038703964388,
          -0.4415503172434638,
          -0.025174468868080137,
          0.01671329736456265,
          -0.14831137824771132,
          -0.011891966118827032,
          0.18466855106279548,
          0.2950483779576287,
          0.04247115005142055,
          0.34080005929864104,
          0.2943841542888483,
          0.006551115426314721,
          -0.19999268025301478,
          0.18106833641212733,
          0.29707899846018004,
          -0.42845167426570324,
          -0.27674178590854576,
          -0.33122713075348237,
          0.05795022516471497,
          0.3495608041109127
        ],
        [
          -0.18586312313114692,
          -0.21005777080068413,
          0.23242579778858427,
          -0.26373318624021974,
          0.07791523090480741,
          -0.399396412723146,
          -0.312685174128982,
          -0.2958323025417096,
          0.14907559871772572,
          0.27263539227814143,
          -0.01405062362995075,
          0.27539302071427135,
          0.2585243737664016,
          0.2651227764743932,
          0.15904841675830325,
          -0.24029613589961976,
          0.07036229386088684,
          -0.1716934480141127,
          -0.29381762753658264,
          -0.36038157735966175,
          0.1619907660402067,
          0.17642908982339015,
          0.01066404506704793,
          0.31581495126280335
        ],
        [
          0.17490103653888409,
          -0.14211116855732617,
          0.1752558434761898,
          -0.3494999066799595,
          0.3454655641442165,
          -0.09776968361669747,
          0.15516005224223092,
          0.2291683061926383,
          -0.058336631842168356,
          -0.1556541157534922,
          -0.20778908538344357,
          -0.014623662791582262,
          -0.014770407159668554,
          -0.11066252198169799,
          0.16568514200333226,
          0.20737141453916844,
          -0.22262166051547938,
          0.009043850858265628,
          0.29960589719914393,
          -0.13696345777214522,
          0.027325244986471438,
          -0.2811259389310588,
          -0.566072443844529,
          0.24791615282784046
        ],
        [
          0.019367154016877684,
          -0.41968215535699127,
          0.25387788855552784,
          0.11488876858022636,
          -0.015405784934789711,
          -0.16227554076198042,
          -0.05507710690530307,
          -0.06993941928220847,
          0.2562366216153176,
          0.3500823141413565,
          0.31287151617752457,
          -0.09835901618774512,
          0.13746503130964544,
          -0.19717351390548327,
          -0.07702102208664988,
          -0.1585816838937231,
          0.1942908206987137,
          0.20476563774762274,
          0.3648705696645514,
          -0.1252650626005254,
          0.07863713490385181,
          -0.18630666714724678,
          -0.27398020755867486,
          0.2596134875911463
        ],
        [
          0.14563966719400567,
          -0.05623423595229768,
          -0.030383842711539384,
          0.27127897933248674,
          0.06953549932695016,
          -0.499757795871344,
          0.20179172802062514,
          -0.19294857415273803,
          0.22246604178252402,
          -0.3398041749780743,
          0.2920523915238641,
          -0.26649509185439013,
          -0.3218378288651713,
          -0.07747730730068941,
          -0.157862444885941,
          0.2599734947679443,
          0.27591319124707303,
          0.1785427266608036,
          0.020135765982760654,
          -0.4467737286704851,
          -0.39071549009307427,
          0.3305612080833135,
          0.20660149127460434,
          -0.3060163011668206
        ]
      ],
      "biases": [
        -0.14409448348597167,
        -0.06782487815514628,
        0.01558603485087232,
        -0.004994977381197666,
        -0.0014315346735178443,
        0.10515237958802702,
        0.09775583980165328,
        0.10181776204441617,
        0.10066653710341116,
        0.124585265574635,
        0.09305249359230265,
        -0.1107284326948254,
        0.06396430314313922,
        0.06488744098486185,
        0.051439712241823574,
        0.059231973070392734,
        -0.11425804571397356,
        -0.09685099136491697,
        -0.13577442430918285,
        -0.11155150113189177,
        -0.09063047308491184
      ]
    }
  ]
}