{
  "input_size": 34,
  "hidden_sizes": [
    24,
    24
  ],
  "output_size": 16,
  "layers": [
    {
      "weights": [
        [
          -0.18925464127424324,
          0.11751463568542553,
          0.1476746450167109,
          -0.019749407996751366,
          -0.24316434827641928,
          0.03643453023559677,
          -0.12018663797393835,
          -0.16478984696946083,
          -0.19767335890012633,
          -0.08474288024334738,
          -0.2264775676407515,
          -0.08909003240407387,
          0.024229484471960765,
          0.27512339280121145,
          -0.2871561852229139,
          0.3184886443763366,
          0.2175376160146206,
          0.15765554982945165,
          -0.0006989912675139565,
          -0.06632905318287383,
          0.08997260797846841,
          0.008601441620838287,
          0.15624540814126403,
          -0.04806866665217764,
          -0.17075082566554178,
          0.2437147703500142,
          -0.07053525148244386,
          -0.3016211907919265,
          0.23037951921082772,
          0.15250430065811751,
          0.12169747512306005,
          0.2773190995687453,
          0.10719876779777143,
          0.14758401522102638
        ],
        [
          0.05619653494210188,
          -0.1807734270547972,
          -0.30749707340982585,
          -0.320301493818994,
          0.022696060296028626,
          -0.3166291731158526,
          0.2544729521930533,
          0.20970932407769757,
          -0.28166662696225103,
          -0.07666997461771262,
          -0.015842884360404937,
          -0.2531416828034029,
          -0.09900121337430168,
          -0.04814913034555552,
          -0.047679910700479416,
          0.30006516847224,
          0.011661788243604494,
          0.13623194060670693,
          0.09533483667736634,
          -0.24984867126459218,
          0.1915717349823135,
          0.14657082031456228,
          -0.31932164057851925,
          0.23526379014955354,
          -0.12831352774918367,
          -0.00792290572581678,
          0.22285517924151083,
          0.23311338493694467,
          0.007882889155811486,
          -0.1069000177877283,
          -0.14523685085046947,
          -0.037416899687346704,
          -0.016169839116545133,
          -0.18307478658053475
        ],
        [
          -0.2024477825601239,
          0.22510809290693595,
          -0.17363978884603035,
          -0.04023542498917713,
          -0.1806661233007508,
          0.11077133807266065,
          -0.21276201296016684,
          0.323890668703412,
          -0.105492073902503,
          0.18512376312727516,
          -0.29767532984977413,
          0.05456766396934568,
          -0.0680041212504827,
          -0.14441825331371297,
          0.1488665471769256,
          0.11182106907764623,
          -0.06381422262804627,
          -0.23129154485313755,
          0.24642672320748188,
          -0.15336289568321093,
          -0.146468922394784,
          0.07617821770697873,
          0.3223358433530286,
          -0.20370518885266659,
          -0.07875325371179846,
          0.11068571867285605,
          0.14488841845694433,
          0.01678534444988669,
          0.3162456596658164,
          0.2577934072890396,
          0.11365715346609126,
          -0.19766065495885557,
          0.16016368519731808,
          -0.0008182770359937455
        ],
        [
          0.009519011289449963,
          -0.1379366032908034,
          0.055886409396559776,
          0.2520633622993918,
          0.13621365610652716,
          0.30424210384272465,
          -0.28853553259729264,
          -0.05059583956857436,
          -0.08831398810723746,
          0.2445776291561473,
          -0.2973848817656517,
          0.29075226541353527,
          0.2684611692784894,
          -0.06321344904133372,
          -0.3086980412583794,
          0.26290410673020237,
          0.28699095867119845,
          0.18375446986909535,
          -0.05867701753264783,
          -0.07593649284241186,
          0.25305546589604616,
          0.19862458905368544,
          0.29272820449147186,
          0.010601232469878305,
          -0.2604701592553979,
          -0.005468388734691201,
          -0.18824584394652658,
          -0.2930306728547971,
          0.16362512499986967,
          0.22328897716006263,
          -0.17293101630499735,
          -0.1769652282265626,
          0.14060617365143924,
          -0.005390926897257967
        ],
        [
          0.15690818863237319,
          -0.13069194488105493,
          0.006549720962349278,
          -0.0241973939409009,
          -0.29286304778386846,
          0.06327091433255312,
          -0.006290766889032592,
          -0.10087745284028957,
          0.2269278082100826,
          -0.304535411583164,
          0.09605673327931614,
          0.19123999659962826,
          0.2391089118591662,
          -0.07094770450654793,
          -0.16668595971079342,
          -0.1723999319992878,
          0.04976688360621638,
          0.07710829759999244,
          -0.09066132458099407,
          0.1817056695065789,
          0.1889114650680629,
          0.019376936238450812,
          -0.16361401806916256,
          -0.13531142540362207,
          0.04601954516033378,
          -0.12462688146646768,
          0.1647952009623571,
          -0.29155527301016676,
          0.14939900132151396,
          0.10681592519631046,
          -0.23093014016134897,
          0.298100141163287,
          -0.20033362944475136,
          0.26897973512732043
        ],
        [
          0.2658690974879029,
          -0.21051519204555447,
          -0.2977760489580903,
          -0.09649200153162994,
          0.2530036008903726,
          -0.062269207782942225,
          0.14157757275873498,
          -0.16996177146687083,
          -0.2433316709014026,
          -0.09705355745200653,
          -0.18988608735722243,
          -0.14272477080099083,
          0.29239526932518145,
          0.31433930479907035,
          0.013153657705657655,
          -0.1446723282149074,
          -0.010215224467060167,
          -0.05421047167691159,
          -0.18807734845805116,
          -0.008775419392903694,
          0.05538454711153363,
          -0.11326915360831934,
          0.13190886899999446,
          -0.25524558262732266,
          0.2115773452397094,
          0.019963354677330646,
          -0.1440121349191398,
          0.22243919864896972,
          0.11411235070059439,
          0.019722354160551396,
          -0.09020708634900763,
          -0.1526929339233454,
          0.09800407953837315,
          -0.22379138189398035
        ],
        [
          -0.06743300387748966,
          0.22863765398345848,
          0.29174401617920587,
          0.25029527087943676,
          0.2221027735952298,
          -0.24469363940239142,
          -0.2720924009722049,
          -0.2814540060606314,
          -0.15553379351529992,
          -0.005669156719682554,
          0.21892357944952914,
          -0.11885889055431655,
          0.010285024568893438,
          0.2215816534808885,
          -0.017794627154070652,
          0.25564215421811587,
          0.11643540128886647,
          -0.24626224646310654,
          -0.26630719082061777,
          -0.2258143508306148,
          -0.1960890603814964,
          -0.13721948158789843,
          0.2999173397763599,
          -0.0020803700371979307,
          -0.05790144314863003,
          -0.0986495902092878,
          -0.15872949187833593,
          0.14311036623921625,
          0.23371278726927155,
          -0.27295908437734384,
          -0.21946923238529215,
          0.05703068939230482,
          0.32519087598723634,
          -0.3008223040604471
        ],
        [
          0.012414476113418825,
          0.13751860346349226,
          -0.05281338950487175,
          0.3295070460950753,
          -0.07988818561452248,
          0.23304866114949227,
          0.26401850744874655,
          -0.055097588496617486,
          -0.09650986145326979,
          -0.13521728258334675,
          -0.2905007411095676,
          0.2221394078857692,
          0.2683674157948259,
          -0.16737429238890295,
          0.21817289911461243,
          -0.18581701372854614,
          -0.2939888609611525,
          0.1441939264498036,
          0.050559430246167714,
          0.2803931950077123,
          -0.037659588206788434,
          -0.06666598781083324,
          0.21728729624029997,
          0.16757707744056083,
          -0.14272091685640692,
          0.03696103806618508,
          0.24060072863233067,
          0.21285786577322835,
          0.2829055540654479,
          0.22398552663593568,
          0.2582927221952774,
          -0.09947194730039952,
          0.3414138566422867,
          0.19459841463221428
        ],
        [
          -0.19147385177071996,
          -0.0271988819497386,
          0.17010902460819805,
          0.3342096064101372,
          -0.20995599206907578,
          0.24046909055394977,
          0.14935911294496104,
          0.1399929834002121,
          -0.27005667976449255,
          0.04720467057090031,
          -0.045564726386301546,
          0.03149393637736291,
          -0.08871140861921288,
          0.4768696765186953,
          0.292425630008118,
          -0.014725423898827783,
          -0.28260772681574664,
          0.06859911440731692,
          0.22265053619798092,
          -0.013311393552969425,
          -0.25593214149062654,
          -0.19993306112354478,
          0.15865920758975915,
          0.218184009649097,
          0.25693597247701927,
          -0.22265066899210972,
          -0.07665776788807309,
          0.10451785990425229,
          -0.1056210622440074,
          0.03739808148034101,
          0.21090666216870824,
          -0.18810539868839032,
          -0.0016941849283551454,
          0.2670676651508296
        ],
        [
          -0.1259318660683553,
          -0.26602064210097864,
          0.1152779832416555,
          -0.19438130822580352,
          0.1562708253647439,
          -0.00852265741199451,
          -0.3129314891955181,
          -0.21459200657387226,
          0.06791985385872439,
          -0.15783736520398645,
          -0.2058900987762977,
          0.22557234291611203,
          -0.1409757139639443,
          -0.3055328365783236,
          0.005229123543547562,
          0.3246774915582308,
          0.18193028129567418,
          0.0053280662693105186,
          0.2980599651384808,
          0.2758641126381904,
          -0.16542580331423645,
          -0.2549014732706122,
          0.16342893917128318,
          0.02168339391195226,
          -0.24947766002732608,
          0.012001489193879007,
          0.017186730371070966,
          0.08202488510498102,
          0.0872604695059601,
          0.27599031957680115,
          0.15571265982828222,
          -0.21510726187834658,
          0.007406217151353998,
          -0.14850468342350126
        ],
        [
          0.1974596172700981,
          -0.19696725289833317,
          0.10697863545493973,
          0.04473838808486838,
          -0.2298003423053316,
          -0.162628281457236,
          0.2957540873210762,
          0.19162184057678355,
          0.09162499999288787,
          0.07441070990176106,
          0.06188471965431517,
          -0.29480421035985704,
          0.180611873459538,
          -0.019315918757478946,
          -0.22660059783967376,
          -0.17284915483866414,
          0.20111091285725818,
          -0.09911843279539859,
          -0.07772334484923515,
          -0.22516662291720188,
          -0.09854265303004435,
          -0.047073091533258685,
          -0.21894350989051964,
          0.045299740614916914,
          -0.06169886069826033,
          -0.09638006835184458,
          0.17073057927841187,
          0.22136838827830863,
          -0.07674149805601067,
          0.004622023872097328,
          -0.10518009699779149,
          0.0017235609128225166,
          0.11688781670964536,
          -0.31388568310575005
        ],
        [
          0.301741919274165,
          -0.1711614988819284,
          0.010903639181150934,
          0.023529682211753396,
          -0.11216863182223213,
          0.049310576594829285,
          0.18248556910057503,
          0.2192791076824381,
          0.10309564559934746,
          0.14026606132985975,
          -0.2878434341997227,
          0.2974303617060206,
          -0.238358671998597,
          0.10811489385183044,
          -0.3385441683918349,
          -0.11589706319084313,
          -0.1205444214813193,
          0.22213850090564466,
          0.22225570577387607,
          0.2656193367509041,
          -0.007017656476317317,
          0.2648720843723051,
          0.30532912596136114,
          -0.10519406267599897,
          -0.21905362459671168,
          -0.18170675761925004,
          -0.07340690573909252,
          -0.10966599437870757,
          -0.3110285018025402,
          0.2028476273975336,
          -0.3285399165297645,
          0.1738468615108612,
          0.047053807780691514,
          0.2899317281686623
        ],
        [
          -0.34747674926793565,
          0.2904934192472843,
          -0.08256642110935235,
          0.16480674607002807,
          -0.16703594640088434,
          -0.12711131000318626,
          0.267978823510744,
          -0.1994855079886691,
          -0.17121317970878636,
          -0.3037510445090394,
          0.10622918501934452,
          -0.1340934919234797,
          0.07624601070015308,
          0.19683885800255638,
          -0.05870944361435591,
          -0.08317067754206489,
          -0.11430744682091114,
          0.21357021154667502,
          0.13725687008851953,
          -0.19395652540500768,
          -0.07126345317918727,
          0.08448120311987067,
          0.20938488923907897,
          0.2959393734706393,
          0.15763640682034824,
          0.10922566725033414,
          0.052578034866782954,
          0.039197295098821965,
          -0.2419295427480766,
          -0.043561624041472166,
          -0.04403843295567223,
          0.08120781140175277,
          0.027526006603601272,
          -0.3397879136941229
        ],
        [
          0.38823501787077114,
          0.10917663212360561,
          0.21004079510553603,
          -0.14068942143160437,
          -0.07276263363727144,
          0.20540073225704866,
          -0.039335912909910835,
          0.1682753982507564,
          0.3151248346282189,
          0.0046240521195851335,
          -0.021209833377074744,
          0.01640762949240618,
          -0.08015379202837852,
          0.29224252424143043,
          0.27142235794280256,
          0.1815831654360828,
          -0.22595905081624346,
          0.2235592347941124,
          0.3130384055907733,
          -0.20650466775300516,
          -0.19024098742177983,
          -0.19278591197789322,
          -0.001325942076447568,
          -0.12487725207681889,
          0.0034884664304186265,
          0.29353713120932423,
          -0.036871838566881275,
          -0.19057571104272852,
          -0.15946404055750513,
          -0.14239086465918074,
          0.1642135325229861,
          -0.12684197245977252,
          0.4666293537940536,
          0.02947045600149673
        ],
        [
          0.1937188243661594,
          0.05212452405366989,
          0.14553882274230498,
          -0.05500634126119064,
          0.039728171186820135,
          0.260929100182025,
          0.13604509212104293,
          0.06749438490714162,
          0.25298921488544945,
          0.049223380721098685,
          0.2944597818500613,
          0.037521721828252405,
          0.08949245707444937,
          -0.010515649716997498,
          -0.028044654556122726,
          0.29050356341152356,
          -0.07716304861019202,
          0.34257954007854186,
          -0.07699939525170381,
          0.2439656433245371,
          -0.06270301401919602,
          -0.14542874736725991,
          -0.13701265847475003,
          0.2868166150009189,
          0.12221641285339785,
          0.08377215682113903,
          0.2867626260510069,
          0.005275874260901274,
          0.1779582123592796,
          0.13959182171958057,
          -0.07390080571226142,
          -0.13485407208586037,
          -0.23862722198630357,
          0.281703965463893
        ],
        [
          -0.26494788110989,
          -0.02714622744870721,
          -0.13750888044637408,
          0.1507437679566527,
          -0.004260525027306795,
          0.2406946554546496,
          0.022271329569031863,
          0.03819612922611876,
          -0.15318236134733204,
          -0.16800866395951872,
          0.012414008593124312,
          0.2505182113858123,
          -0.1366226987198454,
          0.11618007570027639,
          -0.08384683358442942,
          0.16738040191527398,
          0.0692226738185723,
          0.32809232932194243,
          0.036285468568941416,
          0.24186256702203557,
          -0.13093122884667066,
          0.09806420943607723,
          -0.21488940461141257,
          0.15817987105558814,
          0.2645922259992936,
          -0.24406703751536563,
          -0.24898598756130813,
          -0.3187142118359724,
          0.05114702196835892,
          -0.282857165239606,
          0.040550263737883036,
          0.009025701898108677,
          -0.15872369087123192,
          0.19515897522306594
        ],
        [
          -0.20477740766488134,
          -0.23122676743675707,
          0.07845345018643671,
          -0.2649365437335735,
          0.28263490938585684,
          0.08014636180668136,
          0.17291312622043745,
          0.25681522288967495,
          0.19710364384346604,
          -0.28137911418384115,
          -0.11696019102419908,
          -0.02088601033943908,
          -0.12022258005310746,
          -0.3179865735594003,
          0.14055257405580684,
          -0.21432162831068483,
          0.029813795254165387,
          -0.12113654338308599,
          0.24474298433731703,
          -0.14977096153585384,
          0.2513924147979739,
          0.20088775476462126,
          0.04460179445536666,
          -0.05912095589461938,
          -0.3186318479606979,
          -0.1905864618917179,
          -0.17089108367935577,
          -0.1561778348554567,
          -0.08694428115786641,
          -0.07513080987740109,
          0.13204543764450727,
          0.18006147424156174,
          0.09815024529877517,
          0.19802862021896606
        ],
        [
          0.001885887421651357,
          0.14570217001122085,
          0.37509311398359785,
          0.3215489946791859,
          0.26388116894915087,
          0.07570087498529217,
          0.23339356513220333,
          -0.25998277071951786,
          -0.08757305039721716,
          -0.267631933865062,
          -0.2957934619273114,
          0.049095241479369674,
          0.03352431966192325,
          -0.21311648420592283,
          0.05392468468739277,
          0.26707132393321187,
          -0.13947037971839493,
          -0.06705959181877912,
          -0.10084017363325491,
          -0.2480579271013827,
          0.2372824117495348,
          0.21099200192090592,
          -0.20238235439795202,
          0.04454767678847505,
          0.057675477036393016,
          0.22483717567371347,
          0.18910652722333116,
          -0.31296782715802335,
          -0.2394740519297027,
          0.06381576965334781,
          -0.02957817149647489,
          -0.12225028373757786,
          0.3036936827990679,
          -0.2993823141075225
        ],
        [
          0.1936036903456292,
          0.20240770108519351,
          0.18811377316484282,
          -0.01889659715376424,
          0.020215626778056724,
          -0.28413358118145043,
          0.13747896504452248,
          -0.22300254388388177,
          -0.1965325796650093,
          0.0959821838071367,
          0.2819790358197124,
          -0.1938452909434088,
          0.04928575999576507,
          -0.1250746731026035,
          -0.21208291910331412,
          0.22523402401270398,
          0.21145547941262074,
          0.29592174546578137,
          0.01425061842216301,
          0.1562160161867053,
          0.32381599910504205,
          -0.13780784616834665,
          0.18151651861602183,
          0.08880200395708107,
          0.3146342415242504,
          0.02761484744034659,
          0.26788405273234117,
          -0.04388670867825924,
          0.1066778208309323,
          0.24000995802101074,
          -0.227564108013674,
          0.08485036294259088,
          -0.0407046132102724,
          -0.14692757211850216
        ],
        [
          -0.18265176728860213,
          -0.02665937979604378,
          -0.13988993244792405,
          0.028917738061438488,
          0.050322157590986474,
          -0.012997139933582466,
          0.11149818982695475,
          0.19068594569992922,
          -0.04055235821592853,
          0.2215107964658,
          -0.09377592295001719,
          0.07661425371587849,
          0.0598222938444614,
          0.10170040679529527,
          -0.006011794190345817,
          0.030491282027140812,
          -0.03441399561602544,
          -0.23222093540346034,
          0.271957042277252,
          0.1911563134758032,
          -0.16531223593765748,
          0.23191122899534167,
          -0.2600423203042091,
          0.20850619775293594,
          0.30048020791564733,
          0.10765509130673534,
          -0.005773578839839651,
          0.04186707082944829,
          -0.3081530539202336,
          -0.040559529056708704,
          0.21875108854856667,
          0.05934183572725651,
          0.013193607965401399,
          -0.3108647475598911
        ],
        [
          -0.17364063462051027,
          0.24710149924719962,
          -0.09783779544141102,
          -0.24756334580797926,
          0.20999627899724663,
          -0.30496104531673224,
          -0.19471155227363743,
          0.30000110991195905,
          -0.11516103687639842,
          -0.2766100982067723,
          0.22551256318431387,
          0.0749092741232315,
          -0.215220956069709,
          -0.29387182761868696,
          -0.09259673131575608,
          0.09858961214620542,
          -0.0019492445783829695,
          -0.15722610080259403,
          0.06381983938100999,
          -0.2205292040305239,
          0.21470359131170555,
          0.029296282297211738,
          -0.21645896343801618,
          -0.020405497864264297,
          0.1024033649981728,
          0.017685876538928235,
          -0.2001653224626236,
          0.08016302985741407,
          -0.10709513186826483,
          -0.27007135488939044,
          0.31107378810949005,
          0.16180269966925037,
          -0.035924463845923224,
          -0.04387163971346539
        ],
        [
          -0.006332138543413992,
          0.35545174968482973,
          0.5173493861329413,
          0.30591138933876255,
          -0.20240738806689268,
          -0.265787028347658,
          0.14743003074965072,
          0.28483092126373627,
          -0.1027889610365625,
          0.2120255767173218,
          -0.25803450600185973,
          0.11985388939008682,
          -0.26705070645358486,
          0.24487809092546606,
          0.0728435323683271,
          0.044001372622908465,
          0.29655061367297647,
          -0.02881249781084502,
          0.08598174852688592,
          0.22355127735162916,
          -0.07244791871826646,
          -0.06146529934552638,
          0.16077927539211886,
          -0.06727050649933784,
          0.3772931970305276,
          0.21491387012832644,
          -0.016474010014737046,
          0.2606824664452071,
          -0.23174039972048305,
          0.30943487454837887,
          0.20614463463403288,
          0.07936742500295975,
          0.3596703178538019,
          -0.08706100879343157
        ],
        [
          -0.19717096484504137,
          0.1992304187021807,
          -0.2937182458073219,
          0.090980633026664,
          -0.0716323479684097,
          -0.1253092895789119,
          -0.19756681539123258,
          -0.07208598180626744,
          -0.015696337967842824,
          0.2883827766430381,
          -0.021181195151622347,
          -0.13260294267258485,
          0.21080304108633086,
          -0.25669227086570734,
          0.13336498205254843,
          0.054904744933922486,
          -0.13714063053835449,
          -0.24040277813732444,
          -0.019302526788811385,
          -0.019597980781143505,
          -0.31359604044946837,
          -0.27325700803500047,
          -0.24766140587242366,
          -0.3133648120858616,
          0.005085214357550788,
          -0.2588404365506082,
          0.22881192550967336,
          -0.13771054763041457,
          0.3174213434953571,
          -0.2540013004586539,
          0.30632601291740585,
          0.2378941019631355,
          0.14530671215664032,
          -0.25554889090653554
        ],
        [
          -0.1667462822776672,
          0.27693405731467285,
          -0.22367661111700543,
          -0.28731336235692717,
          0.012360032594319621,
          -0.06976869046945315,
          -0.1504615276208507,
          0.0589508671929587,
          -0.03703777925418677,
          -0.30030460669836123,
          -0.16694876456469862,
          0.07535388544637622,
          0.3090829499671275,
          -0.1215051454870048,
          -0.016841188766307438,
          -0.3157663317687474,
          0.2721876701599808,
          0.22811804022199114,
          -0.006691904805220899,
          -0.19484021664201523,
          0.24779882071877757,
          -0.19662230545505435,
          0.2842903919347568,
          0.2818581982858124,
          0.1332468318865077,
          0.036980580949414754,
          -0.0024724726886671813,
          0.15359237602179668,
          -0.21820695109923416,
          0.2575294927315504,
          0.04346360244038254,
          -0.1405183355774593,
          -0.027181140729536174,
          0.2957747445777711
        ]
      ],
      "biases": [
        0.04676879147746659,
        -0.00901148611150214,
        0.011612685675737752,
        -0.021169705538982835,
        -0.06668348948555854,
        0.03217471542094704,
        0.015730006007369506,
        0.17997345591754108,
        0.24505821412585624,
        0.006794320449475052,
        -0.018976157602074415,
        -0.018474207389941998,
        -0.07857102750319803,
        0.2649838644152225,
        0.0631193023312147,
        0.0002599261244809755,
        -0.070684122974853,
        0.033893467211922435,
        0.04235330388537597,
        -0.013370689086167184,
        0.01622383477571482,
        0.2577627200173689,
        0.015422215390517309,
        0.009200132344376671
      ]
    },
    {
      "weights": [
        [
          0.13111755236366787,
          0.3088370649756845,
          -0.1528259390567958,
          -0.02723246966259461,
          -0.2504758590458889,
          -0.13204035989984236,
          0.05330049121993048,
          0.3008439613039292,
          -0.032995492689992925,
          0.07676033203554049,
          -0.32033576421462234,
          -0.1836027123274351,
          0.030511564840942976,
          -0.350744767615619,
          -0.1922806901537591,
          0.34927552060901523,
          -0.06976814605649863,
          0.14694161878472972,
          0.2703843152000486,
          0.18846216481309858,
          -0.2995211787706296,
          -0.12896804658639902,
          -0.22905936911414768,
          0.04354450542198033
        ],
        [
          -0.24766800332170305,
          -0.26300772958342095,
          0.3477356500197301,
          0.19269912733864797,
          -0.19532280089773213,
          -0.16673472859143837,
          0.029440770009172928,
          -0.22877156109964614,
          0.11777375890809555,
          0.0007976090863782633,
          -0.2878342541064053,
          0.1731113481351382,
          -0.24629034726818008,
          0.24376551207494535,
          -0.25054843233480417,
          0.32183651913335937,
          0.15944743494408595,
          -0.22398860364072723,
          0.2532460993662868,
          0.02576244770019314,
          0.07141478305185332,
          0.35134040151101664,
          0.10775627487788295,
          -0.05342210548683661
        ],
        [
          -0.19490108791568272,
          0.12461869081818176,
          0.0816232336914646,
          0.12698263660818537,
          -0.2986964900935398,
          -0.2087578652976174,
          -0.32651315289312227,
          0.1638147900309915,
          -0.10249297658393917,
          0.3448959116103458,
          0.014049922293195105,
          -0.20710726535429586,
          0.203839972358558,
          0.15650324361182844,
          -0.05963039877818649,
          -0.334077343647343,
          0.11114303207175005,
          -0.28814246849163644,
          0.1974976178914484,
          0.18466589793730148,
          -0.13058941958695955,
          -0.05621580814257941,
          0.26669284052854625,
          -0.31083676816886135
        ],
        [
          -0.0017021888147395114,
          -0.22440082220407387,
          0.29967072469498485,
          0.2892964428042324,
          -0.1661333217244461,
          -0.10029932929535074,
          0.23032489271929235,
          0.29092190116795985,
          0.1476554203763868,
          0.0985869230108676,
          0.25645839995261016,
          -0.24023472267957952,
          -0.17226129543636717,
          -0.3442311145573874,
          0.31019814582402006,
          -0.03551488448160917,
          -0.3403730306031351,
          -0.042600754163184734,
          0.18582802800178283,
          -0.12766090076736905,
          -0.2029972724530989,
          -0.24639281550882294,
          -0.32892524514965293,
          0.08297371628544796
        ],
        [
          0.31185146896267724,
          0.21011915002804474,
          0.19872076363156052,
          -0.22165578353407547,
          -0.2456293619801386,
          -0.022465800888497898,
          -0.2593399857464706,
          0.3682940898421058,
          0.3883219214572456,
          -0.020381580254958245,
          -0.15015415795599507,
          -0.2781829553201304,
          -0.2034256525144402,
          0.46323960115135765,
          0.38535688041230953,
          -0.1664292402365001,
          -0.28342793244769826,
          0.4574971190330214,
          0.2706606906456283,
          0.05072706801214984,
          -0.018300984695999806,
          0.43011076349822386,
          0.18896980728887772,
          -0.10913924745065118
        ],
        [
          0.07301369871437409,
          -0.23407544737625402,
          -0.19169161455606767,
          0.09223070877287222,
          0.34888535061374293,
          0.05948306923388699,
          -0.06600807559239857,
          0.26941456696601856,
          0.23327756760361257,
          -0.15392450497217558,
          0.13380398602481242,
          -0.13188410965589137,
          -0.025401517947161376,
          0.3159198724865652,
          -0.2733854168725434,
          -0.07711973786118131,
          -0.03934637447964752,
          -0.2204148111823055,
          -0.18104771115221946,
          0.1456705032228821,
          -0.3299080920904422,
          -0.055355139197267304,
          0.3076193474809121,
          -0.10647426238946105
        ],
        [
          0.26703095311720937,
          0.20058349616661833,
          -0.26710227606738207,
          0.01866856993629649,
          -0.07648244521419942,
          -0.11510183720034163,
          -0.2705703434925257,
          -0.3058654087765737,
          -0.10673684586723188,
          0.21688678572195655,
          0.06624038897936325,
          -0.240100289417856,
          -0.13104632022060844,
          -0.09475173866726991,
          -0.1843494978315618,
          0.32931118773883783,
          0.3030516222633545,
          -0.10796965941675755,
          -0.3380050243771934,
          0.15005639765119375,
          -0.2346461678378786,
          -0.3007642933948114,
          -0.03258887401555176,
          -0.0022381230879647183
        ],
        [
          -0.20005486141451825,
          0.02990679833237023,
          0.10483791618122242,
          -0.08225334180315556,
          -0.31234626551392874,
          0.2183959272959593,
          0.3898383201839737,
          0.15465240881582054,
          0.0916897581302347,
          -0.30125934139659577,
          0.3190743292389219,
          -0.2981140222369412,
          -0.12932909521707664,
          0.10633548591633825,
          -0.2135543687505842,
          0.07615087337490183,
          0.3113553182509028,
          0.010748765156638548,
          -0.102559344046079,
          0.08907666453312486,
          -0.06194735196148668,
          0.3032220248370124,
          0.31671251530059047,
          0.3437560348499149
        ],
        [
          0.2848699681513826,
          -0.19153817815498553,
          -0.2847879875211276,
          0.24994039105095384,
          0.0013758859495894274,
          0.137325429431685,
          0.11556453409763592,
          0.1557651134134911,
          0.1017050884079904,
          -0.2902421047493003,
          0.19078882990862578,
          0.2788382661526183,
          0.19834699644768106,
          -0.10350700249212444,
          0.2782913477159142,
          -0.29102570640165587,
          0.24952316323242626,
          0.0018852292194345955,
          -0.02133643496210378,
          -0.04748171878619921,
          -0.14623869718775834,
          0.01262793702276424,
          0.07561694783655826,
          0.03611538118002893
        ],
        [
          -0.024078138028532346,
          -0.1561140165713218,
          -0.03862034382288904,
          0.14782602250842752,
          0.35299101138601013,
          -0.3398371545376324,
          -0.20863939816276453,
          0.3803165837365505,
          -0.11660645880486789,
          0.26175999102736824,
          -0.1916445984179446,
          0.28705674120096863,
          -0.21032695906939317,
          0.01584500937183699,
          0.0357599934578515,
          0.02648512988026072,
          -0.1007498306876286,
          -0.18676708642575926,
          -0.08415058023761125,
          0.15257327025173062,
          -0.10799196295271926,
          0.12009035595783699,
          -0.12131512143086938,
          -0.08434227899449459
        ],
        [
          -0.2900269888504953,
          -0.194077525809567,
          0.32162747623057614,
          0.10066565274812313,
          0.2928630971175975,
          0.20424636953526232,
          -0.0028088984745961026,
          0.2116937158425384,
          0.043151686536782585,
          0.1400667937212348,
          -0.20397539950716947,
          0.3057127798071481,
          0.2725891406357435,
          0.09149908892139856,
          -0.0536120073444925,
          -0.13605696906186918,
          -0.22218557513401135,
          0.343885919245465,
          0.1446622951546103,
          -0.26451997760686274,
          0.03604922168360547,
          -0.2741183539626607,
          -0.23001175589486533,
          -0.04396920621506575
        ],
        [
          -0.2231953803063528,
          0.061381750782558246,
          0.22806449303830037,
          0.3423392038598983,
          -0.22944784817949343,
          -0.1347920694951556,
          0.2779233330568592,
          -0.18874116395945087,
          0.1697000321149111,
          0.2561068924608617,
          0.2603894888630954,
          -0.02782321726101366,
          0.1850839881082285,
          -0.24102183747436642,
          -0.3180601535727439,
          0.18735611244766304,
          0.07192912129805859,
          -0.22828164910399723,
          -0.056408150115918924,
          -0.2644213831648805,
          0.006160146702428379,
          -0.02362329397255729,
          0.3395614222874762,
          0.17388127930293767
        ],
        [
          -0.18324491973245458,
          -0.3437936279618267,
          0.17057556396220125,
          -0.309729839569962,
          0.1779842309489771,
          -0.1910375554465149,
          0.29750665169803536,
          -0.1653299446887577,
          -0.18300602302531155,
          0.1762016757064982,
          0.06106064692444341,
          0.0866575050910209,
          0.1675510396434349,
          0.019404245918512267,
          0.3107680680233252,
          0.10386628211525847,
          0.001886381619780922,
          -0.29729892425196863,
          0.019986258859074072,
          -0.19548071665606456,
          -0.281726443168041,
          0.2876918409121408,
          0.26432288404580795,
          0.32124048328848553
        ],
        [
          0.24796125740076327,
          -0.0641187359154659,
          -0.10730285714938549,
          0.23137450661823444,
          -0.12300145919180844,
          0.3375676762211928,
          0.4116252874121087,
          0.41090786491367864,
          0.2879786330647271,
          0.27349085188422884,
          -0.021330450605885645,
          -0.09399523997876762,
          -0.23704414608747562,
          0.28340640583346605,
          -0.053944015912593485,
          0.28282223133619805,
          -0.2738907795934796,
          -0.17750391264096801,
          0.2119467607873274,
          -0.3098454271097513,
          0.2871229907460845,
          0.17783924273970825,
          0.0567654600701648,
          0.09861768389059662
        ],
        [
          -0.20319199719815612,
          0.2921705461208085,
          -0.14778891622638488,
          0.11645541246195983,
          -0.23333176220638485,
          -0.09091138734243116,
          0.21571669442607505,
          0.24856974206432972,
          -0.2540302950784609,
          0.2031289095118006,
          -0.21669625021859934,
          0.08266906772840826,
          -0.2276185632717467,
          -0.16596199495711433,
          0.30073175344934194,
          -0.09534215794136265,
          0.12962376462923003,
          -0.16357981140489172,
          0.2932375150849045,
          0.3372530896246883,
          -0.044744304252941784,
          0.2850184280605327,
          0.28162782216310184,
          -0.031046640446278327
        ],
        [
          0.17397389491278087,
          0.16981207831984738,
          0.06194918278853911,
          0.07656152444371571,
          -0.1386446749317579,
          -0.2177069757689124,
          -0.25546455988537303,
          0.1522142226200555,
          -0.18719530669310228,
          0.20515917321036856,
          -0.20568102920532877,
          0.060552063676956334,
          -0.012552550406782154,
          -0.24061713670056803,
          0.21379152178338373,
          0.1577859901167441,
          0.14545356268085033,
          0.2556622659523965,
          -0.04498756867613191,
          -0.2842157667427036,
          0.024176574132269275,
          0.18381551845892125,
          0.23329305769113484,
          -0.195920303849128
        ],
        [
          0.2380644925812632,
          -0.11328386449778875,
          -0.32692913664485945,
          0.2710609113803199,
          0.3011097568926253,
          0.169959219825132,
          0.1571333654747411,
          0.32322992448614907,
          0.059748539173615875,
          0.24891469542046255,
          -0.28131446165394774,
          -0.3208661370280426,
          -0.0690618852781252,
          0.06417856472676896,
          -0.25076041239059266,
          0.2883863969656373,
          -0.06032747316963348,
          -0.2276055564749556,
          -0.029646091873043602,
          0.2856316994884126,
          -0.2032048967141007,
          0.179745209003475,
          -0.3579253393194269,
          -0.12843730664270392
        ],
        [
          -0.2537234641233953,
          0.0774300319011151,
          0.129740934227438,
          0.07647624995421524,
          0.3029941487143009,
          0.15545886095483671,
          0.16630413973906216,
          0.2512500279305251,
          -0.2243885811504565,
          -0.31439199642328464,
          0.3431147665384806,
          -0.2180138667252463,
          0.33170730900199963,
          0.2554945906960068,
          0.30553659733546984,
          0.09294351553398192,
          -0.15104811907360277,
          -0.08258934524425908,
          -0.18138061088977214,
          0.017668889276539076,
          0.20381626774942405,
          -0.2508381803105522,
          0.050744820594224686,
          -0.18098308136204455
        ],
        [
          -0.3073649408510154,
          0.20192108043412962,
          -0.2964030244078979,
          -0.25781244649669266,
          -0.23735758599040438,
          -0.2291690443592667,
          -0.20274756831909174,
          -0.12808291567884278,
          0.4177369282861271,
          0.05440389916321947,
          -0.053259064876669114,
          0.2680516939088609,
          -0.2143227413126362,
          0.2679086063161276,
          0.39879290572181986,
          0.302466980578032,
          -0.2528973578122672,
          0.004986776562899908,
          0.28670497799446526,
          -0.18100177942325277,
          0.15286984893794706,
          0.486012560431312,
          -0.32351466769332865,
          -0.09678125969601598
        ],
        [
          -0.25825744789704663,
          -0.18320729950659984,
          -0.14896467162609026,
          0.24184890447976012,
          0.3184211682955834,
          -0.34200506672385655,
          0.07606648398241991,
          0.11486773031531318,
          0.1873194965837952,
          0.10432608022790751,
          0.23604713030375576,
          -0.09121165302450959,
          -0.01060415385201525,
          -0.08275393508223645,
          0.04723546287531392,
          -0.1471351085774606,
          -0.2222856756222482,
          -0.048377538202634934,
          0.03157115693634401,
          -0.17142816652394033,
          -0.22908274400632006,
          -0.18784972137500205,
          0.000362448132968459,
          0.225755176182162
        ],
        [
          0.2852093460423041,
          -0.3285851188808463,
          -0.07124506541074166,
          -0.08985405718782996,
          0.008805469098090473,
          -0.17968055667524305,
          -0.33486229614169183,
          -0.027395715118254463,
          0.2579581479207791,
          -0.20127429861315327,
          -0.23790461906954719,
          0.306976890394779,
          -0.03372248606482147,
          -0.072172478267283,
          0.10535229601406078,
          -0.186800689866319,
          0.12937187462065028,
          -0.09626904022269349,
          0.2487136009165929,
          0.05554418290730517,
          -0.15293329288602273,
          -0.19755084571924272,
          0.28384005819268576,
          0.1377454868228581
        ],
        [
          -0.1974047586120693,
          0.11608709002697701,
          -0.016042747522851557,
          0.3644483185317334,
          -0.09315943715350843,
          -0.2783585061410144,
          0.0653663075580934,
          0.17365438393821392,
          0.1972870836859529,
          -0.2824176922297356,
          -0.02015816092991652,
          0.3325441358255305,
          0.13710138142329345,
          -0.287032882422949,
          0.3125531527709611,
          0.32497165881110784,
          -0.012730934056799571,
          0.3420860299812307,
          0.24371463051824746,
          -0.0008914544813100067,
          -0.3000543264642334,
          0.16369522249439009,
          -0.06802525452935608,
          -0.06052668522317027
        ],
        [
          -0.022853374984819992,
          -0.15033823991017992,
          -0.007414627167647684,
          0.3192766272625624,
          0.09192475318503487,
          -0.23656499542219175,
          -0.14867679825466507,
          0.27309271643444316,
          -0.137573125378098,
          0.27538178043958034,
          0.2732108964542207,
          -0.26477413896721685,
          0.07778327458744505,
          0.2870291905337625,
          0.18841939025661456,
          -0.2441877268563507,
          -0.13023167389522095,
          -0.13729821954014,
          -0.025192806850862767,
          0.34927704992543396,
          0.0014366596883393908,
          0.13487110572345645,
          0.08063613357384142,
          -0.057792376572391314
        ],
        [
          -0.0931580232576767,
          -0.05366734696517787,
          0.06906072792863291,
          -0.0661734624142365,
          -0.23776059487691745,
          -0.13058973810444194,
          0.007413365982029477,
          -0.005399096167753137,
          -0.35616412323011737,
          -0.031410318401390275,
          0.15059585503418602,
          0.33861035036550974,
          -0.12776500965636112,
          -0.2059140250929089,
          0.2499038932485489,
          0.24798608726624835,
          0.08372324722249065,
          0.20399992143793885,
          -0.10312636834225825,
          -0.19619736202169671,
          -0.07969022375401547,
          0.06788813176317068,
          -0.1725340988066387,
          -0.13353641280074818
        ]
      ],
      "biases": [
        -0.024558865588655384,
        -0.011125644669901912,
        -0.05279572044001477,
        0.006784472644530692,
        0.36567393517250524,
        0.11496647831618975,
        0.000763597423491326,
        0.21649588763455285,
        -0.0015306842545858928,
        0.02650674572453214,
        -0.018660161694477966,
        -0.026536082010970487,
        0.04296891587793459,
        0.26155385040413953,
        -0.05318590890015764,
        -0.0526838287776741,
        0.041422048580774355,
        -0.022932487959595446,
        0.2307108644992622,
        -0.053453701127169774,
        -0.009225485051966834,
        0.018163027497293555,
        0.04695930025729226,
        -0.03814479249489633
      ]
    },
    {
      "weights": [
        [
          0.3370762541739215,
          -0.25201234160254055,
          0.3326283837414308,
          0.11137422609581586,
          -0.5860464236710781,
          0.23245731231764327,
          -0.20184991864832338,
          -0.08822300757538659,
          -0.2651104222871131,
          -0.2957796991006355,
          0.08789689461587902,
          0.3291359077390174,
          -0.293489607038516,
          -0.4063440741103543,
          0.09901221031625097,
          0.24579038169281817,
          0.3354885930284533,
          0.06307229513490768,
          -0.07123737591299721,
          -0.2195419111773732,
          0.012648958284091686,
          0.22256139471419267,
          -0.4697514180230268,
          0.3713069746396533
        ],
        [
          0.38710130068891585,
          -0.3663584853080304,
          0.052258182425273574,
          0.15018048006708817,
          -0.030280502368603805,
          -0.05587995708640071,
          -0.29486009118669615,
          -0.34685501763472304,
          0.34284405535646106,
          -0.3426447263122813,
          0.3005198195658092,
          0.11284385755887628,
          -0.2290626974632496,
          -0.2520542402778559,
          -0.28860433444359374,
          -0.35432330145032986,
          -0.09966117240730728,
          -0.11231027168447373,
          -0.11986861374002229,
          0.03283342858734624,
          0.1623215285860403,
          0.23461902125912262,
          -0.19390190666297108,
          -0.2449637311243468
        ],
        [
          -0.023976766839849162,
          0.10346897714796188,
          -0.056156745792518704,
          -0.23244134331886354,
          -0.27182700953209255,
          0.34042633576317566,
          -0.3316526470108336,
          0.056421449959569006,
          -0.013409070808741272,
          0.2540896384320394,
          0.33672733361498014,
          -0.08424725163634117,
          0.016508356830867828,
          0.31752544550499906,
          -0.12504739032651818,
          0.0007811106122781798,
          -0.09911303185910252,
          -0.20264268055825427,
          -0.08310031812303902,
          -0.3755498690849252,
          -0.32299537128011824,
          -0.338467136248834,
          -0.2972441086865029,
          0.0352451894260812
        ],
        [
          0.3439026546444692,
          -0.41830474686953084,
          -0.279617717247098,
          -0.36546928259664446,
          -0.2174676125095937,
          0.17166499670767468,
          -0.05836431175782637,
          -0.2211777665040267,
          0.029425001269537586,
          0.19318109213395143,
          -0.036872040255842724,
          0.10394598958890523,
          0.3139685109171923,
          0.006960220307574985,
          0.2356039359012848,
          0.12395928580669688,
          0.32175088406882946,
          0.344375740235994,
          -0.0873292511277452,
          -0.19683472798550053,
          -0.13391731937770074,
          -0.23541647774797386,
          -0.18871536099237235,
          -0.17064199066758867
        ],
        [
          -0.1464322433020793,
          -0.20245905231715947,
          -0.1191840215886494,
          -0.08189087235595494,
          0.1568715057406911,
          -0.32049994233308526,
          -0.05540660888761069,
          -0.027496920407209156,
          -0.3310280107114056,
          0.10754682302827183,
          0.2061293578733854,
          0.19656683995714552,
          0.20239874810761505,
          0.09384297777640793,
          0.07573449174186465,
          -0.227520485350732,
          -0.3900397212778198,
          0.048904487511215004,
          -0.32695349454865325,
          0.2497364384504821,
          0.3511760450817654,
          -0.30282469612041757,
          0.31982068693762633,
          0.07262302598795196
        ],
        [
          -0.2869446208289967,
          0.09015056124270386,
          -0.2775164152689623,
          0.24902408086783911,
          0.3059992256924867,
          0.346807168632003,
          0.2758175260902175,
          -0.3269075161350627,
          -0.36130676977324666,
          0.19336196992626653,
          -0.0085961719451088,
          0.0262467007750964,
          0.37623257224957085,
          -0.041044792731042716,
          0.31520669999386963,
          0.06873547662897306,
          0.2078560308940115,
          0.12737169592523767,
          -0.07191037458298045,
          -0.001850273189551956,
          0.2691214109629992,
          0.053986224494909266,
          0.23491502139468243,
          0.35511934982738225
        ],
        [
          0.3364212919896447,
          0.3803161562292951,
          0.15783389896272224,
          0.04818571106439717,
          0.2616807296744672,
          0.11499626019819875,
          0.27582379357578723,
          0.005518913338212744,
          0.3728633221591242,
          0.2602820181248415,
          0.03276387924696468,
          0.17513627276433333,
          -0.19055358173922735,
          0.11016476014700946,
          0.3625784358251432,
          -0.20079756524219944,
          -0.26100746599989144,
          0.32746880453273264,
          0.08379419452608158,
          -0.008521533942721796,
          -0.29841606962441886,
          -0.3148723340994542,
          -0.2967978989698989,
          -0.30623619087321496
        ],
        [
          0.0553660613631716,
          -0.1593874568564927,
          -0.1577889557202885,
          -0.04356655625901603,
          0.115460528746532,
          0.026409030197131846,
          0.16996296338590908,
          0.17418685572636824,
          0.17182116781449347,
          -0.02564848461970953,
          0.134052955263745,
          0.1886979538519971,
          0.3576334565122366,
          -0.2901425013055016,
          -0.1710425588865872,
          0.09101865745908155,
          0.008664622715425863,
          0.2689250518860355,
          0.2677580024492657,
          -0.04480709616311859,
          -0.31085562658867105,
          -0.2610423882560783,
          -0.2851665219441103,
          0.047262713552849625
        ],
        [
          0.3411203364505828,
          0.09320134285257678,
          0.00936020958478786,
          -0.10746612142586184,
          0.3115600366512439,
          0.05418877241494695,
          0.3111116287703299,
          0.19707581723802403,
          -0.17669541949429854,
          -0.32781770267006455,
          0.019191026248254882,
          -0.27604428317412777,
          0.04139437769172035,
          0.37565170026654443,
          0.33988974797915994,
          -0.15112835866279253,
          0.2533056468267037,
          0.19058648468279368,
          -0.1884429585330625,
          -0.01678288600888693,
          -0.1335734079572326,
          0.035740298735512654,
          -0.15124492019107025,
          -0.3452732275962553
        ],
        [
          -0.2699387646027504,
          -0.25511609901090465,
          -0.060980748064835735,
          -0.1685077865175364,
          0.7210597194691144,
          0.425524037092604,
          -0.15456620711779187,
          0.43788319109991974,
          -0.1966915621175136,
          -0.3678706572977277,
          0.09257643560415023,
          0.04349647676744583,
          0.13778090524963205,
          0.5250019986716983,
          -0.1546995159602386,
          -0.30626328864113306,
          0.19218608582760657,
          -0.1942990654442425,
          0.5458840033958536,
          -0.26917123170308965,
          -0.012105404439387308,
          0.002112188357486222,
          0.007887077023869917,
          -0.3429457201299247
        ],
        [
          -0.015493484074928867,
          -0.3478341983839456,
          0.20186612865244172,
          0.33248862012784824,
          0.38106439596573,
          0.2647236050494971,
          0.36496352482687333,
          0.1211786276132379,
          0.1166109284087523,
          0.2033266045989788,
          0.12586310470411866,
          -0.21290929067026973,
          -0.10065476566726086,
          0.41358723247368795,
          -0.18642733068196524,
          0.010690777828598579,
          -0.06095905153791416,
          -0.28947496586383586,
          0.12663886541493447,
          -0.28594645126683416,
          0.3558776014675284,
          0.43107580654664557,
          0.10904650584559258,
          -0.18949244039871355
        ],
        [
          0.09674496870203629,
          -0.32136067238666693,
          0.23818868562907378,
          -0.12256234105819741,
          -0.21010879661853335,
          -0.034515421622637765,
          0.16240842075744275,
          -0.0007693281391472551,
          0.2357709957365814,
          -0.26558642374905733,
          -0.18001989207968008,
          -0.1038666901653879,
          0.29729158511409093,
          0.27885440136079764,
          -0.09613330929949551,
          -0.1378734424017388,
          0.047963841047064144,
          -0.2620388506796468,
          0.34794730099797955,
          0.038539902979895346,
          0.32343100980847633,
          0.3160124072282221,
          -0.25390824166870907,
          -0.1462380827091146
        ],
        [
          -0.15547217057649035,
          0.1676797224315997,
          0.16544749718803448,
          -0.06032770271842131,
          0.24776286254192062,
          -0.11797159931770429,
          0.2445065713555959,
          -0.19754861243483726,
          -0.3615846077650897,
          -0.28797660213088205,
          -0.2261947123609538,
          0.2567679975248794,
          0.2754461530949301,
          -0.024207426329262437,
          -0.3537549938348167,
          0.36712812082570134,
          0.3587023708110982,
          0.2885014288713359,
          0.2909877777797241,
          -0.14614112785363073,
          0.0890071050344171,
          -0.24563662146667073,
          0.014767438350666363,
          0.1803557978409422
        ],
        [
          -0.362357580183219,
          -0.2588316633037168,
          -0.18850079139947318,
          -0.28416513446396363,
          -0.15363096605458032,
          0.07988638157306731,
          -0.19865579473037967,
          0.229609652173078,
          -0.15027508150282065,
          -0.0642908601164196,
          0.37120281180817793,
          0.22191780154315352,
          -0.3823759815964011,
          -0.15076931931749213,
          0.2971467129504423,
          -0.2834434553574362,
          0.06725035322904764,
          0.04927651782915438,
          0.2598790689991034,
          -0.0794153692337186,
          -0.27471449716380525,
          0.2155198913827565,
          -0.123493990894611,
          -0.04398280292565882
        ],
        [
          0.12407969423839127,
          -0.21833569085871682,
          0.270070301613308,
          0.18259262707486051,
          0.061072037045582284,
          0.340421843103704,
          -0.3331981390893004,
          0.28387732730415105,
          0.21177104239774006,
          0.2052337445259965,
          0.22954146027540331,
          -0.09727874294657526,
          -0.2406995945048386,
          -0.19602806226260505,
          0.3082261642434796,
          0.14702982959777294,
          0.39210017351028836,
          -0.14778516091103266,
          -0.13975294147963851,
          -0.3104990728735564,
          0.010986439284933007,
          -0.050656449729144334,
          0.0692897977594422,
          0.02665425437169892
        ],
        [
          0.1492726903555623,
          -0.2115826083502277,
          0.16642223667019032,
          -0.19020101201183054,
          0.23586708203654166,
          0.08992835131103957,
          0.12893432658718587,
          -0.3310157863884906,
          0.2129377148717956,
          0.36605505659435894,
          0.3692900718726552,
          0.3497223057781201,
          -0.24104369903016024,
          0.36102841779972256,
          0.22575585265283551,
          0.280763945109533,
          0.3947181050248497,
          0.27405693707056783,
          0.08085953344058355,
          0.1820637066117485,
          -0.17571298548552727,
          0.2640211039548965,
          -0.3597141697931158,
          0.0128679768879497
        ]
      ],
      "biases": [
        -0.31864246619647796,
        -0.0945719384877736,
        -0.05720030994658518,
        -0.10370305529249789,
        -0.24188076862784033,
        0.040411743663348106,
        0.03489668962248667,
        0.047985961677709334,
        0.059803958726464386,
        0.43071387770533975,
        0.1160634858384376,
        -0.037038527495200306,
        0.009456944792614191,
        0.01842443292671784,
        0.02354449355944624,
        0.0717354775338081
      ]
    }
  ]
}