{
  "input_size": 61,
  "hidden_sizes": [
    24,
    24
  ],
  "output_size": 21,
  "layers": [
    {
      "weights": [
        [
          -0.07678006437145395,
          -0.01992557412416637,
          0.04907681292013964,
          0.02808847153483601,
          -0.09952630095557137,
          0.11066703275455815,
          -0.19099322846370204,
          0.1331759101095778,
          -0.136572156673394,
          0.15004410311650113,
          -0.15371326026340446,
          -0.09273740541284003,
          0.24361522512726838,
          0.015596406376146938,
          0.22527701423437274,
          -0.15660416565444427,
          -0.22517811980963023,
          -0.03917031068115686,
          0.03280333604209488,
          -0.1558608034246439,
          0.11665621188017399,
          -0.01047228230636195,
          -0.21058366946845758,
          0.22808002622930373,
          -0.1759511747471214,
          0.0014412017717358163,
          -0.20798421723201993,
          -0.10565406333695276,
          -0.04955942864113489,
          -0.22192982254151392,
          -0.02423276774453168,
          0.06373735222152575,
          -0.0840120491965847,
          -0.09394183172461196,
          0.15776145007647693,
          0.06438877604929794,
          -0.16221434229303838,
          -0.12432812114556803,
          0.2597186958770712,
          0.020264269535064935,
          0.2003126504913811,
          -0.14077148761429692,
          0.13479826639702203,
          0.18918078255512308,
          0.08255020195189255,
          0.14432716187701156,
          0.25693760760075574,
          0.023515862747603415,
          0.2596443596275286,
          0.07177738715113333,
          0.1925780215704471,
          -0.22146972534664822,
          -0.25777243481526596,
          0.03426395264758044,
          -0.14014211146632763,
          0.2559209322685151,
          0.15575731821023783,
          0.28588742890336927,
          -0.04181342587486644,
          0.25645585155760164,
          0.25034534100649247
        ],
        [
          -0.15269347387749654,
          -0.1200750632190767,
          0.008584673699711425,
          -0.19373191162987247,
          0.1456715614638632,
          0.03354098790636334,
          0.2635610084689985,
          0.2132391666215811,
          -0.18347117866545426,
          0.13123498076463122,
          -0.0641168682242476,
          0.12447236166145517,
          -0.01958213211679256,
          -0.24119463459811874,
          0.30854088555366166,
          0.24827680374012773,
          -0.23136817064891863,
          -0.22306302703951258,
          0.12771284346248177,
          0.10261353116195249,
          0.3227983456653493,
          0.17527998330820027,
          0.12639433535460834,
          -0.16463268649288088,
          0.04693286099912279,
          -0.0630654959996519,
          0.027901273990904276,
          0.1579225470614226,
          -0.26067781830799674,
          0.18868672115817428,
          0.053963947561517435,
          0.2907845775165331,
          0.31401128160060865,
          -0.11941831690065462,
          0.15351583245186778,
          0.1827806462740955,
          -0.008419490234052408,
          -0.17880859334840485,
          -0.11493203196159563,
          -0.21290796424282196,
          0.22157275822874153,
          0.13728008670786981,
          0.027252240356136433,
          0.01819830718568152,
          -0.19959805108870174,
          0.24614895613214474,
          -0.15652024489960842,
          0.12328560018045104,
          0.09724580386451431,
          0.07730437896583937,
          -0.13981757373570772,
          0.2046367288326564,
          0.1847275246987391,
          -0.1622084009888898,
          -0.13200373166657733,
          0.06358016728772395,
          0.44842277087931676,
          0.1427512071493081,
          -0.01960499160248353,
          -0.01250707206620718,
          0.31842055340031183
        ],
        [
          0.03237022616435095,
          -0.06184405141453168,
          0.06118648079843403,
          0.18604118007275275,
          0.17889688281471933,
          0.23104026251459436,
          0.0001982222710860461,
          0.15812994286663545,
          -0.22879049445307573,
          -0.123524165107216,
          0.08586782445428903,
          -0.027953422325206145,
          -0.06295117338147288,
          -0.057148129505787224,
          -0.1820506619027893,
          0.21869377950495553,
          0.16980753037458376,
          0.0756509972320509,
          0.10229180425996466,
          -0.042688595934426074,
          -0.0697282557490921,
          -0.15609493138538416,
          -0.035942686003125855,
          0.006986459755813654,
          0.1619723018413908,
          -0.02151992015314616,
          0.2482181302975815,
          0.2578706247835348,
          0.029314863822322974,
          0.11740421514050015,
          -0.20906797740146407,
          0.060400572802212595,
          0.0931273493885531,
          0.19758950282250015,
          -0.14778599528886058,
          0.09222106344569861,
          0.033414182034228836,
          0.09003381285802813,
          0.23989690387014978,
          0.0013414497179973011,
          -0.032347407577407526,
          -0.21344941091406522,
          -0.06324900092741689,
          0.128246866196897,
          0.12517056432442641,
          0.040034480088591555,
          0.1566619689007172,
          0.14483648540557212,
          0.03573993431059316,
          -0.15832609654820723,
          0.06976553202518873,
          -0.0857498844915743,
          -0.08268817015593204,
          -0.17875171552733304,
          0.22755913251342758,
          0.0581285563994225,
          0.1720943583428606,
          -0.2546557182852587,
          -0.2424368125562088,
          0.0946691574824748,
          -0.10112103225932009
        ],
        [
          -0.22209308439984912,
          0.13270949898497902,
          0.18333751056712427,
          -0.21944298573452797,
          0.07531356701442936,
          0.2433793640188226,
          0.10664619319014461,
          0.16290523257713962,
          0.14049023439219105,
          -0.16581004212255718,
          0.04467437981472417,
          -0.061175584390671486,
          0.07122976040544511,
          0.20702972597259156,
          0.11838386814443771,
          -0.15845374627612935,
          0.26372734304429146,
          -0.2525951425405424,
          0.02596568733434567,
          0.2039872357516573,
          -0.01002233013779748,
          -0.021478082959073674,
          -0.18575777445124816,
          -0.1973742954508969,
          0.13082125683500828,
          -0.132976317525712,
          0.04195021828310072,
          0.08546611000048944,
          0.1910977556671818,
          -0.20023291007891003,
          -0.09259614906942217,
          -0.25664084379655244,
          -0.084666466636373,
          0.040323771292639636,
          0.1056866182113451,
          -0.005232812088902835,
          -0.05486512149815911,
          -0.1679949453303434,
          0.029931262989833323,
          -0.259170988059832,
          0.059760031225751846,
          0.00011628753271418688,
          -0.09787858101366131,
          -0.05124979637033957,
          -0.006239269021497247,
          0.22522314926123943,
          -0.2583801750218725,
          -0.033328591268773605,
          0.06084963099527172,
          -0.07308642487340113,
          -0.17793932600716525,
          -0.23029708949525896,
          0.14962495736329057,
          -0.24026871379689124,
          -0.18242258192703875,
          -0.19043883022416727,
          0.10360620918152899,
          -0.23675079457838935,
          -0.10673223204538389,
          -0.20837437713224172,
          -0.28770467783032927
        ],
        [
          -0.1068149901075564,
          -0.0878966906069366,
          0.1042100223507066,
          -0.1852390362493945,
          0.26966904494078203,
          -0.003496321060204577,
          -0.19268227652223477,
          -0.11790302906189928,
          -0.07542601675445454,
          0.20427590947160962,
          -0.05652880270791554,
          -0.12501526635691737,
          0.010483869076170807,
          0.1748498527987772,
          0.1115336033946589,
          0.25409009444380265,
          -0.14284616278138446,
          -0.2564747240996923,
          0.1510272748080488,
          0.041617154015028315,
          -0.010812665176278213,
          0.07773608431604828,
          -0.26671829797835755,
          -0.10311850749211399,
          0.01030277432309446,
          0.019456949102490805,
          -0.17477645576255346,
          0.15048081935959884,
          0.11779269309638644,
          0.1317328431538331,
          0.2199932691083176,
          -0.1270560010520859,
          0.12513326526067942,
          -0.2023589206665532,
          -0.20135794023161085,
          0.07056362372114186,
          -0.08834925605408357,
          0.24792494142627614,
          -0.07167069242811619,
          -0.17710188665804513,
          -0.0772938722894859,
          0.12528262224969233,
          -0.18761087496817552,
          0.1344554021274218,
          0.1834143320961874,
          0.20953416411421993,
          -0.00958937429594806,
          0.2400161350457511,
          -0.2587369913727632,
          -0.07333968453324771,
          0.036818029979836325,
          -0.14631961875254781,
          0.1994341240408655,
          -0.18996399623833113,
          0.11219568430667731,
          -0.046465468651423564,
          -0.12576427100712723,
          -0.2537650791186941,
          0.05778587970501055,
          -0.17802071601746772,
          0.12710152242939926
        ],
        [
          0.210987726826941,
          0.024895399539913467,
          -0.005793529669882098,
          0.12674747992636956,
          -0.06575285224986954,
          0.14006321104701144,
          0.20978650687309838,
          -0.12744520062408865,
          0.031155120605798434,
          -0.06036012812187023,
          0.046183236674666554,
          0.050154227973407385,
          -0.07178297916641496,
          -0.1342242410580291,
          -0.2181559800932457,
          0.08653489897682345,
          0.1920899571480445,
          -0.02482232652511325,
          -0.14750560194475076,
          -0.09723692975550914,
          -0.17907877443368492,
          -0.22397057208650115,
          0.1316778261331814,
          0.17174384192246453,
          -0.22857562345793928,
          0.11439388116991972,
          0.18535646443025963,
          0.19404326113241613,
          0.05211151499899691,
          0.23965542397017028,
          -0.15792973672261904,
          -0.12005486965616438,
          -0.1421322117839629,
          -0.1405274188740712,
          0.16354021225537074,
          -0.13558346764403748,
          -0.13860906668698356,
          -0.08172450032686378,
          -0.13837643809695233,
          0.21035403689709453,
          0.0075380744724558215,
          -0.06062150998209956,
          -0.060148538436555155,
          0.06839763845634544,
          -0.050731579571357086,
          0.02173655734712697,
          -0.022125895474025308,
          0.1872270025034509,
          -0.1351078944416608,
          0.20025883917545656,
          0.20523621998592298,
          -0.22784515245402512,
          -0.08307862802604792,
          -0.20670912091036076,
          -0.1032304913861624,
          0.00462166347868689,
          0.10540622711949012,
          -0.062092303385771284,
          -0.15276186705622735,
          -0.2030450405247582,
          -0.2489490278488733
        ],
        [
          0.11411791107682051,
          0.14794712268677163,
          0.004390723410400484,
          0.033198529999831056,
          0.14769257388923707,
          0.1669460446942274,
          -0.14478097176233823,
          0.29507767066172513,
          -0.18249368918241404,
          0.2586839220974055,
          0.2758445805054965,
          0.1259328981315166,
          -0.23658131875166874,
          -0.06612819397913808,
          0.0654589161047205,
          0.14107380247104068,
          0.03082436875485179,
          0.08033745337399051,
          0.23761027319931174,
          0.28633726423160916,
          0.14823647684962132,
          0.18437610506960156,
          -0.0034646116783214383,
          0.024996921285794116,
          0.011335129134965913,
          -0.16354591189414266,
          -0.18211876309449082,
          -0.17084369838060232,
          0.16835785203330494,
          -0.15126198083189085,
          -0.08498164333853052,
          0.09889250014022147,
          0.041280556051287005,
          0.1131158783861395,
          0.059087904803647194,
          0.20799043012872417,
          -0.1679236627602737,
          0.018680055633629483,
          0.21772839818555048,
          0.16552869933462208,
          0.25038719865302306,
          0.10002209511615268,
          0.08945822063714536,
          0.2014441790976446,
          -0.1221384180599768,
          -0.2086192806040026,
          0.017645634379996417,
          0.07414696274323913,
          -0.07364975601559104,
          -0.01961102119890519,
          0.2513904696449453,
          -0.00531959172072115,
          0.04638839565807103,
          -0.025524947949141476,
          -0.008871446267728357,
          0.14077335539421296,
          0.32014236949309466,
          -0.20535006846672615,
          0.11370129168044099,
          -0.12915105816255193,
          0.036869051772469484
        ],
        [
          -0.1338337877345177,
          -0.11943530971523027,
          0.19963042459875704,
          -0.22601887279879312,
          0.14803484099409164,
          0.11970950049504017,
          -0.21185850833997014,
          0.08966930694682217,
          -0.2667236326916379,
          0.11840128204544623,
          0.18272103838899786,
          0.18360800631069427,
          -0.1426249649458466,
          0.244033225257129,
          -0.019731569619995823,
          0.2107219756139397,
          0.09830130654208206,
          -0.07170716165324825,
          -0.16526534905334592,
          -0.0967059880884298,
          -0.06173236016008544,
          -0.14833425220129143,
          0.10759895297027158,
          -0.2032860369376871,
          0.0444670242841747,
          0.1300233931424096,
          -0.149876194766801,
          -0.10923523347455662,
          0.21739418328722193,
          0.18434077846947733,
          0.02225961346793368,
          0.15808616873168704,
          0.24336473722744836,
          0.1489645894939998,
          0.23713513678665188,
          0.12352326475833647,
          0.13707988180141656,
          0.06730323121256157,
          -0.00881945066523085,
          0.2539887770620111,
          0.11374622293486016,
          -0.029585174379156184,
          0.12483165411056728,
          -0.048394834202792426,
          -0.12457578957906114,
          -0.2548311202800387,
          -0.008200420843769657,
          0.11712136029975431,
          0.138870910679812,
          -0.14484033445009767,
          -0.03541911546278866,
          -0.26054018309282373,
          -0.2501508620305145,
          -0.07230913925206484,
          -0.1917168988434049,
          0.03633560152051395,
          -0.2440476371942485,
          0.10336495282474024,
          -0.025623254278913,
          0.11403318512221039,
          0.2892216566534661
        ],
        [
          0.2814682537247289,
          -0.05323004593134656,
          0.3410521212898656,
          0.2213138210295528,
          0.22674763995018482,
          0.2458649460575864,
          0.15039704742696866,
          -0.09801650929644343,
          -0.24609604663555673,
          -0.05526239813453821,
          0.12674717663704174,
          0.09444951076175102,
          0.006655851975886351,
          0.3026188541527119,
          0.25800457135050964,
          0.2768793575640844,
          0.24469228865531484,
          -0.07594481254974451,
          0.1775082882252688,
          0.14137872947585872,
          -0.04029288882017532,
          -0.09483592801234211,
          0.17910561716298343,
          -0.07329184712909764,
          -0.21659574839846146,
          0.14744917683250416,
          0.16775429519337534,
          -0.09569632058476965,
          0.1795638442702799,
          0.06674384327355866,
          -0.07582643339688945,
          -0.22643920368854,
          -0.17107863749685467,
          -0.0006973987558984878,
          0.18554093250107012,
          -0.1561714360523157,
          0.046419673813180504,
          -0.19414884541152921,
          0.3148519924619472,
          -0.17839005700892896,
          -0.21827577710626803,
          -0.20131632779906194,
          -0.04177620419059503,
          -0.2190889109901106,
          -0.0402595798603617,
          0.22181409020337514,
          -0.08543973937882578,
          0.14874656307915604,
          -0.018472000063926103,
          0.07150850471762472,
          -0.10360123628937888,
          -0.2224350265081201,
          0.21498450795344384,
          -0.27220157703591297,
          0.2804377264078615,
          -0.16886242389448736,
          -0.31440104356341536,
          -0.08283793000502575,
          -0.0470734519024721,
          -0.22454470862906914,
          -0.017981360803126782
        ],
        [
          0.20436130366931946,
          -0.22049615996524813,
          -0.1664888513600704,
          -0.2240982200122644,
          0.15230924152419875,
          0.1292452930278326,
          0.018028922492431165,
          0.10916387535799141,
          -0.0867281617710555,
          0.1071484787358119,
          0.06749988759726336,
          -0.059497443447805505,
          -0.1687694985597561,
          0.10785320260465384,
          -0.19616345280414713,
          0.06227316479679416,
          0.026308208029352822,
          0.14745586785793857,
          0.22495438070363025,
          -0.18807295110053754,
          0.05331016362855897,
          -0.03134477868482629,
          -0.1062200570138801,
          -0.03221642966100938,
          -0.024585273347991165,
          -0.2563208676372063,
          0.2584258802764322,
          0.08526120286377371,
          0.17215392971948784,
          0.16521353078982234,
          0.030599119807384872,
          0.10982563934079433,
          -0.25564380147771143,
          -0.1634760048383688,
          -0.06090324432842668,
          0.2074739964483041,
          -0.2367557459671289,
          -0.13552063678918663,
          -0.12490092329461808,
          -0.19444084536189885,
          -0.2589428644914305,
          -0.034364048324702655,
          0.21560950098738899,
          0.17576821028484133,
          -0.12498711920183621,
          0.010985407486453155,
          0.012251840393986071,
          -0.1678606402420588,
          -0.049743452804333024,
          0.1469870730016198,
          -0.1129491424172155,
          0.003540446511249705,
          -0.12964839975575715,
          -0.1618905440868012,
          -0.000746724184563416,
          0.07961394108551803,
          -0.13631570841692112,
          0.17889824395625428,
          0.11598164856363838,
          0.1111058490729649,
          0.03596863948369281
        ],
        [
          0.0340564654064965,
          0.31341694799122033,
          0.05473400927818745,
          -0.153194943928679,
          0.05654977549137896,
          -0.09874066458103106,
          -0.19939096657934244,
          0.10166592522043935,
          0.13777046803895898,
          0.1765283946738875,
          -0.12533789086274114,
          -0.089788401168074,
          0.0390089945448484,
          -0.36515554265850975,
          0.10411898373032141,
          0.07339809127713914,
          0.05480313511617724,
          -0.06504764528565754,
          -0.2691741889113558,
          0.100135918303235,
          -0.2196842893094503,
          -0.16256497978082382,
          0.21482192054908514,
          -0.2381030985796058,
          -0.11790560355701951,
          -0.11547651398728627,
          -0.18594390908455338,
          0.24713642103394612,
          -0.0807297218800846,
          -0.24746776201886947,
          -0.044757262782347255,
          -0.1675139176937088,
          -0.039374155633575346,
          0.2064596661347542,
          0.12736175108756742,
          -0.14925285256840615,
          0.09164439431295138,
          0.16060850142360153,
          0.08029744718109695,
          0.21710979471096498,
          -0.06699672142342507,
          -0.19144353270524567,
          0.15255061334292813,
          -0.18109999413864716,
          0.1707445719543664,
          -0.07956040543541594,
          0.2006759905127259,
          -0.15552326620455698,
          -0.07790484342068113,
          0.20413166485293058,
          -0.07810681859268588,
          -0.1894418029322051,
          0.040356902541836895,
          -0.10361485557552712,
          0.05540632431866688,
          0.4217610495113505,
          0.41300357292321144,
          -0.16165838367173974,
          -0.2566544682457462,
          0.3305050840484762,
          0.2196001392406394
        ],
        [
          -0.09825261847180883,
          0.06381608884621383,
          0.2503690064233682,
          0.22799034064063192,
          0.16787254168185953,
          -0.02018578111929094,
          -0.1648204613917597,
          -0.05226148979163784,
          0.20918977338466363,
          0.06131693157010897,
          -0.016256997914493206,
          -0.12848345739110284,
          0.097410918639346,
          -0.13300808254854166,
          -0.18595765707453774,
          0.13351320007910522,
          -0.08356292466074056,
          -0.15682965883130942,
          -0.11129283297712159,
          0.2604234945974295,
          0.04066612073978349,
          -0.0949607432988677,
          0.20937528524716217,
          -0.2012301738955503,
          -0.005540939229523146,
          -0.17602251008209532,
          0.24150889100083264,
          -0.07057369722906522,
          -0.19833948495150855,
          -0.005386171696175341,
          -0.2511702881216275,
          -0.21619637770220637,
          0.1282757125224415,
          0.21430778366532482,
          0.02969963470005171,
          -0.06733401630173845,
          -0.02125243140927856,
          0.065722558734059,
          -0.24665929115267685,
          -0.13892786924320585,
          0.23585078813472807,
          -0.22484224199650427,
          0.13902591223333205,
          0.09637920298748533,
          0.24558247518690426,
          0.19386574003000911,
          0.10063010815464075,
          0.14535379294556175,
          -0.24016961042607726,
          -0.07918322984884937,
          -0.05434985853665559,
          -0.17237163296288027,
          -0.25877282708952537,
          0.12307977145088062,
          0.1975258092593098,
          0.02445842250957002,
          0.09814119527919275,
          0.07701581563798308,
          0.14627325656383383,
          -0.13839801004065952,
          -0.17024567539520946
        ],
        [
          -0.04603371249676456,
          0.05298549984418514,
          0.1325275528064506,
          0.027483821038734656,
          0.001960275108985635,
          -0.037584244552079066,
          0.18255472520130356,
          0.0039904390708614245,
          0.14495499783478139,
          0.06800763513576379,
          0.02009293492019699,
          0.06857809661558574,
          0.25901192716159416,
          -0.23340315763710037,
          0.2456944416193982,
          0.24058234888064223,
          -0.10611277148901406,
          0.13177593604002297,
          -0.15754010071128327,
          0.1957507098270061,
          0.23630299505033325,
          0.09072711326702732,
          0.13040136373077732,
          -0.06887883257004887,
          -0.17478861017655498,
          -0.11278834584215078,
          -0.053099432801278636,
          0.22067612622849703,
          0.19552461340861985,
          -0.24909056544733746,
          -0.10136170316106959,
          -0.20785052018687636,
          0.13535054692009196,
          -0.02169923189322889,
          -0.12539597491138632,
          0.23925496781260394,
          -0.19130360002305585,
          0.09153363681124883,
          -0.2638850197515161,
          0.026360246410933718,
          0.007451727696844166,
          -0.2710271302958835,
          -0.003993077008020315,
          -0.1525570171132864,
          0.2342854585168975,
          0.15274170873339804,
          -0.09672066384262487,
          -0.1493202616224156,
          -0.06733994957195334,
          -0.07496418651680137,
          -0.11068645876122192,
          -0.06349500418658457,
          -0.17614959915457012,
          -0.037044560523380746,
          0.01091512037456268,
          0.23625886885621256,
          -0.2249213874675247,
          -0.10526888286226342,
          0.211878469028632,
          -0.08685183203834408,
          -0.15796764747577383
        ],
        [
          -0.0551817354556257,
          -0.23602331643062155,
          -0.007564562858582541,
          -0.18457536275292497,
          0.07318499087882556,
          -0.08215655651998309,
          -0.04296571661510035,
          0.16704146591471414,
          -0.23075173106960983,
          -0.1370000942532911,
          -0.2377137853387904,
          -0.17983520114826382,
          -0.09599780332281027,
          0.2317492282223218,
          -0.2525354767781509,
          -0.009450184121072725,
          0.049681276167318725,
          0.1082400835024229,
          -0.20541689342000283,
          -0.140259249543058,
          -0.15008583911483503,
          -0.18923470975486037,
          0.005393502760357199,
          -0.06260069634212573,
          -0.040379771408544034,
          -0.01823178048432362,
          0.2472821621872021,
          0.17660014180766131,
          -0.19975201304152776,
          0.1519292460143102,
          -0.21096332134420379,
          0.17966510552530035,
          -0.2531845057293255,
          0.25080724851316055,
          -0.10904504801549876,
          0.07072506600208267,
          -0.11178478144072722,
          0.1691718114118747,
          0.04649074980823106,
          -0.0783161239955449,
          -0.17618200374232332,
          -0.029723881740881225,
          -0.10888843943559363,
          0.12388851513668771,
          -0.2535108185876699,
          0.05782182584845523,
          -0.26246587218452533,
          0.1197273657809706,
          0.12166992321991697,
          -0.07201323407363135,
          -0.006343710266179172,
          -0.2618120431596753,
          -0.22945131640929278,
          -0.03774110278082838,
          0.24923311539526205,
          0.03769319344131836,
          0.11046558650360247,
          -0.03168800155531936,
          -0.036234802413451415,
          -0.19351581937209436,
          -0.0797253284662571
        ],
        [
          0.1688101461154188,
          0.1544790242974526,
          -0.11440322349590533,
          -0.13857390093868066,
          0.019683581479893894,
          0.020326237781705732,
          -0.09534725363173814,
          0.11714203676902049,
          -0.045473544745977736,
          -0.14478951372135584,
          -0.18092487816326444,
          0.008389027886046518,
          -0.224060038722394,
          -0.0624881043722386,
          0.13104604876101011,
          0.013600321525700516,
          -0.22586290214396912,
          0.1191757112149462,
          -0.059543776890833254,
          0.1800492588289836,
          -0.2147733576632092,
          0.025484449868364772,
          0.10364275926056106,
          0.021925419737927634,
          0.16686087296574326,
          0.2116011038411061,
          -0.22540109851906218,
          0.057148308642375356,
          0.09030999386970964,
          -0.19526243232735124,
          0.2699009270796982,
          -0.08434836776475842,
          -0.20590217258646748,
          -0.02502407265390484,
          0.24557800530663185,
          0.23432187840582464,
          0.17808452960534393,
          0.18359731929993806,
          -0.02913592711516607,
          0.14248072189339378,
          -0.1759803173885659,
          -0.025268033880030714,
          -0.010770117127460854,
          -0.14544393735921213,
          0.173092407790741,
          0.148133080241035,
          0.08300206088893991,
          0.23883930418274577,
          0.07989091997332821,
          0.020752755728425776,
          -0.154756851301772,
          -0.08355480501989657,
          0.11968452226235743,
          -0.06823199074721811,
          0.057747665900332826,
          0.28995413127896036,
          0.36248998261272336,
          -0.26452633476833426,
          -0.023659517977174103,
          -0.18434582188253404,
          0.2498241837759051
        ],
        [
          0.18736341395971107,
          0.027441791042233224,
          -0.18246251024652502,
          0.24115048555688828,
          -0.02205696628362009,
          0.2303197362305582,
          -0.06390961157605739,
          -0.1655350873298216,
          0.08376233376203522,
          0.0864346326777428,
          -0.06728102129259929,
          0.14338240031142088,
          -0.034703177597840425,
          -0.11851644442615195,
          0.13943314271249474,
          0.0491463462417653,
          -0.23287831180796717,
          -0.025750282046140903,
          0.24477630883246995,
          -0.12515110109066077,
          -0.13919508266742567,
          0.03491898603522291,
          -0.17461388609826395,
          -0.04880147530367175,
          -0.2064624421827226,
          0.05673265083631069,
          0.2535059667100499,
          0.07958044816038633,
          -0.18370524476761962,
          0.23125831210618905,
          -0.1162476335372277,
          -0.23998010587070648,
          0.23457906560693748,
          0.13710772366936916,
          0.0882409337381915,
          0.19896623232996535,
          -0.0661866880681757,
          -0.22204512974410254,
          -0.20713387610394834,
          0.017695040893762098,
          -0.26174083362274075,
          0.23563099350728886,
          0.21679311463000844,
          0.05620033542983433,
          0.26142050533961325,
          0.12056720501436473,
          0.1065762575880483,
          0.09725289851662025,
          -0.05988025829553132,
          -0.08761984658956709,
          -0.1789062719400656,
          0.13130037456500046,
          -0.2296472225231204,
          0.11289498821792698,
          0.07084416191411395,
          0.22305379260837438,
          0.15155326148630782,
          0.16651089822785436,
          -0.0907873846823578,
          0.2216013588633997,
          -0.005787398982003774
        ],
        [
          -0.17205565627140465,
          0.27912374625366887,
          -0.1742628484150382,
          -0.12973502928369615,
          -0.20333338149548008,
          0.25728720174884306,
          0.11132206441035006,
          -0.24125691836857197,
          -0.08508366046239102,
          -0.024858181909853186,
          -0.09513533488803973,
          -0.009377220745333086,
          -0.08106314490734562,
          -0.15901903594092628,
          -0.005928247125863392,
          -0.010216803119022197,
          -0.06485899459320538,
          0.2546228101931718,
          -0.015453995404873709,
          -0.1319165171007408,
          0.15755466521413714,
          0.08354176158926221,
          -0.15263817929522752,
          0.19029871119517985,
          0.09315340658310337,
          0.1652667988201917,
          -0.024190392276686404,
          0.0872074886286511,
          -0.10355729994068646,
          -0.21707417875373428,
          -0.0738904701484532,
          -0.21369437944546807,
          -0.05213744398173939,
          0.061060768002390346,
          0.24957919540080717,
          -0.15249700909016384,
          0.1110868616805563,
          -0.24440429874339306,
          -0.12660333914602762,
          -0.15773741869522448,
          0.14929610816175456,
          -0.09243092093795183,
          0.09866093575155359,
          -0.26337493582396504,
          0.23078790702633786,
          0.0642656686349175,
          0.030084149281101327,
          0.044283783161615804,
          -0.2059743310094224,
          0.0783847723155308,
          0.22436917767403738,
          -0.05468621556676109,
          0.15426348599205061,
          0.04473292512077826,
          0.22403203472858385,
          0.14589740183277974,
          0.008393403251670211,
          0.08529161394756678,
          -0.1675385395741928,
          0.15987795997609897,
          -0.07827993163383555
        ],
        [
          0.19403009209748778,
          0.3947520241380042,
          0.38363571329818,
          -0.06581211747366864,
          0.2712226930101496,
          0.24939784089996364,
          0.23915081485280834,
          0.05497447101951926,
          -0.155964628373493,
          0.21767216717248447,
          0.28569362772228707,
          -0.010925440781806715,
          0.13920763245399634,
          0.26752605082357866,
          0.6386678631284454,
          0.29243260125245163,
          -0.24426543645664858,
          -0.09423674283250415,
          0.17832674240295923,
          -0.1367553506965617,
          0.011452753227432286,
          0.020104489435467027,
          -0.035670306732451355,
          0.43151454888897994,
          0.3340746089511305,
          0.013766583480825057,
          -0.015674692054504884,
          0.09339867257659733,
          -0.2461406150147965,
          -0.18880807608240183,
          0.44566444992534837,
          0.2071377888111655,
          0.16641562804954727,
          -0.08271054786834157,
          -0.04620922874128186,
          -0.13934924686130895,
          -0.00756091623756392,
          0.18154064831297717,
          -0.04818642945667369,
          0.0847260198068942,
          0.13355028304217992,
          -0.09909859111234012,
          0.25858418599944527,
          0.18816886592250193,
          0.2316093042715737,
          -0.1180786454769276,
          0.24511886311069936,
          -0.21267606804371317,
          0.42673783370470997,
          0.10548984892412476,
          -0.10854493496543781,
          0.073476146858861,
          0.047928633675448834,
          0.23388466348493617,
          0.03214175436710384,
          0.47424016528022817,
          0.5082546627220624,
          0.2264388473568044,
          0.05252172168725555,
          0.13031853186332887,
          0.1412954425647705
        ],
        [
          0.056962469926562044,
          0.15123772611597133,
          -0.048589182299269146,
          0.1752265757075129,
          0.13734390923431256,
          0.186485789424643,
          -0.017103305750526092,
          0.20693903724498103,
          -0.04426911980528927,
          -0.0421263584786644,
          -0.16413783004064417,
          0.24118012084084886,
          0.08327255228214626,
          0.26439281428570166,
          -0.0059647742498519455,
          0.16513216411603315,
          -0.0932208234577423,
          0.0817808071037037,
          0.21641484241626602,
          -0.0030869585329400917,
          -0.2073275400034457,
          -0.11332447022234915,
          -0.21469589777143672,
          -0.1012904514597763,
          -0.19297635540142186,
          0.21860987977273416,
          0.09969419122068089,
          0.1816903945588609,
          -0.18724641435507766,
          -0.21000673734858152,
          -0.10839710578195053,
          0.12088488142688018,
          -0.05367204020214576,
          0.16600022337679188,
          -0.09114001357415041,
          0.23756435783852536,
          -0.040284793962895006,
          -0.07505072616486193,
          -0.09859690896069845,
          0.02248407029222075,
          -0.17441077057852417,
          -0.2414760458997553,
          -0.18542502008196884,
          -0.11910689972465366,
          -0.21629214828018803,
          0.24870915072840694,
          0.1087592269824502,
          -0.2627070878728355,
          0.04247366761539321,
          -0.19720993569151632,
          -0.13386770803061224,
          0.11981890043014223,
          -0.23680781956080912,
          -0.03224886810484199,
          0.03277059520658127,
          0.16476068811028463,
          0.17151521636840397,
          0.24096163590141922,
          0.12742975666905104,
          -0.24014178440670503,
          -0.1721279973491855
        ],
        [
          0.23218157083921492,
          -0.0670490500384885,
          0.05250841563658301,
          -0.12589819608828426,
          -0.12439800218363202,
          0.24709140309569066,
          0.24200544294609702,
          -0.15087443730930633,
          -0.1372220118508346,
          -0.2514397308354055,
          0.04080194044801444,
          -0.06606391698280167,
          -0.05744841526993046,
          0.15497677745282684,
          -0.0678755950951018,
          -0.09394796966515327,
          0.18526507195799227,
          0.2735127001416683,
          0.030839743030731084,
          -0.19715964744356473,
          -0.17787120307687698,
          0.3077590541665324,
          0.250614103895201,
          0.16248178332957725,
          0.0743709691392543,
          -0.07153077879364655,
          0.10906666490014322,
          -0.09834161304343904,
          -0.24086574329674437,
          -0.08510850264682517,
          0.1328333238801537,
          -0.14942952936077372,
          -0.039029011762572105,
          0.12802745845754676,
          0.04920406807562898,
          0.22945680544639152,
          0.19240391542784907,
          0.2763217569816126,
          0.23468052480226467,
          -0.25233816923524577,
          0.038688012376213686,
          0.17858382472289444,
          -0.12005880732198292,
          -0.22557378022319893,
          0.13391506151818863,
          -0.13991906838305754,
          -0.22374560420447281,
          0.21430828509383415,
          0.2706529063837751,
          -0.04023060028695183,
          0.08042486185475398,
          0.20088228916231465,
          0.0016530155661794038,
          0.15900861908921882,
          0.017477997072667516,
          0.08424794040953565,
          0.26535772977316285,
          -0.019130728251176954,
          -0.10699833511237124,
          0.22718365713388933,
          -0.06657866600248413
        ],
        [
          0.17097904131316302,
          0.1997339224719303,
          -0.17101513156180181,
          -0.22490249136523086,
          0.09064819216659932,
          0.020451748165564776,
          -0.003287966855309791,
          -0.23380330331600335,
          -0.17621246214674188,
          0.05579842147605862,
          -0.11168074917071173,
          -0.046702736138082394,
          -0.14964209152090452,
          -0.083298507855233,
          0.15821680346578057,
          0.16030935109259223,
          0.19263150414565466,
          0.2508467545779035,
          -0.07677058404028779,
          0.17345144719899788,
          -0.22289612163053238,
          0.10219711276512917,
          -0.13470171039438342,
          -0.00966696258713751,
          0.19565118846225513,
          0.0018580088944823866,
          -0.09046292347902185,
          -0.21347818901915827,
          0.019916416822733585,
          -0.24181612565544383,
          -0.08179823761829634,
          -0.03184171375821491,
          -0.2578313793704704,
          0.006786726976150124,
          0.13246507600034602,
          0.045310918564581804,
          -0.009928639068754491,
          0.09716620648423717,
          0.08847719587749428,
          -0.0905754500652742,
          -0.19099952337399148,
          -0.19701020148939685,
          0.0581945014336534,
          -0.03020319933741299,
          0.20341024141525182,
          2.9653529429266305e-05,
          -0.012826573494252794,
          -0.03792224923947315,
          0.0009748526301409033,
          0.22964455075641996,
          0.24170705437721804,
          -0.15715826968076554,
          -0.10122139569238749,
          0.029726628366265224,
          -0.05376809874415304,
          -0.15919603109968763,
          0.13792709232626146,
          -0.1914435465461544,
          0.2194981168355334,
          -0.21602321325933213,
          -0.1524698183598809
        ],
        [
          0.25587415457632806,
          0.13384492124309552,
          0.2648259771911379,
          0.11403427789410388,
          -0.004903168407577329,
          0.05567050908730246,
          -0.20639211967356152,
          -0.16973190390846507,
          0.0940801358522003,
          -0.12182386146774557,
          -0.2245662019864043,
          0.20304488373891996,
          -0.035343681741242396,
          -0.14933069320665932,
          0.19518683839671508,
          0.23398495240781525,
          0.2122350837953202,
          -0.12515741406392056,
          0.13472451598344418,
          -0.16025572621235915,
          -0.15478221091295968,
          -0.2599562410252505,
          -0.13508119957750678,
          0.06776608144310131,
          -0.14485117998481273,
          -0.13736113975142442,
          -0.017605151086477148,
          -0.15488630595448177,
          0.24143096289144897,
          -0.16039070947304546,
          0.2669105138788084,
          0.21273807756035557,
          -0.14645905969209527,
          0.01701484984927126,
          0.1624256241179364,
          -0.22030203058211206,
          -0.18321480100908197,
          0.14550982895225223,
          -0.1624398625329923,
          -0.10687554633007107,
          -0.050620810296726305,
          -0.12633449776313893,
          0.06492800425240275,
          0.012019317312243432,
          -0.20145267651299942,
          0.08167518603282534,
          0.12040137701698063,
          -0.22565539430514756,
          -0.21953861523198215,
          -0.08551623770989798,
          0.23951033642651381,
          0.09412301677536551,
          0.21378640826575113,
          0.22666011227762645,
          -0.00984768670709741,
          -0.02219368401240064,
          -0.008024293873279749,
          0.259029712798829,
          -0.07218892667896765,
          0.08864870691731219,
          0.09461911781599201
        ],
        [
          0.1920629463145475,
          -0.2224213149890914,
          -0.12233167352408733,
          -0.20426123295868034,
          0.008017211700382844,
          0.07609404802352394,
          0.03393696173044653,
          0.22712909549486573,
          -0.008048650051385496,
          -0.0226095565746695,
          0.3008984909412502,
          -0.1995846093903488,
          -0.1533901678859808,
          0.05465589338513626,
          -0.016321217724253233,
          0.045299995752687054,
          -0.09355079639226835,
          0.06467094509263177,
          0.14444877708546894,
          0.07497736914031809,
          -0.23409475815519104,
          -0.10825982435346011,
          -0.0481780896578756,
          0.0774884100791861,
          0.07489930633314196,
          0.1488522613020116,
          0.16681355428950884,
          0.08328205532312104,
          0.09914244390758674,
          -0.020263023992098412,
          -0.1625740516167043,
          0.2239177329691518,
          -0.18883850831212845,
          0.1230779685111306,
          0.07740496602951323,
          -0.1653190294885317,
          -0.052146458484260215,
          0.15799157348710513,
          -0.04241612167252104,
          -0.05623160974634371,
          -0.18566234511563534,
          0.24501547697179477,
          -0.21413143575541707,
          0.10535738001108821,
          0.1640558670795956,
          -0.24806988113066508,
          -0.26000563053999637,
          0.06683072315096682,
          0.10035746817354785,
          -0.1802732458500536,
          0.19625690651126737,
          -0.05825875685292814,
          0.23271770727638194,
          0.2568964443454058,
          0.27912505389693687,
          0.0550149529195921,
          0.141875100377912,
          -0.041157596920307564,
          -0.06846011170168156,
          -0.16779982257793288,
          0.2947089410696322
        ],
        [
          0.13575301146600843,
          0.034836381365742894,
          0.03585521428831562,
          -0.22877560092209512,
          -0.15043529961836669,
          -0.17206403061649309,
          0.23990418204554637,
          0.23087479304571853,
          -0.1619750535922195,
          -0.005133372760548516,
          0.28675103339013697,
          -0.18873656984440354,
          0.1674904588884365,
          -0.17809131196987626,
          0.030527576258036097,
          -0.028740467740498956,
          -0.03766381122027989,
          0.1951913609312262,
          0.0002902527248578089,
          -0.010073959915238543,
          0.1925826342214286,
          0.2222779442050236,
          -0.2367261558830893,
          -0.004478035627843717,
          0.18657095618577307,
          -0.011136119670151282,
          0.20244227251241467,
          0.21753560486387025,
          -0.002267533399668155,
          0.0795507959630882,
          -0.0040121708515720505,
          -0.25342023848001427,
          -0.14086153900842194,
          -0.14961987439310792,
          -0.02929986922105147,
          -0.2530990151016725,
          -0.20001853777525302,
          0.18572597196523574,
          0.20870625769635365,
          -0.0673691625380395,
          0.006464407125768786,
          0.07195550119795298,
          0.22895798823759966,
          0.2546369739815311,
          0.08790170532511044,
          -0.06932213253026684,
          -0.20920849359138663,
          -0.11360148150335557,
          0.16629738703044122,
          -0.1847203127472883,
          0.13445319711982642,
          0.22144397920898873,
          0.22009013515255477,
          0.19424094763942637,
          0.241509437179892,
          -0.026501517123094495,
          0.017182988690178792,
          -0.08535810876008694,
          0.0047914312382122265,
          0.21809421760701278,
          0.04769490213355622
        ]
      ],
      "biases": [
        0.05487748458764735,
        0.197159194821195,
        -0.002821791621544791,
        -0.04979288866999546,
        -0.004925998710233531,
        0.001460336375765398,
        0.11660429021092181,
        0.046697441088133756,
        0.11419597950124848,
        0.0017583551778220445,
        0.09167511588517349,
        -0.008303575645119302,
        -0.020012283681198947,
        -0.002938012114101949,
        0.01665197471237303,
        -0.0021666658629430407,
        0.008978822308198004,
        0.3378650693628905,
        0.005131328682980156,
        0.11924355340758992,
        0.011946809627457035,
        0.029763527600487755,
        0.05428679532393783,
        0.010976095955753407
      ]
    },
    {
      "weights": [
        [
          0.37765525750828643,
          0.29066226493256586,
          -0.15845175810530535,
          0.01480040847608279,
          0.042415990368478214,
          -0.27881432412506546,
          0.10899536854690901,
          -0.07374591187160917,
          0.393516769959542,
          0.08927070913453337,
          -0.14421188470526697,
          0.2949818430905526,
          0.203578185501657,
          0.10655868354055871,
          -0.2407672103000051,
          0.05059946391525159,
          0.16400380487914143,
          0.3635894224928017,
          0.08366356354478245,
          0.19697075146579363,
          -0.2302217285898884,
          -0.015430307469165325,
          0.28558051811723706,
          0.024890132926348518
        ],
        [
          -0.041999536914777605,
          -0.08715557033532419,
          -0.06963528098551279,
          0.1893228453632736,
          0.04699412331308924,
          0.249841920878164,
          -0.3488309769158134,
          0.2505689325609003,
          -0.029411982083440556,
          -0.2641546793725981,
          -0.3693949522489328,
          -0.06620234593502425,
          0.03514967222395259,
          -0.20529268374557194,
          0.0784524089639719,
          0.24904744589422886,
          0.3445160755629398,
          0.11922823394032414,
          0.26719108788136287,
          0.31276597010991,
          -0.01796050939215931,
          -0.04423164242369942,
          -0.17321473871066825,
          0.19582349040206046
        ],
        [
          0.006274373113022749,
          -0.2523097945359285,
          0.19115555182973237,
          -0.18671736174827816,
          0.21826078319270573,
          -0.34614294171521254,
          0.10059679331330519,
          -0.3253355438494866,
          -0.3467608435866541,
          0.12134818662241238,
          0.2984242497183671,
          0.01802879149513368,
          -0.13244319488100167,
          0.012850501631871908,
          0.28873188773594505,
          -0.17516450867822006,
          -0.2623850575952137,
          0.09303994329135773,
          -0.04198711834298265,
          -0.07827436377242798,
          -0.06427343218111851,
          0.11697811409316743,
          -0.14224858924503353,
          -0.30601577779521455
        ],
        [
          0.31600115913576543,
          -0.2896135372218035,
          -0.01831311577853811,
          0.14133588413186013,
          0.2605318628882571,
          -0.060774861600521576,
          -0.288090611566535,
          -0.09784102817417235,
          -0.20184754262163138,
          0.12345795872837857,
          0.12804789871371758,
          -0.29031490401583004,
          -0.171173718249797,
          -0.3297194697449483,
          0.0689368804725735,
          0.23820321089935792,
          -0.3021150110111865,
          0.17279676355182072,
          0.12605644511499933,
          0.155123104436965,
          -0.32533903797737,
          -0.2645335577064114,
          0.37710408122574063,
          0.1412590196092354
        ],
        [
          0.2908346187753221,
          0.4512277063707437,
          0.16527380825049767,
          -0.11296378038782875,
          -0.1460082140149489,
          -0.14799818519056282,
          0.14691892463866857,
          -0.2674875262806741,
          -0.09290008451960845,
          -0.20429788318436273,
          0.5598823143304673,
          0.008410948162596146,
          -0.15192804046090355,
          0.10707167373748519,
          0.5896032169987451,
          0.22691207772587993,
          -0.27631288193356596,
          0.741547094139697,
          0.172941963038339,
          0.21238473960506243,
          -0.14628025592802024,
          -0.06880174451718042,
          0.3788882844337366,
          -0.0335130091288044
        ],
        [
          -0.31473575277552,
          -0.2837111059177492,
          -0.14793245014568868,
          -0.28399563333257516,
          -0.008397337289862413,
          -0.1926797693881729,
          0.04220101701195794,
          0.15763356103485374,
          -0.253466728903365,
          -0.35007851296513637,
          -0.2804980878905762,
          0.21729868342254718,
          0.13642505995765042,
          -0.18738564074111552,
          -0.20236181239906179,
          0.16713137208415083,
          -0.047037209343721416,
          -0.2523100124500701,
          -0.1553564495233553,
          0.23549128592679586,
          -0.12432466708673734,
          0.34927640444825053,
          0.2431329502406916,
          0.01341641766684575
        ],
        [
          0.2816864335568456,
          -0.20843826110553423,
          0.2803990415555067,
          -0.3157752943107749,
          -0.14839442416106385,
          -0.19206683356575846,
          -0.24288241194740956,
          -0.3250218749679798,
          0.08477673892474241,
          -0.12321016379718618,
          -0.19663224345089855,
          -0.11302770290925843,
          0.10914380520492777,
          -0.16578223078714344,
          0.139782400164284,
          0.1355112071938699,
          0.0638186573730304,
          -0.05137668254134802,
          0.2937761327177012,
          -0.0996425220166072,
          -0.04100109500878601,
          0.3594388089348219,
          0.05917378978312168,
          -0.13629254642367716
        ],
        [
          0.08079736786243708,
          0.2775690095101984,
          0.022878778612727656,
          0.2751618848120237,
          0.06629995632698782,
          -0.329380253580358,
          0.10714855815485504,
          -0.4029311764516718,
          -0.28076390734049905,
          0.018783486905010287,
          0.23275961462945818,
          0.2581518072194684,
          -0.07420969118484391,
          0.04988398146135861,
          0.11719445918478125,
          0.095820600332895,
          -0.13306104538465238,
          -0.19370164651801122,
          0.1409649918301176,
          0.30277683741582634,
          0.20425889950285078,
          0.1833968548317357,
          0.23550317519853142,
          0.29863607648575013
        ],
        [
          -0.1219000616774295,
          0.2912453352393067,
          0.02710769897272604,
          -0.3398872326009603,
          0.02426282194668314,
          -0.027430659512199706,
          0.21744762361503298,
          0.3430344289862044,
          0.17544091131162085,
          0.015125104799964251,
          -0.20858890133010632,
          -0.14261344862641195,
          0.03106623420900662,
          -0.07666985150120287,
          0.1120331475134505,
          -0.23292531116996135,
          0.2742726150838928,
          0.5549366716250698,
          -0.20655514912017794,
          0.27079836402310564,
          0.14977209264135782,
          -0.3161612510421335,
          -0.03653302797843991,
          -0.1536743450460861
        ],
        [
          -0.27560220302647803,
          -0.07694073066822907,
          -0.31412657596246807,
          -0.08681593109754822,
          -0.24214520925447375,
          0.22769619627102444,
          -0.05135793404571597,
          0.35132519455711964,
          -0.09795798050202557,
          0.3043593139427596,
          0.08730858818230398,
          -0.3422557029527567,
          0.17401749772866779,
          0.05429442402109984,
          -0.2663932616736952,
          0.19938155340379568,
          -0.1402198570081525,
          0.10236061610839774,
          -0.35009281150498217,
          -0.09858949518095515,
          -0.33602219058325794,
          -0.27821703798757474,
          -0.03815568750706013,
          0.03725050506577052
        ],
        [
          -0.039514720970199285,
          0.04483701641575967,
          0.13671530837676651,
          -0.13390371989060565,
          -0.20141261243112946,
          0.2004362066053433,
          0.07029394923766942,
          0.04799442509624241,
          0.00789711359933997,
          -0.025488390740624926,
          -0.10954333798845867,
          -0.1393248169116447,
          -0.16976001484879244,
          0.06324867670030446,
          -0.3552568759606244,
          -0.17788063555770525,
          0.3356457024903882,
          0.09834648893444087,
          0.3062700616350814,
          -0.33859360543392725,
          -0.312794897339705,
          -0.20598076238708485,
          -0.10712130662670846,
          0.3158984804253994
        ],
        [
          -0.277306260873179,
          -0.048525568823643596,
          0.17108291881797277,
          0.08861274852616641,
          0.02321732353897976,
          -0.2232214319342192,
          0.08947706138415458,
          -0.00026911920599343364,
          0.3183485969667348,
          -0.1125569032387085,
          0.2341038701203421,
          -0.1388931421777835,
          -0.2312007284431077,
          0.24526414521338746,
          -0.16113759246514647,
          -0.32832136691439795,
          0.33466291365317574,
          -0.17170115906789962,
          0.3220212166023487,
          0.07958114441064587,
          -0.2215915218524862,
          -0.2936884508684821,
          -0.13554954366580504,
          0.02519065506892679
        ],
        [
          -0.08581593660636244,
          0.31550766330797264,
          -0.3353513115907963,
          -0.24908874254846305,
          -0.08047075444171109,
          0.10575596234738657,
          -0.16213328238815516,
          -0.20410346216315584,
          0.28348000644952825,
          -0.10053548262784587,
          0.2811304373026787,
          0.19474024449608385,
          0.3351035985055851,
          0.11190879238299287,
          0.07319860653356927,
          -0.34764670861537367,
          -0.051813907628914364,
          0.02451729183673941,
          -0.22871219044053503,
          0.006984266188281338,
          0.2387440464413334,
          -0.09004341773018014,
          -0.06161933514962401,
          0.08124254170843291
        ],
        [
          0.3448597084204723,
          0.19735154888657042,
          0.2976185441825311,
          0.2602503078701145,
          -0.24541969934609784,
          0.19820113663443936,
          0.31682382045579244,
          -0.027457735911484874,
          0.2066913726108079,
          0.03857692117220392,
          0.11718276301835562,
          0.15334613857066612,
          0.2365412683497423,
          -0.3416738417616311,
          -0.1332699059012327,
          -0.012939009061132174,
          -0.2761631461352808,
          0.32901598325393977,
          -0.17172094268143503,
          0.299394331711413,
          -0.32203968177381603,
          -0.25612758793410917,
          0.1533110150600769,
          0.0377017828034568
        ],
        [
          0.09004587987351317,
          -0.31881240035834485,
          -0.106398091235339,
          0.05364258918170449,
          -0.2002518961516341,
          -0.11867520739233642,
          -0.17951977497307364,
          -0.07710509253684396,
          -0.1378248410076806,
          0.2994440723859845,
          0.04359453745786661,
          -0.17195554235119198,
          -0.14308178697779017,
          -0.3375369961564784,
          0.3423681578023095,
          0.16084578746755654,
          0.13632357812011583,
          -0.09964806549703928,
          -0.008112351802549872,
          0.291544629547229,
          0.0030460119106511976,
          -0.03595661860080316,
          -0.15008442512680403,
          -0.22654036276808578
        ],
        [
          0.07196907309853523,
          -0.1257661639190565,
          0.28089391486552906,
          0.2951138591663909,
          -0.30941461729562747,
          0.15609174105920987,
          -0.30555338325910814,
          0.09758678320735595,
          -0.11257396524741732,
          0.11078778607316776,
          -0.030486336209011474,
          -0.11563301422087052,
          0.28333382172878574,
          -0.3499804538602467,
          -0.31792513534694145,
          0.258931739544717,
          -0.00995183181964996,
          -0.2822963834316178,
          0.14388925424052862,
          0.1567790198538295,
          0.3411095105308601,
          0.003192398602269375,
          -0.3230338546998312,
          -0.1909867527007781
        ],
        [
          -0.026113662296769462,
          -0.20003425536660027,
          0.20966479730277748,
          0.15701307462299627,
          -0.05781423144048363,
          0.06147148107804012,
          -0.07573866069528812,
          0.1208041152933616,
          0.3471366253944441,
          0.062161480788966585,
          0.006747256147321617,
          -0.003275338889107018,
          0.3407537014997283,
          0.22634326008453368,
          0.2978139737278831,
          -0.05597007048742033,
          0.10026542322443055,
          -0.3446872345942616,
          0.14812166008831945,
          -0.26414417697279763,
          0.2314345089824767,
          0.03474844168449241,
          -0.25692453182858116,
          0.15112418783842824
        ],
        [
          0.27321562215803397,
          0.3219268712547577,
          0.16598095231352633,
          -0.0897905837129665,
          -0.010864719293907274,
          0.042309543007252884,
          0.5138530157961898,
          0.010987513406722792,
          0.1717776168950355,
          0.1362909946713289,
          0.42208638453350766,
          -0.061871265321028435,
          -0.1592127534045877,
          -0.1603399219516507,
          -0.10051176932987024,
          -0.17787656418965506,
          0.25461592907937325,
          0.8700921436497195,
          0.04950462394134876,
          0.3122929529333136,
          0.13310470241918024,
          0.36374207972590117,
          0.14196536120487865,
          0.35337364412389566
        ],
        [
          -0.2800684415286893,
          0.3129907711902713,
          -0.2803060164234664,
          -0.3019665511458855,
          0.198300273543186,
          -0.2350365635527241,
          -0.31596720874133627,
          -0.3359017899298386,
          0.009519250646476811,
          -0.13663842415188757,
          -0.08699085689319601,
          -0.33612041666155673,
          -0.0296393343043167,
          -0.04924962094897705,
          0.28023860762632796,
          0.04164448598583791,
          0.2883799568854766,
          -0.1506649929891455,
          -0.15077668713105816,
          0.06317867966767145,
          -0.3035311272329201,
          -0.14665243814587334,
          -0.07336610377786482,
          0.10456975916598164
        ],
        [
          -0.042303219831240406,
          0.20930251741282538,
          -0.07745844346133833,
          0.25779347427968974,
          -0.1875649745418937,
          0.21583847636796452,
          0.3691208144322692,
          -0.2814843789009713,
          -0.3000170049323769,
          -0.20586252174779207,
          -0.00015844908304484134,
          0.3401787805197872,
          -0.29210907319969065,
          0.31967772565947394,
          0.29624326953213964,
          0.1183474251464331,
          -0.27501104992321174,
          -0.05837144036071879,
          -0.1809134328533782,
          0.07667888441652787,
          0.1032784676553956,
          -0.22669529127361945,
          0.09747203706728534,
          0.10667449187794466
        ],
        [
          -0.10804699211382451,
          0.26385918229383987,
          -0.3025202218203539,
          -0.03763874510555377,
          0.18876962226580948,
          0.3248221101799864,
          -0.28256109889918496,
          -0.3018303845861965,
          -0.04400025018140475,
          -0.11067655136069877,
          -0.2181245303745031,
          0.0029628703539636434,
          -0.25965232869823174,
          0.20475366619894864,
          -0.1531066858127677,
          0.1324475020227183,
          -0.2398916664141573,
          -0.14647507199705762,
          0.01012589282909786,
          0.24708601704680602,
          -0.3331453868347461,
          -0.30215952983245786,
          -0.28684702674103046,
          0.19431186634748598
        ],
        [
          -0.26408006721002725,
          0.0443565417535026,
          0.36557020919537586,
          0.1274299441360989,
          -0.21699218812650795,
          0.06441819602525606,
          -0.19017486841784828,
          -0.12403753754302227,
          0.13110726965388214,
          -0.02869200536439439,
          -0.10636056277522765,
          -0.19512873325642904,
          -0.331587173022171,
          0.14326113856025063,
          0.14087417090462573,
          0.02726914429860058,
          -0.33423977391770593,
          0.046430575996989736,
          -0.16623779792941143,
          0.17616990090334222,
          0.348879147398409,
          0.13520143557265077,
          0.29850017319981725,
          -0.11941257348162168
        ],
        [
          -0.05719413398175159,
          0.2544378055286171,
          -0.1477791738898889,
          0.024362232677770587,
          0.04563779204850636,
          0.1814736330627458,
          0.010069275276704169,
          0.054834049561845066,
          0.0725943442637699,
          -0.18698347735632476,
          -0.1855234603988584,
          -0.30991886436295707,
          -0.08205540117715548,
          0.14888040876536598,
          0.23354369508682393,
          -0.22166458708807718,
          0.17011978493041285,
          0.00754676292744475,
          -0.180581593168609,
          0.038147279629144645,
          -0.0817100431602082,
          -0.2635960722944478,
          -0.09064989376049287,
          0.21866334423634956
        ],
        [
          -0.035961151969206406,
          0.4161020221792075,
          0.12749587102559332,
          -0.13240445354276234,
          -0.3782850332787359,
          -0.026706103869897555,
          0.41386298675878597,
          0.2169398275868428,
          -0.2842383202472109,
          -0.16720112578435786,
          0.3878176452465009,
          0.2494336248444995,
          -0.1497303893174027,
          0.20337564975222863,
          -0.08422145244106048,
          0.18353525319042963,
          -0.2256188632495799,
          0.4734228245596507,
          -0.17094834396295214,
          -0.23387469573418324,
          -0.1177683030888866,
          -0.12363160735190416,
          0.3537769263698582,
          0.2643666892026092
        ]
      ],
      "biases": [
        0.06082544585366161,
        0.06660578413836438,
        -0.015688220300120796,
        -0.010093980873690256,
        0.2241050720154943,
        -1.5821433624731706e-05,
        0.030306289555236007,
        -0.11301922916513026,
        0.1633407058302973,
        0.034747110475672,
        -0.02875788096626647,
        0.012891830126369942,
        0.05919704013384448,
        -0.0071183176465459165,
        -0.03965613327018771,
        -0.001253465352246972,
        -0.004996931227361574,
        0.37881530522981677,
        0.0001814272310476901,
        0.007844180378582786,
        0.0016005324356116524,
        0.0642319943742532,
        -0.027070735723891546,
        -0.0008033843405419784
      ]
    },
    {
      "weights": [
        [
          -0.18735433326382994,
          -0.0062648422585746795,
          -0.39373207359087103,
          -0.1281053946221358,
          -0.40612185056448286,
          0.17691029163783803,
          0.15134362688648023,
          -0.011020189429694167,
          -0.2784307436978748,
          0.284798794755422,
          -0.1636467459606402,
          0.23330987601295275,
          -0.21601273804629223,
          -0.3568539447553461,
          0.17864759351632534,
          0.33593989463677537,
          -0.018465372997125702,
          0.18586721107245607,
          -0.16332011620853248,
          -0.3673568382729451,
          0.31911745757296783,
          0.1993596533177036,
          0.17622007964526976,
          -0.39682978064409175
        ],
        [
          -0.19375940085628077,
          -0.41933087722043055,
          0.010763812694509774,
          0.15383647092116665,
          0.2590745526937881,
          -0.15657138433788478,
          -0.33559074383684007,
          0.17078199628721538,
          -0.28659259905989426,
          -0.30830356025178024,
          -0.2950589011926381,
          0.2510966775281426,
          -0.30844936033488163,
          -0.2989512457489706,
          -0.19136692412110287,
          -0.32213726751804406,
          0.04015853932155783,
          0.27456768451396607,
          -0.043496054023032756,
          0.3614311236392896,
          -0.25223200304152454,
          -0.062291628551642976,
          0.22279547757876236,
          0.00011877596086042096
        ],
        [
          -0.03628640852073391,
          -0.37965093143135653,
          0.016527612733006545,
          0.41237689510160763,
          0.25019821269228437,
          0.06335060144122913,
          -0.24343230710569763,
          0.3696348725917776,
          -0.030918880183446715,
          -0.13031124389445878,
          0.20834891575749634,
          0.1002056786872513,
          -0.3058006429425694,
          0.19739288592005075,
          0.34415160333018535,
          -0.21270267517130464,
          -0.15892109398554438,
          -0.4701837839963992,
          0.3534478959440842,
          0.30397947897296446,
          -0.3294044319233611,
          0.0016388924996230071,
          0.09074950640127803,
          0.27331256778192825
        ],
        [
          -0.23339972149104835,
          0.2830196133175252,
          0.058918489877535445,
          -0.10295008869589135,
          0.12421569864871947,
          0.032602135512993756,
          -0.08140579683467872,
          -0.05709383670811749,
          0.024051553982748854,
          -0.2568928983531869,
          0.14727607603231052,
          -0.16534788140257783,
          0.060818523846455946,
          -0.08060536874982713,
          -0.3549642289066329,
          -0.3116975462068426,
          -0.01737589754235678,
          -0.2591460724093582,
          -0.143068847362929,
          -0.11145599107744228,
          -0.17757778387241033,
          0.21593815099522484,
          -0.2850687121588485,
          0.35668385544346004
        ],
        [
          0.25024658135117883,
          0.28677043632799687,
          -0.2653874172808187,
          -0.21590118133725325,
          -0.08813022917825018,
          -0.2969735242454414,
          -0.14047753816678188,
          -0.11776449835933078,
          -0.37494623002676014,
          0.057879733915338905,
          -0.17004357610038284,
          0.2676768089859062,
          0.302185749535288,
          -0.10388833447181885,
          -0.0067293316410260455,
          -0.15551067643202723,
          -0.29488627371662296,
          0.38361315207320335,
          -0.19047530956300535,
          0.13082645805752968,
          0.10450651655199568,
          -0.02265132330729621,
          -0.3511970008045827,
          -0.23479735910425123
        ],
        [
          0.22449443523370036,
          -0.07439051914939351,
          0.0807794220383609,
          0.037624599785996554,
          -0.09114147093188184,
          0.1477710632154451,
          0.3306333499375084,
          -0.07656313788138717,
          0.40056635735500346,
          -0.04375013528912104,
          -0.18647210764829328,
          0.1960261371714562,
          0.31990086411421176,
          0.1913534131757812,
          -0.18671882274696341,
          -0.28421040526880065,
          -0.010431447221785302,
          -0.21546465991638022,
          -0.2869528382263237,
          0.14947023796729714,
          -0.10337942796183486,
          -0.21858414021052716,
          0.35851521067594916,
          -0.016950662319740163
        ],
        [
          -0.07356023248949488,
          -0.20067615602266792,
          -0.0010216936158798766,
          -0.038080212892173206,
          0.5519589142129213,
          0.04268439151656852,
          0.3420444263821985,
          0.34083738791473367,
          0.11539407117241886,
          0.24737626377596666,
          0.04130581246730747,
          0.13114171309362377,
          0.2513478461558624,
          0.4156604477444094,
          0.23929197719672407,
          -0.3566509061750593,
          0.021629448292621832,
          0.2193911257046113,
          0.350178969780282,
          -0.17568857869378748,
          -0.05455158658662852,
          0.18915028192099115,
          -0.25558629703875924,
          0.13569134362792348
        ],
        [
          -0.11142147225280001,
          -0.09846593001561912,
          0.021112739001521726,
          -0.30012694625200526,
          0.4302595346019087,
          -0.2722325006677928,
          0.013352278357680894,
          -0.29982691726769617,
          -0.3079061709710343,
          -0.11643842540820583,
          -0.2361935885209155,
          -0.2765091048611359,
          0.06165443645616372,
          0.346325963586342,
          -0.33859032556413843,
          0.09918370635509603,
          0.2642287586496803,
          0.25329724040657253,
          -0.23536023940291256,
          -0.24707778866935617,
          0.13311763019302217,
          -0.002584952594314889,
          0.14033501301753173,
          0.04606020090710201
        ],
        [
          -0.09195944179876882,
          0.12215911581753797,
          -0.2410883487155992,
          -0.39412250809577826,
          -0.023843506384331675,
          0.3421082897676251,
          0.006189876100212645,
          0.3662444077483756,
          0.04281312549356036,
          -0.01886546238649696,
          -0.3417036553323261,
          0.20823397612391809,
          0.04181509657169548,
          0.15489350530920584,
          0.20752161401917177,
          -0.13512098177336207,
          -0.15287739026791802,
          0.02927253436694016,
          0.09817332053850196,
          -0.07372490179079014,
          0.3060737418507724,
          -0.002552398319937787,
          0.2825173492585409,
          -0.3705509877286813
        ],
        [
          0.22959485077505803,
          0.2900005976855501,
          -0.3550974238570192,
          -0.30772560767550583,
          0.2933263188480799,
          -0.059105378415083044,
          0.1413168795643047,
          -0.14435127689100888,
          0.4182661274769798,
          0.1595632447261793,
          0.28406967712888426,
          0.296763928098668,
          -0.313549930344647,
          -0.13106000023628328,
          -0.11415384959404408,
          0.1796727293448764,
          -0.07755799760001404,
          0.5015256542275996,
          -0.11060036220873858,
          -0.05549069886195347,
          -0.24112278712247828,
          0.36456020829342567,
          -0.24775643435287947,
          0.008838070465023086
        ],
        [
          0.12753190846695667,
          0.08186019755457688,
          0.059950442618509604,
          0.1471193203679827,
          0.07103238900734125,
          -0.07185016824380158,
          -0.3173597669973652,
          -0.09861292943538659,
          0.19125941209037597,
          -0.024859367141052337,
          0.25242149504304146,
          -0.04968429690122088,
          0.0433888971535739,
          0.2488615597273909,
          0.053906766752496664,
          0.28887337586071626,
          0.08912787508593017,
          0.18793606366270704,
          0.19856300660908816,
          -0.333397433294417,
          0.024356305647667845,
          -0.1176342532191701,
          0.005802099961053297,
          -0.1570271052751822
        ],
        [
          -0.24218996632917478,
          -0.08226878794230542,
          -0.24579258060974699,
          -0.3706008131289629,
          -0.6409989167432347,
          0.3224734599272055,
          0.2732528674916855,
          0.008271994563103043,
          -0.18495338824111224,
          -0.2929463301638276,
          0.2792257373399344,
          -0.18216343620265052,
          -0.10301935437103381,
          0.1086839461351347,
          0.3008825494518141,
          0.21484834405232048,
          0.2875437531127978,
          -0.6959064860982846,
          0.0795266690503799,
          -0.2627952614078429,
          -0.09812163110409997,
          0.0027213966294299765,
          0.028702789344183393,
          -0.213249029910896
        ],
        [
          0.20558779977125388,
          0.0969737389460541,
          -0.2859041335699452,
          0.2677202048978953,
          -0.02720989774974499,
          0.18098118938901836,
          0.10216224061003018,
          0.25626793841473916,
          0.20247723722267724,
          -0.2636522912284912,
          0.01873244752778482,
          0.18079989431943988,
          -0.23231390611352096,
          0.39348323140169944,
          -0.25031241175990193,
          -0.00970601640766668,
          -0.1936454505006428,
          0.5348566559312613,
          0.36153947892211974,
          -0.30605923435889515,
          -0.312356779017782,
          0.15591972003015878,
          -0.020783371474060484,
          -0.09554061518380615
        ],
        [
          0.21780260070021773,
          -0.028774177825952253,
          -0.2971286221712843,
          -0.2329888708598702,
          0.09776536552654722,
          -0.07170352037424117,
          0.3035471336965357,
          -0.12012539327057674,
          0.4297493779973433,
          0.25588324807980034,
          -0.3599604141354858,
          -0.27035552266674,
          0.22279207987027813,
          0.07286891900080429,
          -0.15864668310970942,
          0.16606413772700984,
          0.27714751013767197,
          0.20022495428906567,
          0.13377608514760056,
          0.06042949618743323,
          -0.13187123326195638,
          0.11401751213461868,
          0.2356562731725337,
          0.27538589357540155
        ],
        [
          0.34666143478586314,
          -0.21096115849977534,
          -0.04167315331875033,
          -0.014676946908624793,
          0.1982603245558467,
          0.0017003917080668381,
          0.2059537346280277,
          -0.21684794753190656,
          0.283104379513375,
          0.24146986676797944,
          -0.04303112563382593,
          0.03310918729467066,
          -0.35650416593207784,
          0.2258127147498283,
          -0.08066936885627189,
          0.34857227437132676,
          -0.14580159193694148,
          0.4552924385027529,
          -0.2817418173485026,
          -0.3251136669929828,
          0.25949794568149664,
          0.0959105451109532,
          -0.03240416992698093,
          -0.14320101630943
        ],
        [
          0.14273542076235146,
          -0.31913951975422833,
          0.3638986365292518,
          0.1206224439842319,
          0.4638249823781812,
          0.15115645215250115,
          -0.004416592580776829,
          0.19726154069458812,
          -0.0934306394748224,
          -0.057406783444585004,
          0.14027761670597447,
          -0.021882813989414274,
          0.32895584067818673,
          0.09475433361747904,
          0.02945069156540341,
          0.13401793430548217,
          0.25688923604210157,
          0.451451637844293,
          0.198595767579217,
          0.3170403343214457,
          0.25573787984653884,
          0.2400068288195537,
          0.20304199242189966,
          0.04789007243778167
        ],
        [
          0.3114680892102658,
          -0.08412599941978013,
          -0.19089768985845723,
          -0.025141770873821804,
          -0.504194098148658,
          0.3560100557772286,
          0.29476186622665673,
          -0.0817969085570583,
          0.09281215314577813,
          0.35865534567239615,
          0.3567828824526424,
          -0.1677531027442845,
          -0.07284526730886162,
          0.06996122519049883,
          -0.1353585533214137,
          -0.15490172594130458,
          0.2306026660066472,
          -0.4642866597534338,
          -0.02754115143981351,
          0.11681397493401185,
          -0.11734016338347324,
          0.03351921193320377,
          0.050385826055216756,
          -0.3580966850276079
        ],
        [
          -0.12307991357714197,
          0.22897645048650173,
          0.07880786892321791,
          0.055179662917774645,
          -0.44990018544942906,
          0.14872268161922686,
          0.04416174493212523,
          0.16434123014178864,
          -0.08174764623026258,
          0.11395063600354971,
          0.1660081456566175,
          0.28868323548762753,
          0.13902106983009596,
          0.12539302834954852,
          0.34614124748548264,
          0.0671846983976583,
          0.29168564357579696,
          -0.44033740667173527,
          0.12527718159863283,
          0.2675549084215066,
          -0.2335334893143188,
          0.2790538279101533,
          -0.27481107229853247,
          -0.18277160774924184
        ],
        [
          -0.15921561605882134,
          0.29682634800970065,
          -0.004388861775481072,
          -0.2621064694999708,
          -0.2441787942461486,
          -0.08623773737826972,
          -0.12836215287861114,
          -0.06655419719248039,
          0.2615955207060041,
          0.08022814451608952,
          0.26396968153609035,
          0.003457190581981122,
          0.08852480162749277,
          -0.2192811292998617,
          -0.10944424943972028,
          0.0939624682546864,
          0.11416803006982283,
          -0.4064715803452725,
          0.30622625302978845,
          -0.2529938116862186,
          0.21299095013259223,
          0.08050758378778862,
          0.12573373021765769,
          -0.22879250094928247
        ],
        [
          0.13155560430881041,
          0.3317402005177465,
          -0.16305781271060507,
          -0.15287958076474262,
          -0.4004313468552238,
          -0.12739758069267323,
          0.22821599237229015,
          0.14453892287248196,
          -0.2685608115464011,
          0.09654990150373671,
          0.11210507629766757,
          0.2582371923068802,
          -0.16838214872222074,
          0.03442885673561651,
          -0.08764007108208109,
          0.17758972688777316,
          -0.013311200658684507,
          -0.2800362504098215,
          0.36313985513478614,
          0.06319825921385507,
          0.06310870934353521,
          0.32665672995747524,
          0.26617294734782987,
          -0.360310343079752
        ],
        [
          0.2912569554247844,
          0.12494528961721633,
          0.09391071041999506,
          0.1372397865640938,
          -0.3026433707023287,
          0.3173775732656587,
          0.06311734059340449,
          0.17487367622789485,
          -0.378325194950704,
          0.019210596890434903,
          0.28792873771474237,
          -0.2549257865259999,
          -0.007941595974072246,
          -0.04470205947429411,
          -0.08154080840892157,
          -0.30993490698122317,
          0.2873461334037407,
          -0.42820658233185943,
          -0.07179416014735765,
          0.16962864027818247,
          0.05960925319872284,
          0.020025788188142428,
          0.13667849214385544,
          -0.21177192365336814
        ]
      ],
      "biases": [
        0.00016866082800209164,
        -0.09597712076628283,
        -0.21358486290855397,
        0.03289426992657373,
        -0.04528718888016118,
        0.06175738820759665,
        0.1403801022336178,
        0.07849742537662205,
        0.02943430137331004,
        0.1061983711677318,
        0.09506278198627,
        -0.3321372985224864,
        0.10136419658581626,
        0.10425889025620161,
        0.09148215270087932,
        0.08000767603182876,
        -0.026934535076044954,
        -0.036816800826313716,
        -0.02241914957302977,
        -0.03715774520847268,
        -0.11119151491310467
      ]
    }
  ]
}